tree
version=v4
num_class=3
num_tree_per_iteration=3
label_index=0
max_feature_idx=144
objective=multiclass num_class:3
feature_names=Column_0 Column_1 Column_2 Column_3 Column_4 Column_5 Column_6 Column_7 Column_8 Column_9 Column_10 Column_11 Column_12 Column_13 Column_14 Column_15 Column_16 Column_17 Column_18 Column_19 Column_20 Column_21 Column_22 Column_23 Column_24 Column_25 Column_26 Column_27 Column_28 Column_29 Column_30 Column_31 Column_32 Column_33 Column_34 Column_35 Column_36 Column_37 Column_38 Column_39 Column_40 Column_41 Column_42 Column_43 Column_44 Column_45 Column_46 Column_47 Column_48 Column_49 Column_50 Column_51 Column_52 Column_53 Column_54 Column_55 Column_56 Column_57 Column_58 Column_59 Column_60 Column_61 Column_62 Column_63 Column_64 Column_65 Column_66 Column_67 Column_68 Column_69 Column_70 Column_71 Column_72 Column_73 Column_74 Column_75 Column_76 Column_77 Column_78 Column_79 Column_80 Column_81 Column_82 Column_83 Column_84 Column_85 Column_86 Column_87 Column_88 Column_89 Column_90 Column_91 Column_92 Column_93 Column_94 Column_95 Column_96 Column_97 Column_98 Column_99 Column_100 Column_101 Column_102 Column_103 Column_104 Column_105 Column_106 Column_107 Column_108 Column_109 Column_110 Column_111 Column_112 Column_113 Column_114 Column_115 Column_116 Column_117 Column_118 Column_119 Column_120 Column_121 Column_122 Column_123 Column_124 Column_125 Column_126 Column_127 Column_128 Column_129 Column_130 Column_131 Column_132 Column_133 Column_134 Column_135 Column_136 Column_137 Column_138 Column_139 Column_140 Column_141 Column_142 Column_143 Column_144
feature_infos=[-3:3] [-3:3] [-3:3] [-3:3] [-3:3] [-2.7588604995078372:3] [-3:3] [-3:3] [-3:3] [-3:3] [-3:3] [-3:3] [-3:3] [-3:3] [-3:3] [-3:3] [-2.3603883380121395:2.1350048629161829] [-3:3] [-3:3] [-3:3] [-3:3] [-3:3] [-3:3] [-3:3] [-3:3] [-3:3] [-3:3] [-3:3] [-3:3] [-3:3] [-2.8741608977454667:3] [-3:3] [-3:3] [-3:3] [-3:3] [-3:3] [-3:3] [-1.7233687939614082:0.6305625643892504] [-2.1236760581595475:2.1985289199291485] [-2.4660552652827104:2.5739822484594987] [-2.4076261449569003:3] [-3:3] [-3:3] [-3:3] [-3:3] [-3:3] [-2.9896194898700306:3] [-3:3] [-0.36742346141747728:3] [-0.46617279325453098:3] [-0.54379618030497934:3] [-0.30352287214404833:3] [-0.29129181486537509:3] [-3:3] [-3:3] [-3:3] [-3:3] [-3:3] [-3:3] [-3:3] [-3:3] [-3:3] [-3:3] [-2.0378477580224104:2.2838527916512192] [-3:2.8170543373995036] [-3:3] [-3:3] [-3:3] [-3:3] none [-3:3] [-3:3] none [-3:3] [-3:3] [-3:3] none [-3:3] [-3:3] [-3:3] none [-3:3] [-3:3] [-3:3] none none none none none none [-3:3] [-3:3] [-3:3] [-3:3] [-3:3] [-3:3] [-3:3] [-3:3] [-3:3] [-3:3] [-3:3] [-3:3] [-3:3] [-2.8228426467186436:3] [-3:3] [-3:3] [-3:3] [-3:3] [-3:3] [-3:3] [-3:3] [-3:3] [-3:3] [-3:3] [-3:3] [-3:3] [-3:3] [-3:3] [-3:3] [-3:3] [-3:3] [-2.8774131418673115:3] [-3:3] [-3:3] [-3:3] [-3:3] [-3:3] [-3:3] [-2.505281663868713:3] [-3:3] [-2.6067812285893082:3] [-2.1257045325079096:2.2191134256540193] [-2.6026507894984521:3] [-3:3] [-3:3] [-3:3] [-3:3] [-3:3] [-3:3] [-1.7233687939614082:0.6305625643892504] [-2.0543919576822405:2.0543919576822418] [-3:3] [-3:3] [-3:3] [-3:3]
tree_sizes=3357 3399 3360 3429 3471 3409 3427 3464 3409 3452 3478 3442 3438 3486 3433 3443 3465 3433 3438 3462 3454 3423 3449 3451 3437 3471 3436 3432 3461 3449 3445 3489 3441 3441 3476 3443 3440 3459 3460 3455 3456 3449 3475 3477 3462 3449 3453 3438 3455 3469 3451 3448 3466 3463 3429 3484 3467 3456 3466 3456 3450 3467 3494 3437 3459 3454 3448 3460 3472 3467 3469 3464 3456 3465 3442 3444 3452 3446 3463 3465 3467 3445 3446 3465 3474 3459 3460 3482 3482 3475 3468 3456 3488 3444 3458 3462 3454 3461 3478 3455 3454 3470 3480 3455 3440 3477 3463 3460 3475 3462 3473 3460 3474 3482 3464 3478 3481 3473 3493 3440 3472 3454 3480 3459 3453 3468 3464 3451 3444 3478 3460 3485 3472 3475 3472 3460 3462 3477 3477 3473 3469 3449 3474 3485 3451 3491 3458 3459 3493 3457 3486 3450 3466 3490 3464 3472 3467 3475 3465 3450 3461 3471 3484 3469 3489 3442 3458 3467 3450 3473 3452

Tree=0
num_leaves=31
num_cat=0
split_feature=37 37 22 22 22 8 0 1 15 3 52 3 51 130 142 24 18 117 66 31 31 42 0 62 144 22 13 127 137 117
split_gain=1641.1 2944.51 1280.03 243.575 123.812 59.3602 54.332 48.2533 43.7601 36.5661 39.0659 31.9849 34.2416 31.9039 34.7948 30.81 35.5921 30.1614 28.0472 27.884 32.9377 26.6411 36.4249 31.1665 26.7516 26.5508 26.2493 25.2466 24.6461 23.6012
threshold=0.56679546721572949 1.0000000180025095e-35 0.38140522189470816 -0.70326054929271231 1.2978791960784075 -0.62643382775161438 -0.0069464271435204774 -0.048118944404873278 -1.2251459457941738 0.10944635546701488 -0.21498018401173477 1.6659091548054887 -0.19254503830225436 2.5880220493691111 1.1051213581030945 -0.18546431364590274 -0.17018282617526123 1.4045347125683862 0.93502231312742345 0.82111773465264049 -0.97256751406530417 0.21738902501601479 -0.059545551920491012 -0.39359173984116597 -0.53051078362027615 -0.40276236033055979 0.058570838272813432 2.6512623283842331 -0.17630455500600223 1.173686506858288
decision_type=2 2 2 2 2 2 2 2 2 2 2 2 2 2 2 2 2 2 2 2 2 2 2 2 2 2 2 2 2 2
left_child=1 -1 3 8 7 15 -6 19 -3 10 17 12 28 14 -11 -5 -17 -7 26 20 -4 22 -12 29 -25 -26 -18 -9 -8 -24
right_child=-2 2 4 5 6 9 11 27 -10 13 21 -13 -14 -15 -16 16 18 -19 -20 -21 -22 -23 23 24 25 -27 -28 -29 -30 -31
leaf_value=-1.9087111189261501 -1.9087390808181945 -1.8805162191259737 -1.707308820020025 -1.8712525999189615 -1.703426857635743 -1.8690189506695858 -1.6868321916102964 -1.7798707010868078 -1.8498782253761294 -1.8021737085207501 -1.7162818303059069 -1.6914596683045504 -1.8215673246879414 -1.6533142523113744 -1.7403182649596396 -1.7946317993260934 -1.8839544626701137 -1.7609244784815972 -1.7470248242679434 -1.7033473138177677 -1.7709178446008755 -1.8309383818835983 -1.8531515938628584 -1.8258268961405126 -1.8211540826813486 -1.7375375969417619 -1.8101439285196819 -1.6825227422718636 -1.7993567021138195 -1.7657669386592572
leaf_weight=1127.2652170956135 1672.7035067975521 223.809685587883 27.780572861433029 57.126248419284821 169.61800472438335 48.909459263086319 11.933908060193064 243.76474496722221 243.17783145606518 129.31661029160023 13.499010756611822 13.107735082507132 23.476540446281437 4.3040324151515952 27.584935024380684 49.887648448348045 40.105756595730782 7.4342378079891196 5.8691351115703574 36.975551202893257 76.103118613362312 78.25513482093811 36.779913365840912 23.476540446281433 13.107735082507132 34.432259321212769 17.216129660606384 6.8473242968320838 8.2167891561984963 9.781891852617262
leaf_count=5762 8550 1144 142 292 867 250 61 1246 1243 661 69 67 120 22 141 255 205 38 30 189 389 400 188 120 67 176 88 35 42 50
internal_value=-1.86953 -1.84618 -1.80427 -1.83751 -1.74703 -1.81636 -1.71759 -1.76405 -1.86456 -1.8064 -1.8178 -1.75995 -1.78053 -1.78761 -1.7913 -1.84132 -1.8262 -1.85476 -1.85113 -1.74064 -1.75391 -1.80785 -1.79407 -1.803 -1.78216 -1.76059 -1.86179 -1.77721 -1.73272 -1.83479
internal_weight=4481.87 2809.16 1681.9 1064.07 617.824 597.087 226.353 391.471 466.988 426.882 265.676 56.735 43.6272 161.206 156.902 170.205 113.079 56.3437 63.191 140.859 103.884 209.332 131.077 117.578 71.0165 47.54 57.3219 250.612 20.1507 46.5618
internal_count=22909 14359 8597 5439 3158 3052 1157 2001 2387 2182 1358 290 223 824 802 870 578 288 323 720 531 1070 670 601 363 243 293 1281 103 238
is_linear=0
shrinkage=1


Tree=1
num_leaves=31
num_cat=0
split_feature=37 37 11 18 6 116 36 32 141 31 17 120 38 120 37 0 68 15 103 12 105 50 6 77 20 41 51 64 20 92
split_gain=4007.45 7164.74 22.4497 26.8912 21.2746 18.6099 17.9567 36.4737 21.6363 20.043 17.1628 15.7063 20.2232 15.4165 15.0486 14.9018 13.843 15.646 13.7776 13.6346 12.5701 14.3695 12.9458 11.728 11.6555 11.4851 16.1693 13.1428 15.6403 22.4296
threshold=0.56679546721572949 1.0000000180025095e-35 -1.1186774152132619 -0.17018282617526123 -0.85202372336687981 -1.741145986857825 -0.9900773870902847 -0.97751254375184771 1.0890208514156672 0.99951209349093073 0.90653238470972097 -1.313879639239157 0.85544885365510981 2.4224045768437836 -1.0000000180025095e-35 -0.026898360064384431 1.1965246209318783 -1.7380781104719445 0.51931588550459462 -0.50229079881462158 -1.0636357594562347 -0.36696453105626914 -1.3235400982134511 0.6672873217345876 -0.070556823020564374 -0.41128616493704795 -0.19254503830225436 1.320536014941236 1.178444779898012 -0.57268254469887625
decision_type=2 2 2 2 2 2 2 2 2 2 2 2 2 2 2 2 2 2 2 2 2 2 2 2 2 2 2 2 2 2
left_child=1 14 16 13 5 -5 7 23 -9 15 -10 -11 -13 -4 -1 20 -3 18 -18 -15 -8 -22 -23 -7 -24 26 -6 28 -28 -30
right_child=-2 2 3 4 25 6 9 8 10 11 -12 12 -14 19 -16 -17 17 -19 -20 -21 21 22 24 -25 -26 -27 27 -29 29 -31
leaf_value=-0.31812678395112876 -0.31831015356690484 -0.464011827112285 -0.45097592358192579 -0.37265931316453588 -0.44636224130310437 -0.3288163990526205 -0.47490780543967426 -0.45060067032517109 -0.31812678395112876 -0.33380488609998327 -0.42918000750551516 -0.45290345154654504 -0.36740081927610019 -0.3688500556091876 -0.37635973478973139 -0.45614768321027566 -0.36763658021066942 -0.45499910429827167 -0.45445810698464661 -0.4460270909549422 -0.45646297938219837 -0.34861198257390147 -0.37300014147211968 -0.40211661689142097 -0.46744204251164811 -0.44765673095252878 -0.43178388810716056 -0.45822897336642476 -0.35913105110967142 -0.4245139056754989
leaf_weight=1826.4327451586723 2726.7330139875412 247.79784232378006 1103.1309351325035 14.670142531394957 227.7061253786087 14.032310247421266 8.9296519756317121 41.140182316303253 6.3783228397369367 6.3783228397369376 7.6539874076843262 18.178220093250278 11.162064969539641 10.843148827552797 11.162064969539641 111.93956583738327 12.118813395500185 40.183433890342712 7.3350712656974784 12.118813395500181 10.84314882755279 11.480981111526487 6.3783228397369349 8.9296519756317121 6.6972389817237943 572.45447486639023 136.81502491235733 29.978117346763611 20.72954922914505 35.718607902526855
leaf_count=5727 8550 777 3459 46 714 44 28 129 20 20 24 57 35 34 35 351 38 126 23 38 34 36 20 28 21 1795 429 94 65 112
internal_value=-0.366299 -0.394874 -0.446076 -0.444468 -0.439592 -0.427505 -0.430483 -0.410276 -0.432314 -0.438708 -0.378701 -0.404916 -0.420375 -0.450132 -0.318481 -0.446431 -0.458807 -0.43718 -0.400373 -0.409582 -0.421896 -0.408523 -0.387355 -0.357322 -0.421373 -0.442956 -0.436988 -0.427426 -0.422647 -0.400503
internal_weight=7306.05 4579.32 2741.72 2434.29 1308.19 284.792 270.122 78.1345 55.1725 191.988 14.0323 35.7186 29.3403 1126.09 1837.59 156.269 307.435 59.6373 19.4539 22.962 44.3293 35.3997 24.5565 22.962 13.0756 1023.4 450.947 223.241 193.263 56.4482
internal_count=22909 14359 8597 7633 4102 893 847 245 173 602 44 112 92 3531 5762 490 964 187 61 72 139 111 77 72 41 3209 1414 700 606 177
is_linear=0
shrinkage=1


Tree=2
num_leaves=31
num_cat=0
split_feature=37 37 22 22 8 8 0 22 24 123 12 17 3 138 68 25 64 32 26 120 28 32 71 36 3 30 10 103 39 58
split_gain=1640.71 2930.7 1399.63 282.635 135.191 106.841 68.228 57.7162 43.95 39.6686 38.8895 34.9479 32.6171 40.7883 47.0492 35.8398 32.9456 33.3517 32.7388 31.8559 36.2734 31.825 31.5671 31.2602 39.9985 35.5617 33.0822 30.6204 30.2875 34.7483
threshold=0.56679546721572949 -1.0000000180025095e-35 -1.0000000180025095e-35 -0.90577259796733733 0.80365906998040859 -0.27210046941914684 -0.020761221176652658 1.3651462484459593 1.3839606975016974 1.5168909289535912 -2.2480501659752896 0.88604478034594536 0.16387190242340779 -0.094048190431158002 -0.53683186540592687 -0.13594924983163822 1.2206607834235428 1.0756064054391079 -0.062301791108417277 -0.72716982231479088 -1.2160428434870967 0.83361019351917409 -0.29853647387327004 -1.3128549202825417 -0.054445256509618616 -1.2105210233941863 -0.014839334167597645 1.1738065093940795 -0.91833182093039434 2.2812031875646244
decision_type=2 2 2 2 2 2 2 2 2 2 2 2 2 2 2 2 2 2 2 2 2 2 2 2 2 2 2 2 2 2
left_child=1 -1 3 6 8 12 27 -6 10 19 11 -4 13 -5 -15 -14 17 -17 -19 -7 -21 -16 -23 25 -25 -8 -27 -3 -12 -30
right_child=-2 2 4 5 7 9 23 -9 -10 -11 28 -13 15 14 21 16 -18 18 -20 20 -22 22 -24 24 -26 26 -28 -29 29 -31
leaf_value=-1.9203591445269403 -1.9202082651507901 -1.8048511970198433 -1.7309386821652486 -1.7072979970963034 -1.8666792469199311 -1.8434706147603481 -1.9005127035102645 -1.9044631799211666 -1.8833659621907097 -1.8740507821546966 -1.8138639865608623 -1.8957873604110558 -1.889398696540926 -1.8143933255271885 -1.7277648084637049 -1.8240536035566188 -1.7076192241552037 -1.8558582112227435 -1.68341694055234 -1.7164529682749636 -1.807359040851594 -1.7365756633314209 -1.8384050175051374 -1.7181962780005071 -1.7758770539255395 -1.7034864412432644 -1.8270386452783152 -1.686543261299227 -1.8508473949164672 -1.7327200658238224
leaf_weight=1109.8676944077015 1656.9528177380562 46.3171606361866 15.309856444597246 30.038325935602188 264.53106388449669 58.526286661624908 5.0386869311332729 163.56352961063385 52.712417125701904 30.232121586799622 91.083956062793732 4.069708675146102 9.6897825598716718 43.410225868225098 55.037964940071106 42.053656309843063 11.046352118253706 3.8759130239486685 9.4959869086742383 12.015330374240873 126.54856023192406 14.147082537412645 16.472630351781845 264.14347258210182 33.914238959550858 13.371899932622915 9.1083956062793678 6.2014608383178702 234.4927379488945 6.3952564895153037
leaf_count=5727 8550 239 79 155 1365 302 26 844 272 156 470 21 50 224 284 217 57 20 49 62 653 73 85 1363 175 69 47 32 1210 33
internal_value=-1.88082 -1.85736 -1.81557 -1.77007 -1.86154 -1.79628 -1.738 -1.88112 -1.84079 -1.82072 -1.83441 -1.76556 -1.77266 -1.75977 -1.77199 -1.79956 -1.78647 -1.80218 -1.7334 -1.81254 -1.79948 -1.7505 -1.79136 -1.72947 -1.72476 -1.78046 -1.75355 -1.79088 -1.83842 -1.84771
internal_weight=4439.66 2782.71 1672.84 840.686 832.159 462.59 378.095 428.095 404.064 227.322 351.352 19.3796 235.268 159.106 129.068 76.1617 66.4719 55.4256 13.3719 197.09 138.564 85.6577 30.6197 325.577 298.058 27.519 22.4803 52.5186 331.972 240.888
internal_count=22909 14359 8632 4338 4294 2387 1951 2209 2085 1173 1813 100 1214 821 666 393 343 286 69 1017 715 442 158 1680 1538 142 116 271 1713 1243
is_linear=0
shrinkage=1


Tree=3
num_leaves=31
num_cat=0
split_feature=139 139 13 22 13 14 14 19 73 138 11 16 36 29 3 10 22 115 115 138 116 31 22 54 101 51 62 144 65 30
split_gain=1476.31 2447.46 974.711 139.197 135.611 75.9879 48.4718 47.0333 43.9743 31.9812 30.2815 36.1992 29.3356 35.9531 27.7987 32.4517 28.7835 27.7601 27.4531 26.7536 28.5281 28.2419 26.0079 29.3645 26.5422 25.4003 25.8446 25.7043 24.9182 24.735
threshold=0.56679546721572949 1.0000000180025095e-35 0.069285823240839886 1.2771401189024212 -0.90310178794313334 0.95027087963268508 1.4100725217609664 0.56636095081308391 -0.19651070429792647 -0.05826443287324181 1.464407442716634 1.3437510246302045 0.16644578473172503 -1.1689012192868098 -0.084838906697244962 0.31070846408345404 -0.89108190571973411 1.0289982564792686 1.0289982564792686 0.037554629395662051 -0.77111465384902089 -0.90851342423634518 0.40370741794329007 -1.9051346346668601 2.3383024382812008 -0.21398219200462651 0.68916084040651515 0.47932339894045656 1.53627683831447 0.096115510408946517
decision_type=2 2 2 2 2 2 2 2 2 2 2 2 2 2 2 2 2 2 2 2 2 2 2 2 2 2 2 2 2 2
left_child=1 -1 4 6 -3 7 22 14 9 -7 11 -5 13 -8 15 17 -17 -6 -10 20 -15 -22 28 -24 -25 -16 27 -27 29 -4
right_child=-2 2 3 10 5 8 12 -9 18 -11 -12 -13 -14 19 25 16 -18 -19 -20 -21 21 -23 23 24 -26 26 -28 -29 -30 -31
leaf_value=-0.038802498370342213 -0.038831174991677021 -0.005093938922951141 0.035944552446247412 0.12501409791812398 -0.0020049610147441356 0.095456568227468674 0.1461238067988288 -0.009741359153063265 0.074944612995767365 0.017640734373024391 0.14757284258807243 0.072428961616305576 0.13701464794706486 -0.026519610733529167 -0.0010573684114491028 -0.033174388367112458 0.074755556593536041 0.13053854765088829 -0.020823479150463495 0.094852948228117226 0.15602629389897149 0.029228189709868513 0.014069749339720661 0.086576188757667635 -0.030236471028058903 0.055204399528930817 0.00499699219378063 0.12291287053053315 0.12226106837319667 0.085018731965638125
leaf_weight=1071.8774445205927 1590.3820864856243 325.42568151652813 98.542616009712219 133.7711211591959 103.09696218371391 15.494949251413344 23.563869491219521 99.815862476825714 159.48919814825058 89.297047048807144 91.497681692242622 43.327740207314491 47.863676264882088 10.901421949267389 17.95812115073204 7.5498279631137839 33.979497358202934 4.1078301966190329 7.85163889825344 66.837575435638428 6.8632584363222149 12.193440064787863 15.601488277316092 277.900680154562 4.9495283216238013 39.362567275762558 14.466303527355192 21.769309744238853 12.612705558538435 34.725488871335983
leaf_count=5762 8550 1618 466 590 504 74 107 490 759 428 403 196 218 51 86 37 163 20 38 305 31 56 72 1279 23 188 70 103 59 163
internal_value=-0.000134722 0.0211403 0.0564274 0.0942051 0.0210021 0.0348278 0.0810457 0.0191429 0.0545459 0.0291469 0.124216 0.112149 0.103904 0.0907375 0.0310422 0.0176101 0.0551344 0.00307379 0.0704512 0.0772543 0.037991 0.0748945 0.0723914 0.0808487 0.0845321 0.0523964 0.0650942 0.0793157 0.055089 0.0487317
internal_weight=4483.08 2892.69 1820.82 881.152 939.665 614.239 612.556 342.106 272.133 104.792 268.597 177.099 168.223 120.36 242.29 148.734 41.5293 107.205 167.341 96.7957 29.9581 19.0567 444.333 298.452 282.85 93.5563 75.5982 61.1319 145.881 133.268
internal_count=22909 14359 8597 4019 4578 2960 2830 1661 1299 502 1189 786 768 550 1171 724 200 524 797 443 138 87 2062 1374 1302 447 361 291 688 629
is_linear=0
shrinkage=0.05


Tree=4
num_leaves=31
num_cat=0
split_feature=37 37 19 6 36 32 51 121 129 6 37 129 22 67 30 35 92 68 63 32 65 129 115 6 20 65 77 81 142 14
split_gain=3583.68 6072.15 18.0165 19.9193 15.2357 29.1602 16.8554 21.0487 16.3943 16.0342 14.3346 13.7317 13.7168 15.0259 13.4027 14.0549 12.17 11.7622 12.5144 11.0586 10.9652 10.8309 14.3363 10.4312 15.2743 14.2323 12.2003 14.7749 10.8872 10.8105
threshold=0.56679546721572949 1.0000000180025095e-35 -0.43511379009940199 -0.19857113663528478 -0.9900773870902847 -0.97751254375184771 -0.18493851299971073 -0.99182625631934085 -0.64363506179124641 -0.91722313116597198 -1.0000000180025095e-35 -0.77073587802965315 -1.1300921522323104 -0.87802327620998011 -1.1212608794214289 -0.56786029387065973 -1.0385982030168097 -0.45307192771541022 -0.48997585899952295 -1.6831148613381235 -0.17123490434529401 0.94404448874273617 -0.33179333385130966 -0.37212518504590292 0.74090986282167937 -0.87617869720660313 1.0995894034729161 -0.76958838607387248 1.7009835551615529 2.4166278973496742
decision_type=2 2 2 2 2 2 2 2 2 2 2 2 2 2 2 2 2 2 2 2 2 2 2 2 2 2 2 2 2 2
left_child=1 10 -3 4 5 9 7 8 -7 19 -1 -5 -13 16 15 -9 -14 21 -19 -4 -11 22 -18 28 25 -25 27 -26 29 -6
right_child=-2 2 3 11 23 6 -8 14 -10 20 -12 12 13 -15 -16 -17 17 18 -20 -21 -22 -23 -24 24 26 -27 -28 -29 -30 -31
leaf_value=0.046841756220350472 0.046655109057486301 -0.076304392143786037 -0.040862203168018189 -0.080237142169634845 -0.071002198348192366 0.050129221172701167 -0.084022775960464202 0.0057012036821482495 -0.040033633100556472 -0.09866942671947164 -0.0099335470087376851 -0.08051616026940156 -0.079648353034998537 -0.069191630623720426 -0.070066215443262941 -0.07869810333332701 -0.07085564211054042 -0.055443100603509946 0.015253037925707816 0.032310450886232994 -0.020164397229700339 -0.074122366259239 -0.013838415397934021 -0.0039985675540663576 0.016541493500383704 -0.080655940414396041 0.036422104757261063 -0.073170089240558733 -0.0069051021611906578 -0.028319520610003385
leaf_weight=1762.9320323467255 2632.2028890252113 1041.2541311681271 7.212444186210635 372.58084720373154 471.41137713193893 8.3475150763988513 50.981985569000244 13.600830852985384 12.730833888053892 7.0461420118808773 11.188059598207472 174.54154035449028 26.899939715862274 397.3130541741848 71.42668017745018 7.7398479878902426 18.140953928232193 10.398725360631945 15.72718685865402 18.175894856452942 12.062709569931028 31.772886455059052 28.104115337133408 7.369492679834365 7.3851121664047286 33.943539321422577 7.3374428153038016 12.124122649431229 7.0110721588134757 15.316768765449522
leaf_count=5727 8550 3094 22 1108 1406 25 152 41 38 21 35 517 80 1184 213 23 54 31 47 56 36 95 84 22 22 101 22 36 21 46
internal_value=1.34764e-05 -0.0263203 -0.0710451 -0.0680796 -0.0619474 -0.0504333 -0.0601296 -0.0494298 -0.00432705 -0.014516 0.0464837 -0.072477 -0.0683637 -0.0643491 -0.059678 -0.0249088 -0.0496672 -0.0419231 -0.0128857 0.0115232 -0.0491121 -0.0516469 -0.0362051 -0.0662367 -0.0479012 -0.0669817 -0.0185392 -0.0392103 -0.0687679 -0.069659
internal_weight=7294.28 4662.08 2887.96 1846.7 771.224 209.325 164.828 113.846 21.0783 44.4972 1774.12 1075.48 702.898 528.357 92.7674 21.3407 131.044 104.144 26.1259 25.3883 19.1089 78.018 46.2451 561.899 68.1597 41.313 26.8467 19.5092 493.739 486.728
internal_count=22909 14359 8597 5503 2303 627 492 340 63 135 5762 3200 2092 1575 277 64 391 311 78 78 57 233 138 1676 203 123 80 58 1473 1452
is_linear=0
shrinkage=0.05


Tree=5
num_leaves=31
num_cat=0
split_feature=37 37 13 8 8 11 22 13 115 104 0 92 50 36 3 52 36 58 32 68 122 15 30 39 120 82 105 4 15 44
split_gain=1475 2434.25 1071.4 226.595 99.7537 71.7788 64.3376 57.3772 44.6839 36.5251 39.4492 37.5983 31.9425 31.8276 29.8977 35.8256 29.3512 28.3256 29.0812 27.6785 26.9201 25.8953 25.6411 25.6212 24.889 25.5414 24.8431 23.6294 23.1796 22.4166
threshold=0.56679546721572949 -1.0000000180025095e-35 0.069285823240839886 -0.28515510352009416 0.072870599796970734 -0.85670284936778007 1.2577811113047892 -1.0225634766452274 1.0171210665423958 0.56186380776223477 0.021962089374814527 -0.73686690030614022 -0.1210705312219013 -2.0085514809338201 -0.77075645651631464 -0.19458538655618887 -1.2864810963609321 2.1093691231788911 -2.0450168909865027 1.0617937591184308 0.3897055917499993 0.18807627561792731 -0.70184117536379798 1.0780417028313336 -0.72716982231479088 -1.7129824582853368 -2.9981776820778325 0.50136841340818528 -0.3612951536390952 -1.1431123762767108
decision_type=2 2 2 2 2 2 2 2 2 2 2 2 2 2 2 2 2 2 2 2 2 2 2 2 2 2 2 2 2 2
left_child=1 -1 3 5 13 16 26 12 14 27 11 19 20 -4 15 23 -3 18 -15 -11 -5 29 -12 -9 -16 -26 -6 -7 -24 -17
right_child=-2 2 4 7 6 9 -8 8 -10 10 22 -13 -14 17 24 21 -18 -19 -20 -21 -22 -23 28 -25 25 -27 -28 -29 -30 -31
leaf_value=-0.038911368265580927 -0.038754390218299045 0.069563679205994197 0.14021805023272513 0.15344500322825819 0.13612378787164189 0.10195773607967325 -0.017686047958994953 0.12822068798860961 0.13283933977307769 0.14103169774397623 0.065846518565420037 0.014044510775176983 0.023873978577252878 0.12444360548534479 0.012084265419171306 -0.018282564298899923 0.13556720834524344 0.12141501713952788 0.031344148991333802 0.0062879665019927354 0.072172088025449749 -0.025156255832877408 0.15339193252380287 0.0025902774031170092 -0.019785862423331472 0.055202811696943847 0.014775848052331952 0.15479901343792379 0.062712383647007389 0.080501688205282584
leaf_weight=1054.9345854967833 1575.2875328063965 18.180920407176018 8.32282507419586 29.635914608836174 4.2643433958291999 231.25985680520535 220.48932717740536 30.867675170302391 16.47454945743084 12.940363064408304 30.08932714164257 37.639911994338036 9.3286154121160489 8.8127170354127866 63.54296350479126 6.8939912766218177 228.96972869336605 10.207607015967367 174.04669141769409 5.4023525863885871 15.527044728398321 10.143294766545294 25.772748380899429 4.6727056205272666 12.336399286985396 142.75844979286194 386.01104746758938 23.287020981311798 9.6997084617614728 34.395845025777817
leaf_count=5727 8550 84 40 135 21 1059 1122 145 78 59 138 174 43 42 310 33 1015 48 845 26 71 49 117 22 59 682 1901 106 45 163
internal_value=0.000113833 0.0214709 0.0566255 0.0912775 0.0139665 0.10978 0.00390418 0.0606553 0.0526276 0.0960247 0.0734753 0.042649 0.108105 0.0444829 0.0483037 0.0730992 0.130712 0.0403559 0.035831 0.101347 0.125503 0.0464237 0.0997975 0.111703 0.0384401 0.0492381 0.0161018 0.106792 0.128596 0.0640081
internal_weight=4442.2 2866.91 1811.97 999.819 812.155 623.242 610.765 376.577 322.086 376.091 121.544 55.9826 54.4916 201.39 305.611 86.9735 247.151 193.067 182.859 18.3427 45.163 51.4331 65.5618 35.5404 218.638 155.095 390.275 254.547 35.4725 41.2898
internal_count=22909 14359 8632 4613 4019 2823 3044 1790 1541 1724 559 259 249 975 1463 412 1099 935 887 85 206 245 300 167 1051 741 1922 1165 162 196
is_linear=0
shrinkage=0.05


Tree=6
num_leaves=31
num_cat=0
split_feature=37 37 22 22 22 14 1 77 19 0 8 3 43 45 46 136 59 3 6 29 120 66 35 63 3 29 66 24 28 52
split_gain=1335.99 2071.81 757.716 125.667 95.6578 41.2911 39.4973 33.6673 29.8855 29.2782 26.7839 26.7613 24.7201 25.3658 26.4755 24.6028 23.6335 23.6133 22.8992 21.8514 21.7067 27.4298 21.6492 21.402 20.5947 21.3926 28.7006 22.4054 20.6152 19.4941
threshold=0.56679546721572949 1.0000000180025095e-35 0.13319399814426638 -0.87586843169579998 1.2771401189024212 0.9262613221289393 -0.048118944404873278 -0.6755239616879759 0.55200704223617558 -0.0069464271435204774 -1.97910465425597 0.19811342141111579 -0.93456569467677741 -1.1856816089593072 0.080006266091484923 -0.90035129837944783 -0.0094178839548097869 0.034794616735456384 0.7445085252410294 -0.97487065325750888 2.0849352276075535 -0.19507531309098972 -2.2838784727217107 1.1596997269838931 1.636730369351229 -1.1689012192868098 1.1456376560033597 0.73102649651150231 -0.55768211394865042 -0.20927081788155147
decision_type=2 2 2 2 2 2 2 2 2 2 2 2 2 2 2 2 2 2 2 2 2 2 2 2 2 2 2 2 2 2
left_child=1 -1 3 10 6 8 24 -7 12 -6 -3 -11 18 14 -14 19 -13 20 -5 -9 -12 -22 -15 29 25 -4 27 -27 -29 -21
right_child=-2 2 4 5 9 7 -8 15 -10 11 17 16 13 22 -16 -17 -18 -19 -20 23 21 -23 -24 -25 -26 26 -28 28 -30 -31
leaf_value=-0.038402063092283979 -0.038431801817984466 -0.022419712526003655 0.12743502203298662 -0.027550738088376103 0.11434871812219503 0.019733871109980351 0.062129844859055844 -0.025446628789518883 -0.001372698715187528 -0.031705249538089918 -0.0018135119618757165 0.094968474919111354 0.11124135099317028 0.13533155785877521 0.011370997066337193 0.070555478963956822 -0.013835530863805311 0.047170260253354621 0.078040132834292522 -0.0025842243035590945 0.160220457797322 0.0091073650847129945 0.027944056598768641 -0.022819853816874638 0.018302523656459853 0.076698377221947445 -0.024277178117364014 0.056279178461693391 0.1350018434257097 0.087063200706429325
leaf_weight=1018.1355826854706 1510.5518147349358 112.34536436200142 35.110736131668091 27.308425053954124 226.51259765028954 72.862719461321831 414.90685564279556 12.999926298856733 94.356977090239525 5.1670076400041571 254.635193541646 62.768020331859589 21.363002553582195 4.8312682360410681 9.6263473480939847 141.73295842111111 5.4220262169837943 31.488337457180023 6.3235913366079322 7.8945107311010316 4.746522828936576 8.1754158139228803 164.29490433633327 8.4034350812435132 9.9690458774566633 117.42952139675617 5.8472412824630728 10.725348085165022 37.024148419499397 26.154822766780857
leaf_count=5762 8550 552 143 127 888 330 1785 58 452 22 1235 256 95 22 44 628 23 149 29 36 23 40 753 38 41 491 25 45 152 115
internal_value=-0.000172842 0.019361 0.0496691 0.0196665 0.082207 0.0342963 0.0711579 0.0487766 0.0223782 0.105458 -0.00160498 0.078004 0.0319658 0.0386317 0.0802182 0.0595083 0.0863171 0.00621469 -0.00769723 0.0312726 0.0013947 0.0646147 0.0310117 0.0486413 0.088491 0.0918854 0.0845873 0.088441 0.117319 0.066278
internal_weight=4469.11 2958.56 1940.43 1009.54 930.883 598.153 631.013 270.048 328.105 299.87 411.391 73.3571 233.748 200.116 30.9893 197.186 68.19 299.045 33.632 55.4527 267.557 12.9219 169.126 42.4528 216.106 206.137 171.026 165.179 47.7495 34.0493
internal_count=22909 14359 8597 4726 3871 2727 2682 1205 1522 1189 1999 301 1070 914 139 875 279 1447 156 247 1298 63 775 189 897 856 713 688 197 151
is_linear=0
shrinkage=0.05


Tree=7
num_leaves=31
num_cat=0
split_feature=139 139 19 6 97 123 92 24 13 139 120 7 36 134 36 67 1 70 6 144 28 91 51 29 105 6 21 125 0 144
split_gain=3225.61 5226.36 15.6164 16.9623 16.3835 15.9187 14.3128 19.8284 13.8455 13.5069 13.1075 14.2668 13.0378 14.9129 12.3035 15.5244 12.9153 11.6883 11.4481 13.4532 11.1676 10.7728 10.6501 16.2975 15.9544 13.6427 11.4489 14.1753 9.63545 9.22669
threshold=0.56679546721572949 1.0000000180025095e-35 -0.43511379009940199 -1.2654355713554872 -0.36980994620487534 1.4193896456200548 0.59306551971986698 -0.30977571765606421 -0.11360406575486663 -1.0000000180025095e-35 2.4224045768437836 0.66283641816972516 -0.96058129656802038 0.77693600917928285 1.0695811774047612 -2.1179031014507177 -0.042148634681230812 -0.91548158453499229 0.97309261159403349 1.8293604983938494 0.55035659342065302 1.1749184916007973 -0.17608114773003802 1.1529399070528521 -0.50054456091068633 0.81202808056430553 1.6265738526901559 1.0000000180025095e-35 -0.016848866531188913 -2.5340957313963792
decision_type=2 2 2 2 2 2 2 2 2 2 2 2 2 2 2 2 2 2 2 2 2 2 2 2 2 2 2 2 2 2
left_child=1 9 10 4 5 -4 7 28 -7 -1 -3 -12 -8 -14 15 16 -5 -9 22 29 -21 -19 -17 25 -25 26 -24 -28 -6 -20
right_child=-2 2 3 14 6 8 12 17 -10 -11 11 -13 13 -15 -16 18 -18 21 19 20 -22 -23 23 24 -26 -27 27 -29 -30 -31
leaf_value=0.045732329686199578 0.045541221997680098 -0.069751742281780951 -0.073823970247343648 0.028762989601109915 0.038495904441394939 0.031136514314607247 0.031797453262556181 -0.013691042446133598 -0.062759629704011319 -0.0091723113072523094 0.0020335631427592306 -0.085371548943515785 0.00091955929817253877 -0.091212198243499507 -0.070114684721876819 -0.061315279059616139 -0.06225401602087019 -0.0841823336164568 -0.015452137693374208 -0.058003120446264926 0.023333136145229944 -0.024917610038319098 -0.060557243970961509 -0.05459444385656459 0.02620755470158009 0.0031857692214411239 -0.056993156794523984 0.028144672216257566 -0.034387334303672974 -0.072187627403519916
leaf_weight=1697.6064314246178 2534.9784046411514 1062.1272701025009 70.458892822265625 8.854873985052107 8.3706252574920672 7.4696370959281913 13.160276621580122 10.670522034168242 8.2757124900817853 11.275907903909681 13.058051824569704 7.2667468786239615 11.916143089532854 6.9562010765075675 454.29208645224571 668.72740009427071 6.9620805680751792 36.539678633213043 7.3246066868305197 10.824279099702837 6.9170144200325003 9.7043608725070936 173.06529396772385 11.171114295721056 13.4817698597908 10.10201236605644 11.430386960506441 8.5432426035404188 9.8958628773689252 330.91294142603874
leaf_count=5727 8550 3035 203 26 25 22 39 31 24 35 38 21 35 20 1300 1922 20 105 21 31 20 28 497 32 39 29 33 25 29 947
internal_value=6.98662e-05 -0.0244171 -0.0641899 -0.0614778 -0.0474381 -0.0636669 -0.0343895 -0.0463142 -0.018215 0.04537 -0.0689906 -0.0292165 -0.0064019 -0.0330395 -0.0630542 -0.0605252 -0.0112996 -0.0608613 -0.0611468 -0.0687329 -0.0262916 -0.0717456 -0.0581346 -0.0487974 -0.0104068 -0.0534564 -0.0564206 -0.0205775 -0.000988562 -0.070959
internal_weight=7242.34 4707.36 2998.48 1916.03 193.418 86.2042 107.214 75.181 15.7453 1708.88 1082.45 20.3248 32.0326 18.8723 1722.61 1268.32 15.817 56.9146 1252.5 355.979 17.7413 46.244 896.521 227.794 24.6529 203.141 193.039 19.9736 18.2665 338.238
internal_count=22909 14359 8597 5503 561 249 312 218 46 5762 3094 59 94 55 4942 3642 46 164 3596 1019 51 133 2577 655 71 584 555 58 54 968
is_linear=0
shrinkage=0.05


Tree=8
num_leaves=31
num_cat=0
split_feature=37 37 13 8 8 22 15 13 115 3 64 67 11 14 62 57 0 127 142 3 0 58 11 105 82 67 59 1 52 105
split_gain=1334.03 2059.72 847.355 159.646 99.918 59.5237 50.229 40.968 32.5997 31.8243 25.3398 25.0809 25.8875 27.7268 22.9089 22.283 21.882 21.8697 25.2672 24.5777 23.4587 22.84 21.5823 21.3623 26.5157 20.6733 20.1483 20.5451 20.1194 19.7481
threshold=0.56679546721572949 -1.0000000180025095e-35 0.023291749562665096 -0.28515510352009416 0.036643857409829041 1.4337825823440318 -1.1345158167727332 -1.0225634766452274 1.0171210665423958 0.71884506260486669 1.5908429878533299 -1.455519624023905 -1.3525876212791208 0.6983600145830281 0.94675717562070416 0.048807547548940705 -0.016389027729065128 1.4133332599418 -1.0320421604158112 0.46604811184730882 0.0064119882380884296 0.51088460888091947 -1.1186774152132619 0.95810206423674249 -1.1315906688292736 2.0722918945467961 -0.074557836380941975 0.027956863503079823 -0.1748298357376025 -2.9981776820778325
decision_type=2 2 2 2 2 2 2 2 2 2 2 2 2 2 2 2 2 2 2 2 2 2 2 2 2 2 2 2 2 2
left_child=1 -1 3 6 9 29 26 14 10 15 22 -8 -13 25 -5 23 -12 18 -17 20 -20 -21 -9 24 -4 -14 -3 -28 -16 -6
right_child=-2 2 4 7 5 -7 11 8 -10 -11 16 12 13 -15 28 17 -18 -19 19 21 -22 -23 -24 -25 -26 -27 27 -29 -30 -31
leaf_value=-0.038525117613681867 -0.038361279345397285 0.13304870476741301 0.086067463359271637 0.10789376691083125 0.10763153482884574 -0.021929500235698365 0.12796911244064488 0.092590255572889801 0.11374792988873035 0.018020616243000932 0.054860887588871782 0.13603395757725564 0.084215173996597642 0.045062418526176706 -0.016271002467190956 0.14617548394208313 0.17264500969131852 -0.021792437946313029 -0.033551829268702926 0.057338876749017165 0.065739431817693206 0.1798512691763054 0.036441771694880214 0.080500667801084808 -0.0038615197487921319 -0.020358759565300068 0.080216897092227235 0.11238462839622775 0.1129383623664908 0.011361398838591705
leaf_weight=1001.672754585743 1496.1122497916222 70.419324174523354 10.668471321463583 47.702255487442017 5.3879594951868048 171.15502941608429 27.672204241156578 18.261839106678963 17.382394954562187 85.569054111838341 9.4078989177942294 18.485612496733665 257.55175669491291 61.771131947636604 7.9672159999608994 12.83002884685993 6.7886465936899176 5.3838868886232367 7.1981517523527137 7.1332868784666053 34.270564123988152 8.1518528461456281 272.38031546771526 18.569811195135117 35.379743903875351 4.8144449144601813 71.529699072241783 162.18035750091076 4.8448194265365583 470.69056795537472
leaf_count=5727 8550 281 49 195 24 871 114 77 73 396 42 73 1069 261 34 57 30 25 33 32 154 36 1234 84 161 21 290 645 20 2251
internal_value=6.01592e-05 0.0196573 0.0498299 0.0798854 0.0133397 0.00335933 0.094547 0.0541842 0.0471353 0.0420295 0.0433617 0.0821808 0.0784827 0.0752006 0.0919503 0.0567474 0.104229 0.0752945 0.0828064 0.0684808 0.0485044 0.122677 0.0399697 0.0352297 0.0169733 0.0822962 0.109604 0.102539 0.032589 0.0124509
internal_weight=4429.33 2933.22 1931.55 1059.16 872.388 647.234 674.425 384.735 324.221 225.155 306.839 370.295 342.623 324.137 60.5143 139.586 16.1965 74.9678 69.5839 56.7539 41.4687 15.2851 290.642 64.618 46.0482 262.366 304.129 233.71 12.812 476.079
internal_count=22909 14359 8632 4459 4173 3146 2754 1705 1456 1027 1383 1538 1424 1351 249 631 72 337 312 255 187 68 1311 294 210 1090 1216 935 54 2275
is_linear=0
shrinkage=0.05


Tree=9
num_leaves=31
num_cat=0
split_feature=37 37 13 13 22 14 74 0 18 25 3 0 45 91 29 51 138 0 92 63 81 135 23 3 128 10 51 143 22 62
split_gain=1214.45 1777.82 626.522 102.316 77.1439 53.1013 35.1098 34.3225 31.9957 28.677 23.515 23.2395 23.132 24.4309 29.2559 22.4806 22.3694 22.2425 22.0843 21.7241 35.5043 22.7653 26.5202 21.2874 24.1025 24.1865 21.3509 20.957 20.9241 20.9002
threshold=0.56679546721572949 1.0000000180025095e-35 0.069285823240839886 -0.95454565308850492 1.2771401189024212 0.95027087963268508 0.36213876855122618 -0.032691946190368561 0.56966870674968084 0.15802180540462815 0.20832211824924077 0.019120396466266596 -1.9479840490733358 -0.55739787465053636 -1.5691281897105449 -0.24997926203178786 -0.05826443287324181 0.030462248793091559 -0.73686690030614022 -1.1136429820652467 0.89261925030691225 0.99491380806355223 0.64681840565244275 -0.084838906697244962 -1.3497703611974787 0.5011559717225732 -0.21398219200462651 0.64473026985425008 -0.89108190571973411 0.68916084040651515
decision_type=2 2 2 2 2 2 2 2 2 2 2 2 2 2 2 2 2 2 2 2 2 2 2 2 2 2 2 2 2 2
left_child=1 -1 3 17 7 8 -7 15 23 10 19 -6 -12 14 -14 -4 -8 -3 -15 20 -9 22 -21 24 -5 -26 -25 -20 -27 -28
right_child=-2 2 4 5 11 6 16 9 -10 -11 12 -13 13 18 -16 -17 -18 -19 27 21 -22 -23 -24 26 25 28 29 -29 -30 -31
leaf_value=-0.0380296571462857 -0.038060495456503932 0.0037378397547006116 0.0062703594182604676 0.082612324623494271 0.095485788649248296 0.053662699881860912 0.070817186544368124 -0.013785172851596396 -0.0090727416932801716 0.10836013193455354 0.1364346308787254 0.045317539182275213 -0.0045104633459629962 0.0060588707131515214 0.088818557184658947 0.082248707162927037 0.0079526563152208431 -0.023395337837375997 0.042513187675180461 0.026194233417539209 0.082755330699383248 0.020025522947183367 0.079185425081982966 -0.0058224690678519049 -0.0038134086192078568 -0.039905684372010142 0.063126531445633113 0.085774941700674512 0.059525846720769549 -8.3709438509334131e-05
leaf_weight=966.16851828992367 1433.3488874137402 178.20462748408318 10.209997788071631 11.325245156884192 301.86580827832222 211.51840452849865 16.898297145962715 37.286882147192955 106.19087329506874 23.902756452560425 10.065876647830008 24.995255917310715 9.331049829721449 27.023272454738617 83.877943828701973 209.58144147694111 87.037016913294792 131.09276269376278 92.115545809268951 35.317198500037193 12.790484905242918 47.586179956793785 71.231340155005455 20.03769163787365 120.06724889576435 6.3932262659072867 70.731215476989746 40.214942097663879 30.689864531159401 16.043412283062935
leaf_count=5762 8550 854 40 50 1091 891 71 153 504 96 40 98 38 110 335 806 387 643 372 147 51 195 286 90 554 31 300 161 130 73
internal_value=-0.000180807 0.0178586 0.0442809 0.0161709 0.0715465 0.0267925 0.0419698 0.0622987 0.014242 0.0549443 0.0522094 0.0916494 0.0621046 0.0591422 0.0794755 0.0787193 0.0181735 -0.0077623 0.0472489 0.0394835 0.0108727 0.0487789 0.0616207 0.0232355 0.0121647 0.00708779 0.0406976 0.0556603 0.0423836 0.0514398
internal_weight=4443.14 3009.79 2043.63 1006.23 1037.4 696.932 315.454 710.535 381.479 490.743 466.841 326.861 262.629 252.563 93.209 219.791 103.935 309.297 159.354 204.212 50.0774 154.135 106.549 275.288 168.476 157.15 106.812 132.33 37.0831 86.7746
internal_count=22909 14359 8597 4578 4019 3081 1349 2830 1732 1984 1888 1189 1056 1016 373 846 458 1497 643 832 204 628 433 1228 765 715 463 533 161 373
is_linear=0
shrinkage=0.05


Tree=10
num_leaves=31
num_cat=0
split_feature=37 37 48 18 6 67 32 118 14 104 115 62 28 47 115 136 129 11 41 144 120 7 50 29 95 116 4 15 63 36
split_gain=2918.22 4551.19 14.3996 13.18 15.2575 12.3445 12.6032 17.8826 16.8796 15.6881 14.3281 19.3621 17.5385 11.6833 12.9223 11.5944 11.3958 11.9924 10.6927 14.0501 10.6894 14.5249 10.1899 10.8069 19.5965 10.018 16.8465 20.9103 11.8123 10.1105
threshold=0.56679546721572949 -1.0000000180025095e-35 -0.10000000000000041 -0.44833633331837075 -0.19857113663528478 -1.9933825851471878 -0.54146150543636118 0.84452789214888679 1.0123399038621008 0.95166703047218826 -0.48007359384364573 -0.20139026357443732 -0.4016533992610738 1.5812654847187282 0.83443959773305043 1.729848081768468 -0.77073587802965315 -0.94991000932252001 -0.26584259291197782 1.9151426147048904 2.4224045768437836 0.66283641816972516 -0.2621778001300395 -0.35955100826632796 -0.050748751642866789 -0.69801459432632262 -0.5592441957302221 -0.73024363408138404 -1.3280891413474809 0.36642020266160519
decision_type=2 2 2 2 2 2 2 2 2 2 2 2 2 2 2 2 2 2 2 2 2 2 2 2 2 2 2 2 2 2
left_child=1 -1 3 20 5 -5 8 9 -7 -8 -11 -12 -13 14 15 22 -6 -18 19 25 -3 -22 23 -10 -25 -19 27 -27 29 -28
right_child=-2 2 -4 4 16 6 7 -9 13 10 11 12 -14 -15 -16 -17 17 18 -20 -21 21 -23 -24 24 -26 26 28 -29 -30 -31
leaf_value=0.044731127080114265 0.044534456164387372 -0.063775059917314553 -0.0054870827770797104 -0.011501577687639458 -0.066817308163538966 -0.054362228587242781 -0.057681843051402983 -0.074024277553640258 0.025837683747308927 -0.061363258720372862 -0.04872688287141104 -0.045316332388588156 0.030629593184066623 -0.076493629541729766 -0.076321192583543584 -0.078916693608705027 -0.067429470233384206 -0.061815249775662322 -0.060046210230997314 0.0030373381242376511 0.0037616262646275934 -0.084636106566531727 -0.038063834970735386 -0.048849284973084273 0.016564367615121894 -0.051718430967616053 -0.045322177746521364 0.020839977196596159 -0.054537234551494174 0.033596783671944061
leaf_weight=1631.1664744913578 2436.1126899719238 1081.1971335411072 12.758436203002928 19.244277447462082 399.18212682008743 170.56035900115967 284.58114355802536 116.76812222599983 20.42084023356437 33.543142139911652 32.817928075790405 11.453729480504988 22.604943186044693 12.531634688377379 11.426908850669859 7.8548730611801139 184.98484200239182 96.437094509601593 267.73972055315971 13.762698292732237 13.247642725706102 7.1577915847301474 34.074100703001022 24.183838874101635 21.743238955736171 18.674537658691406 8.958551228046419 21.203696519136429 134.90905237197876 7.4194357693195334
leaf_count=5727 8550 3005 39 55 1110 479 798 327 59 94 92 32 65 35 32 22 512 270 747 39 38 20 96 68 62 52 25 60 378 21
internal_value=8.63028e-05 -0.0228419 -0.058496 -0.0587157 -0.0562737 -0.0510767 -0.0520233 -0.0568846 -0.0439676 -0.0516863 -0.0346953 -0.0213195 0.00508943 -0.0305603 -0.0257516 -0.0204147 -0.059986 -0.0563698 -0.052775 -0.046315 -0.0630984 -0.0272464 -0.0158388 -0.00442475 -0.0178805 -0.0486767 -0.0420487 -0.0131383 -0.0496693 -0.00957089
internal_weight=7158.72 4722.61 3091.44 3078.68 1977.08 823.809 804.565 501.769 302.796 385.001 100.42 66.8766 34.0587 132.235 119.704 108.277 1153.27 754.09 569.105 301.365 1101.6 20.4054 100.422 66.3479 45.9271 287.602 191.165 39.8782 151.287 16.378
internal_count=22909 14359 8632 8593 5530 2316 2261 1408 853 1081 283 189 97 374 339 307 3214 2104 1592 845 3063 58 285 189 130 806 536 112 424 46
is_linear=0
shrinkage=0.05


Tree=11
num_leaves=31
num_cat=0
split_feature=37 37 13 8 8 15 11 22 115 5 105 61 11 30 54 52 20 123 8 117 136 55 104 5 17 14 17 77 22 0
split_gain=1212.34 1767.48 692.994 132.161 78.5786 45.0463 34.7394 34.3989 31.6325 29.0781 30.6175 45.0847 27.0136 30.6762 27.2121 24.0984 25.537 23.7153 27.4343 30.4291 24.8454 24.7324 23.5929 26.731 23.1673 31.2091 22.4593 22.1734 22.034 21.9936
threshold=0.56679546721572949 -1.0000000180025095e-35 0.069285823240839886 -0.19235758943660156 1.0635674363519338 -1.1345158167727332 -1.1186774152132619 1.3651462484459593 1.2304262804682742 -0.19459679234959978 -0.3358066609819339 -1.1342992803922975 1.1037581235368854 0.30962043011217094 -1.6461660710483561 -0.18467607278028011 -0.035409419339676153 1.5996070038198753 0.57069942132106688 0.25897688405270602 -0.98984268168609679 -0.024603248067037699 0.54296765005317027 -0.92393157690840322 -0.44069203602692297 1.6933015222029648 -2.3015958926779816 -1.2934280629595218 0.38140522189470816 0.0030668639620818577
decision_type=2 2 2 2 2 2 2 2 2 2 2 2 2 2 2 2 2 2 2 2 2 2 2 2 2 2 2 2 2 2
left_child=1 -1 3 5 9 -3 -5 -6 17 10 11 -4 13 14 -12 16 -16 18 19 20 -8 24 -7 -24 25 -21 -22 -20 -11 -19
right_child=-2 2 4 6 7 22 8 -9 -10 28 12 -13 -14 -15 15 -17 -18 29 27 21 26 -23 23 -25 -26 -27 -28 -29 -30 -31
leaf_value=-0.038167061699698857 -0.037995610393795592 0.095101206682011538 0.084036135435142989 0.08429306630772937 0.0053824222702647398 0.078741136205321305 0.075353650224149582 -0.026133569319892865 0.14342717442680442 0.038709656263684271 0.12695821192076967 0.0032729818661971382 0.11813593493715475 0.00066374742824661266 0.082509769716642242 0.015428746012889403 0.027173699140402435 -0.011553442407035904 0.075330651155239611 -0.030107101091404676 0.12703738254590557 0.11178940284917681 0.022515693555048358 0.069013525295605005 0.091871057702437239 0.097475728046614335 0.018013563877234712 0.011707077998541272 -0.0050593842617217546 0.10136473188916036
leaf_weight=950.17155155539513 1419.558323174715 337.08279320597649 19.963562160730362 51.015112236142159 210.45438271760941 301.92783617973328 32.89200559258461 147.09629984200001 7.2462583631277075 37.739944368600845 10.713182151317595 128.54696214199066 11.632877737283705 39.721913829445839 50.934591829776764 47.237851336598396 35.298316061496735 35.784482389688492 16.288895189762115 13.184979334473612 5.013712301850318 32.518465414643288 45.666348978877068 95.650346040725708 19.841907873749733 7.5312661975622168 81.699640452861786 85.967485085129738 120.76566818356514 4.9031536281108847
leaf_count=5727 8550 1234 87 195 989 1163 138 754 28 169 47 582 52 177 222 214 158 159 70 56 20 134 186 372 83 31 350 373 568 21
internal_value=4.21277e-05 0.0181346 0.0444314 0.0694077 0.0103339 0.0813255 0.0457974 -0.00758325 0.0400697 0.0230814 0.0312448 0.0141296 0.0442437 0.0395697 0.0502881 0.0441341 0.0598587 0.0378382 0.0427748 0.0538838 0.0383525 0.079304 0.0708492 0.0539878 0.0532581 0.0162749 0.0243173 0.021842 0.00536196 0.00205401
internal_weight=4404.05 2984.49 2034.32 1174.21 860.106 780.327 393.887 357.551 342.872 502.555 344.049 148.511 195.539 183.906 144.184 133.471 86.2329 335.626 294.938 192.682 119.605 73.0766 443.245 141.317 40.5582 20.7162 86.7134 102.256 158.506 40.6876
internal_count=22909 14359 8632 4613 4019 2955 1658 1743 1463 2276 1539 669 870 818 641 594 380 1435 1255 812 508 304 1721 558 170 87 370 443 737 180
is_linear=0
shrinkage=0.05


Tree=12
num_leaves=31
num_cat=0
split_feature=37 37 13 8 11 0 19 8 136 22 7 13 62 36 48 12 105 24 92 74 117 119 32 110 115 81 61 61 32 134
split_gain=1108.06 1542.06 515.801 94.9351 65.5764 49.5659 44.8776 35.8127 34.2988 24.7862 24.7625 24.1075 24.0756 21.6974 21.384 21.0033 20.2208 19.8773 20.4239 19.829 19.763 24.0988 23.8355 19.5398 19.3059 19.23 18.8716 18.6241 18.6021 18.1107
threshold=0.56679546721572949 1.0000000180025095e-35 0.046961999881460291 -0.64045394940188483 1.4380321110070018 -0.0069464271435204774 -0.48597837065401456 0.83171592557351748 0.28199349752629416 0.38140522189470816 -1.1426520108995064 -0.5691748847610627 0.31914588252588849 -0.29360232478607268 -0.20310096011589901 -1.5556606772612513 -2.2260905436173206 -0.18546431364590274 2.1521201919708042 -0.16244293362987069 1.3432085956493924 -1.2422048919313351 -1.3514701721000228 -0.013765659055696588 0.769237605814582 1.3650538776108776 -0.75330236512338555 1.3153975451388555 -1.8980038947705515 -1.1741033990944618
decision_type=2 2 2 2 2 2 2 2 2 2 2 2 2 2 2 2 2 2 2 2 2 2 2 2 2 2 2 2 2 2
left_child=1 -1 3 6 5 9 17 11 16 27 -10 29 13 15 25 -12 -7 18 -3 26 -8 -22 -23 -17 -19 -11 -9 28 -4 -5
right_child=-2 2 4 7 -6 8 20 19 10 14 12 -13 -14 -15 -16 23 -18 24 -20 -21 21 22 -24 -25 -26 -27 -28 -29 -30 -31
leaf_value=-0.037682877688830191 -0.03771494228127107 -0.00091822444784622921 0.11038394855034539 0.084146018976608075 0.095989774889413917 -0.015246929420582004 -0.017675101104378504 0.035036490475382535 0.062323432565127214 0.065163190566464038 0.10865443073454975 0.033621325268754804 -0.015935091768592254 0.01006809512841926 0.10113293901357506 -0.0025067740939326796 0.061031031968340782 0.030606747839139633 0.10468187357994579 0.033124083778039541 0.10752838399658403 0.086903061023815356 -0.014021564613949834 0.081893954733605487 0.11312125714301509 0.099032731919007841 0.10856968788002763 0.10526080288721483 0.032812702998795296 0.0072816538626492332
leaf_weight=916.03441971540451 1358.8731899857521 86.51086537539959 8.4574148505926114 7.9839568883180609 134.56527258455753 9.0475394725799543 278.40104328095913 12.886453509330748 41.249415665864944 367.87459570169449 13.840764701366423 253.52471449971199 37.538343980908394 52.820099756121635 59.243841618299484 16.124937981367111 218.88133208453655 59.112367928028107 4.8346781432628623 34.646056741476059 6.38763204216957 7.0523687452077857 34.318993985652924 11.93182982504368 8.0546755045652372 47.296449095010757 27.021119385957718 12.092364415526388 89.683684706687927 190.90325002372265
leaf_count=5762 8550 408 32 35 452 35 1327 51 158 1305 53 1048 148 204 208 63 837 256 23 143 28 32 162 44 33 167 103 45 346 851
internal_value=-0.000164804 0.0165742 0.0398832 0.0140004 0.0632482 0.0587801 -0.00197079 0.0286898 0.0452518 0.0680691 0.0285006 0.0233985 0.0179516 0.0313815 0.0730316 0.0582512 0.0580032 0.0198537 0.00467091 0.060799 -0.0125774 0.0171385 0.00318255 0.0333867 0.0405019 0.0690216 0.0848253 0.0467116 0.0394975 0.0103672
internal_weight=4407.19 3048.32 2132.29 1011.64 1120.65 986.083 484.673 526.966 401.434 584.648 173.505 452.412 132.256 94.7176 474.415 41.8975 227.929 158.513 91.3455 74.5536 326.16 47.759 41.3714 28.0568 67.167 415.171 39.9076 110.233 98.1411 198.887
internal_count=22909 14359 8597 4500 4097 3645 2269 2231 1542 2103 670 1934 512 364 1680 160 872 720 431 297 1549 222 194 107 289 1472 154 423 378 886
is_linear=0
shrinkage=0.05


Tree=13
num_leaves=31
num_cat=0
split_feature=37 37 19 11 67 68 36 6 3 4 3 68 38 32 42 31 36 141 48 134 117 24 91 3 62 64 51 65 30 136
split_gain=2650.81 3997.38 13.5045 12.9448 13.4311 11.6924 21.4591 11.2814 11.5769 10.3102 22.3049 9.75973 9.52092 9.60274 12.8804 14.0809 10.5593 18.2777 12.1294 15.3059 10.3944 10.3234 11.7359 13.3321 17.9547 12.0558 10.0774 9.70727 8.90341 8.62616
threshold=0.56679546721572949 -1.0000000180025095e-35 -0.43511379009940199 -1.001597698756566 -2.419643444329155 1.1622782643305829 -0.77034712226250857 0.97309261159403349 -1.3656668520403168 -0.53360061939495151 1.3539360612252873 -1.3983359056360627 -1.5198684153570803 -0.73745319640857709 2.6605441638641323 0.42641732530083837 -0.82744056784916575 -0.63589794557232127 -0.20310096011589981 1.0115606104628663 1.2680381793290156 -0.98645889264677111 -0.27742570867763083 -0.054445256509618616 -0.18337898695158997 0.072909998610220725 -0.12478977522457831 -0.77626715292235293 -0.36130539353297819 0.95527451729355117
decision_type=2 2 2 2 2 2 2 2 2 2 2 2 2 2 2 2 2 2 2 2 2 2 2 2 2 2 2 2 2 2
left_child=1 -1 -3 5 -5 -4 -7 8 -6 10 11 -9 -10 16 26 -16 17 20 19 -19 -14 -18 -23 -24 25 27 29 -25 -26 -15
right_child=-2 2 3 4 7 6 -8 9 12 -11 -12 -13 13 14 15 -17 21 18 -20 -21 -22 22 23 24 28 -27 -28 -29 -30 -31
leaf_value=0.043825097850000543 0.043621796201627143 -0.058324205796335786 -0.065196322273154916 0.0084320504342181631 0.00035740638111235782 0.037296271240419121 -0.052034688103625819 -0.0058937731021099721 0.0080161079769455745 -0.061435096045842165 0.022075440176634608 -0.060954645678713205 0.0076174493962592174 -0.055997479413228649 -0.057484422340918287 0.033309897187707584 0.0074629288421370127 -0.067552104266519253 -0.0026597624130279998 0.0086076886796578583 -0.045694846632988326 -0.063574058068942715 -0.056675786888668069 0.0094745922188384998 -0.065190035774188207 0.045249409439594823 -0.017809317871481111 -0.044280062679281189 -0.013541149795026929 -0.044367361490464621
leaf_weight=1564.227626055479 2336.5192383527756 1133.8751915693283 265.42942708730698 9.8672927021980268 12.355610460042952 7.6300455033779135 56.537178725004196 9.4757891893386823 7.4673981070518485 317.23429223895073 11.868030488491057 53.415066421031952 36.125381618738174 641.29022589325905 7.9245770871639278 9.260225296020506 8.2715261578559858 46.157813757658005 12.883091390132902 7.6971330344676963 12.240991055965422 91.430038124322891 73.388872385025024 15.928100287914271 30.228321403264999 9.3696891069412214 20.712684810161591 17.766438871622089 11.525381356477736 212.19206324219704
leaf_count=5727 8550 3094 721 28 34 21 154 26 21 868 33 146 102 1762 22 26 23 127 36 22 34 251 202 44 83 26 61 49 32 584
internal_value=7.50838e-05 -0.0215101 -0.0539589 -0.0515033 -0.0497318 -0.060566 -0.0414125 -0.0500741 -0.0478079 -0.0574986 -0.0407945 -0.0526586 -0.0482758 -0.0486083 -0.051427 -0.00855888 -0.0418724 -0.0292798 -0.0462415 -0.0566671 -0.0058753 -0.0474924 -0.0493133 -0.0410718 -0.0275704 -0.00491856 -0.0522697 -0.0188691 -0.0509333 -0.053106
internal_weight=7050.29 4713.78 3149.55 2015.67 1686.08 329.597 64.1672 1676.21 1284.22 391.993 74.7589 62.8909 1271.86 1264.39 891.38 17.1848 373.013 115.104 66.738 53.8549 48.3664 257.908 249.637 158.207 84.8179 43.0642 874.195 33.6945 41.7537 853.482
internal_count=22909 14359 8632 5538 4642 896 175 4614 3541 1073 205 172 3507 3486 2455 48 1031 321 185 149 136 710 687 436 234 119 2407 93 115 2346
is_linear=0
shrinkage=0.05


Tree=14
num_leaves=31
num_cat=0
split_feature=37 37 22 22 8 0 22 0 12 63 57 38 138 7 23 4 61 28 141 19 11 25 105 73 0 17 63 46 32 31
split_gain=1105.63 1532.78 578.237 105.961 63.814 41.9554 35.4604 31.2332 28.2397 27.0908 24.0715 23.9345 23.5251 22.4237 21.6465 25.8792 19.4871 19.3665 19.2706 35.5944 19.002 18.7209 21.5914 21.1243 27.3171 18.6221 20.3519 18.0396 18.9636 17.5793
threshold=0.56679546721572949 -1.0000000180025095e-35 0.12185636404315493 -0.67702262277986358 0.80365906998040859 0.001243058221395512 1.3651462484459593 0.023919163777074245 -2.2840536169550512 -1.3280891413474809 0.75159156320347942 1.0565902605662354 -0.18029311904279066 -0.51285088485829722 1.3703643914344206 1.0320064674595786 -0.95029277924097733 -1.4989423437696638 -1.3412946160520676 -0.069079017070061699 1.2825378286375613 -0.0054239857014916504 -0.12106954289277937 -0.25231925277011358 -0.0061832916271281494 0.88604478034594536 0.98197374094277368 1.5882658490342403 -0.87463011670071811 -0.87635201404201057
decision_type=2 2 2 2 2 2 2 2 2 2 2 2 2 2 2 2 2 2 2 2 2 2 2 2 2 2 2 2 2 2
left_child=1 -1 3 7 8 9 18 27 25 10 -5 17 -10 -9 20 29 -13 -11 19 -6 -14 -19 23 -23 -25 26 -4 -3 -29 -16
right_child=-2 2 4 5 6 -7 -8 13 12 11 -12 16 14 -15 15 -17 -18 21 -20 -21 -22 22 -24 24 -26 -27 -28 28 -30 -31
leaf_value=-0.037834984016294176 -0.037655128350950896 0.068240523572748443 0.12632141981547124 0.12583490912480169 0.13572271928578217 0.058643345869628306 -0.023439434239017568 0.06634334687579399 0.12178551131007148 0.093577998100957197 0.018089539266301895 0.14669792442637045 0.016595789728161441 0.094819673695741388 0.1752200998237915 0.018611826597058821 0.048336736467583984 0.00069335043195900689 0.0028407036488620262 -0.024450164255767008 -0.029713911096568485 0.09594862009107509 0.012106025038957436 0.006952337622256906 0.11435843117220537 -0.018093468945083884 0.013132829253454801 0.080631883608178939 0.0039519732677599818 0.065663370597058179
leaf_weight=900.49626070261002 1345.7221984863281 338.34403492510319 14.467206165194517 13.632269084453585 7.642653688788414 295.16570645570755 163.55590635538101 100.50487306714058 5.5021353363990775 8.8143521249294263 8.3643945306539518 6.0766517072916022 309.28967860341072 221.46814365684986 5.0816791653633144 26.14692585170269 29.388655230402946 90.450404733419418 267.68387271463871 6.3507063537836057 23.859914198517799 19.505586713552475 68.683861285448074 26.688187748193741 7.6073825508356085 4.4286852926015845 5.4740260094404212 12.396391227841375 23.065809354186058 13.102060556411741
leaf_count=5727 8550 1220 56 53 34 1121 844 349 23 35 35 24 1337 753 22 119 122 375 1229 30 113 78 288 112 29 20 23 45 86 57
internal_value=4.50815e-05 0.0168264 0.0400145 0.0613949 0.00816274 0.0455002 -0.00492156 0.0745162 0.0224638 0.0316061 0.0848639 0.0270515 0.0191429 0.0859307 0.0176468 0.0504703 0.06519 0.0209519 0.00583085 0.0630303 0.0132791 0.0179456 0.0306857 0.0544049 0.030777 0.0746526 0.0952503 0.0646845 0.0307567 0.0962804
internal_weight=4368.96 3023.24 2122.74 1270.16 852.585 574.377 445.233 695.779 407.352 279.212 21.9967 257.215 382.982 321.973 377.48 44.3307 35.4653 221.75 281.677 13.9934 333.15 212.935 122.485 53.8012 34.2956 24.3699 19.9412 373.806 35.4622 18.1837
internal_count=22909 14359 8632 4725 3907 2272 2137 2453 1770 1151 88 1063 1671 1102 1648 198 146 917 1293 64 1450 882 507 219 141 99 79 1351 131 79
is_linear=0
shrinkage=0.05


Tree=15
num_leaves=31
num_cat=0
split_feature=37 37 13 15 11 1 14 19 78 3 42 29 25 31 17 1 11 142 41 38 42 44 63 70 1 64 14 45 43 52
split_gain=1032.07 1364.08 439.603 74.7958 64.8073 38.1678 31.1477 28.0313 22.8498 21.475 23.6205 20.0956 20.2678 19.4962 18.0791 17.779 27.3568 25.6191 26.1465 17.6565 17.5001 17.1409 19.4991 16.7018 21.1687 15.8486 17.2754 15.7198 15.7175 19.0524
threshold=0.56679546721572949 1.0000000180025095e-35 -0.011205209644680143 -1.2251459457941738 1.3074197749566145 -0.040990072342089581 0.97204897437195448 0.55200704223617558 -0.053863904861004529 -1.0535065836385773 -1.2799807937260446 2.126078351476592 0.15802180540462815 0.8787212853555858 -0.62084125878205354 0.059468103586344946 -0.70682949005794238 -0.69042395524671885 0.38786022244922286 -1.1692488431223127 2.1849362174627744 1.5612325426102414 -0.53569744294835442 -0.70673201026219079 -0.0062924341572132775 1.3694829734458549 -1.7652029346911846 -2.2991916650799165 2.2824412914136625 -0.20514497874521473
decision_type=2 2 2 2 2 2 2 2 2 2 2 2 2 2 2 2 2 2 2 2 2 2 2 2 2 2 2 2 2 2
left_child=1 -1 3 15 5 -4 7 -5 9 10 -8 12 14 -14 23 16 -3 -18 -19 -11 28 -9 -23 -7 -25 27 -27 -16 29 -21
right_child=-2 2 4 6 -6 11 8 21 -10 19 -12 -13 13 -15 25 -17 17 18 -20 20 -22 22 -24 24 -26 26 -28 -29 -30 -31
leaf_value=-0.03753181984859455 -0.037355775592203426 -0.012829549984951611 0.062965406882560401 0.018688518696722736 0.082703635722100044 0.067391298400929917 0.10984768186698418 -0.018005409890017112 0.016948691115315662 0.003165994268100894 -0.0035803319770705585 0.098593951490873882 0.10868911069001022 0.0019226673320085997 0.10486519441719207 -0.028713350162327535 -0.034372622267203286 0.11491917130993612 0.0061047707167379717 0.023422889485466843 -0.01211577371035321 0.10359954940289791 -0.0086022992217773438 0.060175031051297984 -0.027722141350777236 0.0064098788140941262 0.078706181389993066 0.038211160483975409 0.12703374524790781 0.070442196266411003
leaf_weight=861.41787800192833 1296.0746263116598 109.75027267634869 425.89552311599255 265.71284534037113 198.04311490058899 9.9792383015155774 5.2537939548492423 102.88741527497768 169.22936874628067 16.635089203715324 36.313096508383751 16.086044445633888 19.87584047019482 5.4477821737527838 9.0223407894372922 99.962603226304054 8.3482788950204867 12.849630892276766 9.6787754595279676 29.540935605764389 8.3209757506847364 6.5882604271173468 9.3925227969884855 9.1503221988677961 27.246784821152687 9.8900905698537809 50.223729148507118 451.90620101988316 8.8398514389991742 79.592101082205772
leaf_count=5720 8609 520 1444 1136 633 39 21 480 703 69 149 58 70 20 32 495 39 58 45 117 34 30 43 34 109 36 178 1658 35 304
internal_value=6.36643e-05 0.0158453 0.0366352 0.0116194 0.0564993 0.0514838 0.0195091 0.00965984 0.0302175 0.0423884 0.0107563 0.0434521 0.0419556 0.0857208 0.0400024 -0.012592 -0.00113238 0.0404449 0.0681697 0.0515878 0.0579658 -0.0105225 0.0376542 0.0100869 -0.00562458 0.0426651 0.0668118 0.0395159 0.0629088 0.0577147
internal_weight=4369.16 3073.08 2211.66 978.896 1232.77 1034.72 738.306 384.581 353.725 184.496 41.5669 608.828 592.742 25.3236 567.419 240.59 140.627 30.8767 22.5284 142.929 126.294 118.868 15.9808 46.3763 36.3971 521.042 60.1138 460.929 117.973 109.133
internal_count=22918 14309 8589 4278 4311 3678 3121 1689 1432 729 170 2234 2176 90 2086 1157 662 142 103 559 490 553 73 182 143 1904 214 1690 456 421
is_linear=0
shrinkage=0.05


Tree=16
num_leaves=31
num_cat=0
split_feature=37 37 18 22 67 50 32 92 122 138 82 40 61 52 70 82 63 68 30 61 22 71 12 17 53 68 122 68 101 39
split_gain=2431.49 3526.31 14.3372 13.5769 11.8782 11.0702 12.1322 21.5826 12.7686 11.4102 12.8712 11.1846 14.993 13.8737 21.5333 10.1265 9.31636 10.8263 8.84158 11.6219 15.2218 12.9171 12.4794 11.144 10.8426 9.13283 8.44283 10.1373 8.42796 11.9353
threshold=0.56679546721572949 1.0000000180025095e-35 -0.19313597053003617 -1.1300921522323104 -2.419643444329155 -1.0000000180025095e-35 1.5348540431023392 -0.11831524516745952 1.2509474659375985 0.04228113964090368 0.31045225330110032 -0.99790806797982523 -0.72544184100150644 -0.24502246192693525 0.58713735279526547 1.0000000180025095e-35 -1.1993821763382841 1.1965246209318783 0.011229821020341271 -0.25733325309231053 -0.54361525286645651 -1.8672087185184412 1.735649090324513 -0.8309404607314711 1.6145320751056607 -2.010185000033625 -1.0718287198195104 -0.2581894407039737 -0.033001120189011128 0.86420026918715931
decision_type=2 2 2 2 2 2 2 2 2 2 2 2 2 2 2 2 2 2 2 2 2 2 2 2 2 2 2 2 2 2
left_child=1 -1 -3 -4 -5 6 11 9 26 10 28 12 15 14 -13 -6 17 -7 19 20 22 -21 -15 -22 -20 -23 27 -9 -8 -30
right_child=-2 2 3 4 5 16 7 8 -10 -11 -12 13 -14 18 -16 -17 -18 -19 24 21 23 25 -24 -25 -26 -27 -28 -29 29 -31
leaf_value=0.042774763629850075 0.042771479987177903 -0.054128226313383411 -0.056191556891543204 0.019322633929542629 -0.031944586036207395 -0.04498582226104833 0.02816704227618674 -0.067264577864823913 0.0011620993172238852 0.024479587751125048 -0.051801271703793977 -0.050418717808792694 -0.040590280106184415 -0.038157647657583157 0.047248670095673767 0.0350198363736796 -0.058420920777182264 0.020682938387374453 -0.058546428637875958 0.0028371163348252706 -0.012421806780888549 -0.00082857617432102672 0.028824514188531228 -0.059033105952927614 -0.00079795458975382349 -0.042775252108284187 -0.065454650055162711 0.012180368258955082 -0.053022536186223893 0.026086326628533048
leaf_weight=1497.4439630806446 2252.4193540811539 1384.3718110024929 349.58610847592354 7.0961612462997428 9.8998976051807421 33.108587175607681 13.505375653505324 7.4207755327224758 11.359861582517622 17.596623063087463 21.67235666513443 13.231928139925005 66.184262961149216 34.487836271524429 9.8406560719013196 13.137504458427427 233.25655695796013 7.7443643212318412 223.05849131941795 17.622587621212006 13.511622875928877 13.522187322378157 8.7098405659198743 251.72674071788788 8.4355157315731031 321.42826110124588 54.064761430025101 8.7502330243587476 12.50078868865967 7.7075412869453421
leaf_count=5720 8609 3734 941 20 27 90 37 20 31 48 59 36 180 94 27 36 632 21 604 49 37 37 24 683 23 874 146 24 34 21
internal_value=9.9646e-05 -0.020473 -0.0503072 -0.0473523 -0.0452073 -0.0455267 -0.0433902 -0.0303498 -0.0480193 -0.010595 -0.0217385 -0.0453964 -0.0284977 -0.0470431 -0.00876273 0.00624311 -0.0545632 -0.0325372 -0.0480327 -0.0450877 -0.052176 -0.0388866 -0.0246522 -0.0566587 -0.0564421 -0.0410818 -0.0559738 -0.0242764 -0.00241313 -0.0228501
internal_weight=6924.4 4671.98 3174.54 1790.17 1440.58 1433.49 1159.38 154.578 81.5956 72.9827 55.3861 1004.8 89.2217 915.576 23.0726 23.0374 274.11 40.853 892.503 661.009 308.436 352.573 43.1977 265.238 231.494 334.95 70.2358 16.171 33.7137 20.2083
internal_count=22918 14309 8589 4855 3914 3894 3151 420 221 199 151 2731 243 2488 63 63 743 111 2425 1798 838 960 118 720 627 911 190 44 92 55
is_linear=0
shrinkage=0.05


Tree=17
num_leaves=31
num_cat=0
split_feature=37 37 13 8 8 3 117 3 120 13 3 92 26 12 121 67 23 22 90 18 117 116 59 138 63 137 42 65 62 62
split_gain=1005.95 1318.69 511.814 86.25 78.4171 30.548 30.1288 27.4235 27.4762 25.8994 25.334 27.201 22.4671 22.8803 21.4847 27.8313 23.9163 24.8246 20.5205 19.627 18.5801 21.7892 20.4803 18.3942 29.8033 27.5626 23.0046 17.8639 28.9521 20.6277
threshold=0.56679546721572949 -1.0000000180025095e-35 0.023291749562665096 -0.3401571369454845 1.0635674363519338 0.086778584945319023 0.2177329634781984 1.4486251490436832 0.79092161322085541 1.2425919041505769 -0.81283171793846143 -1.753932934565509 -0.10384670991102231 -1.8211846442609321 1.3863302975486531 1.2244523766965771 1.2843882079744602 0.34477580461449481 -0.76187045483090177 -0.05922235936161712 0.5690303737476089 1.113292829873582 -0.034852072770331331 -0.011032527868480588 0.44930634412242137 -0.51838200773544041 1.2329491149445897 1.4608572682139449 -0.35836119540249228 -1.4414218377495882
decision_type=2 2 2 2 2 2 2 2 2 2 2 2 2 2 2 2 2 2 2 2 2 2 2 2 2 2 2 2 2 2
left_child=1 -1 3 5 7 -3 -5 8 14 -6 11 -8 13 -7 16 -16 17 23 -14 -20 21 22 -19 -4 25 26 -25 28 29 -12
right_child=-2 2 4 6 9 12 10 -9 -10 -11 27 -13 18 -15 15 -17 -18 20 19 -21 -22 -23 -24 24 -26 -27 -28 -29 -30 -31
leaf_value=-0.037526854483079852 -0.037339123217478835 0.071687073165662626 0.067699600981115923 0.028884207373023642 -0.0008034269470084429 0.073171133030080701 -0.020843823139551812 -0.010766091588561885 0.0034919323896700997 -0.029133021055484123 -0.020317563388329022 0.086331862857710107 0.10579661315182465 -0.0092955509858305488 -0.020078717011723948 0.079311360314735568 0.072967362441686182 0.038662507909669713 0.023706638626664084 0.072075242951368385 -0.0036625058164854313 0.11882622968666 -0.012140274962983708 0.11081759446533074 -0.010667513323393168 -0.0025405463748269796 -0.010653590782175208 0.095465586541432348 0.010479954820213166 0.07302055144744031
leaf_weight=847.03311094641685 1283.4644278883934 639.53184255957603 57.996936500072479 267.17860704660416 251.33680057525635 11.86972865462303 6.4696182161569586 65.449040368199348 126.58286668360233 118.81572750210762 6.7835475206375113 69.704815283417702 18.824187725782394 28.8642608076334 37.628141924738884 8.6655476540327054 36.672285482287407 72.252785295248032 41.703648537397385 42.192417144775391 63.524348556995392 6.5549312978982917 27.346631199121475 20.549980401992801 27.453916639089584 12.665827661752699 4.8100064992904654 13.33914642035961 60.01609180867672 46.462888538837433
leaf_count=5689 8609 2113 229 1031 1169 42 24 301 539 621 27 246 64 106 162 36 156 306 148 146 272 28 118 82 116 52 20 51 236 179
internal_value=-0.000224018 0.0154546 0.0359347 0.0568463 0.00801096 0.0670096 0.0399133 0.019678 0.0236416 -0.00989698 0.0544453 0.0772293 0.0461571 0.0147349 0.030423 -0.00147425 0.0349 0.0301379 0.0586176 0.0480318 0.017726 0.0305251 0.0247138 0.0471942 0.0290321 0.0576944 0.0877783 0.0407366 0.034291 0.0611294
internal_weight=4321.74 3038.28 2191.25 1252.94 938.306 782.986 469.955 568.153 502.704 370.153 202.776 76.1744 143.454 40.734 376.121 46.2937 329.828 293.155 102.72 83.8961 169.679 106.154 99.5994 123.477 65.4797 38.0258 25.36 126.602 113.263 53.2464
internal_count=22918 14309 8620 4413 4207 2619 1794 2417 2116 1790 763 270 506 148 1577 198 1379 1223 358 294 724 452 424 499 270 154 102 493 442 206
is_linear=0
shrinkage=0.05


Tree=18
num_leaves=31
num_cat=0
split_feature=37 37 13 8 8 5 8 52 51 5 115 17 58 93 15 50 24 46 15 62 59 51 90 74 92 137 122 38 117 17
split_gain=946.138 1200.82 371.555 74.6265 58.706 34.7829 23.143 22.8519 21.8623 20.6546 26.6301 22.8667 19.168 18.4337 18.2641 19.7269 19.1458 21.3658 17.979 18.6633 23.9344 17.919 20.0588 22.019 17.7333 17.5638 17.3672 16.9431 19.628 20.356
threshold=0.56679546721572949 1.0000000180025095e-35 -0.011205209644680143 -1.1143211033814848 1.6230840620370717 -0.56452500922544735 0.83171592557351748 -0.17123231713774706 -0.14031403258413019 -0.89425687438790058 0.98769643639643734 0.10967424926113777 2.074188364247826 2.3623972808502258 -1.4931675886995095 -1.0000000180025095e-35 -0.36182584720902516 2.0251214400961355 -0.58291604452900936 0.36325301145396427 -0.068091957631718741 -0.18011822039005407 0.04634337613231556 0.84706407478000201 -1.5060083556043267 -0.91218741020159788 -0.12115495432081495 -0.82943721986351593 1.1267371592142086 -0.89288587807051967
decision_type=2 2 2 2 2 2 2 2 2 2 2 2 2 2 2 2 2 2 2 2 2 2 2 2 2 2 2 2 2 2
left_child=1 -1 3 -3 5 7 13 8 -4 10 11 -9 -7 14 -5 16 17 27 24 20 -20 -18 -23 -24 -17 -26 -19 -16 -29 -30
right_child=-2 2 4 6 -6 12 -8 9 -10 -11 -12 -13 -14 -15 15 18 21 26 19 -21 -22 22 23 -25 25 -27 -28 28 29 -31
leaf_value=-0.037238424548590408 -0.037053670975092899 -0.0093110981112310195 0.028033409698644207 -0.020751115923146445 0.069945179034950858 0.057778308679139981 0.046347593582847908 0.037577921213824104 0.089915344405424216 0.021913391783181527 -0.015813227892095948 0.095525572587770877 0.014138223842410881 0.069474429325179957 -0.020014635671190058 0.14520967256060699 0.012778443519953622 0.0010888629078483353 0.10868566055573514 -0.028348927238090321 0.017921623885705101 0.017021963921456117 0.089325507408629601 0.0088239744573701869 0.11952958540642267 0.029838107835185479 0.11686295648662975 -0.00013511596039930465 -0.0065743505476651689 0.078289494874451998
leaf_weight=815.25010713934898 1226.8067303001881 321.05680865049362 378.06760454177856 33.193300545215607 316.18205371499062 427.47043325006962 74.089510157704353 24.916996732354164 14.832760393619536 33.571596905589104 8.5357402116060239 53.74604307115078 26.735832661390305 16.116354763507843 74.702117651700974 5.8729128390550605 142.05169662833214 5.8649671673774719 9.2288266569375974 14.459739461541174 34.103791251778603 40.45425520837307 29.865858748555183 11.870468661189078 7.0839129537344006 23.785031601786613 7.2355266362428647 113.25994183123112 11.521411597728731 18.273709639906883
leaf_count=5720 8609 1515 1340 155 979 1429 272 89 52 118 30 182 92 66 321 24 570 25 36 59 139 164 117 50 28 101 30 481 50 75
internal_value=0.000101991 0.0148375 0.0334732 0.0105239 0.0512401 0.0451296 0.0199857 0.0362165 0.0303696 0.0552382 0.0680683 0.0771703 0.0552095 0.0167247 0.0152661 0.0174412 0.013124 0.0030166 0.0382249 0.0208387 0.0372522 0.0235296 0.0421111 0.0664296 0.0655721 0.0504208 0.065032 -0.000714306 0.00936416 0.0454737
internal_weight=4320.21 3093.4 2278.15 994.09 1284.06 967.877 673.033 513.671 392.9 120.77 87.1988 78.663 454.206 598.944 582.827 549.634 455.1 230.858 94.5342 57.7924 43.3326 224.242 82.1906 41.7363 36.7419 30.8689 13.1005 217.757 143.055 29.7951
internal_count=22918 14309 8589 4278 4311 3332 2763 1811 1392 419 301 271 1521 2491 2425 2270 1883 982 387 234 175 901 331 167 153 129 55 927 606 125
is_linear=0
shrinkage=0.05


Tree=19
num_leaves=31
num_cat=0
split_feature=37 37 18 5 116 50 10 22 32 15 7 61 54 104 11 58 105 98 58 118 52 103 18 10 52 11 22 14 42 41
split_gain=2222.19 3133.77 13.2852 12.7152 14.5387 12.1222 10.9371 12.5694 12.8664 10.0945 9.72901 10.8792 11.6291 10.2328 9.40522 9.5882 9.21109 9.07232 8.99362 9.63843 8.87598 9.50881 9.72956 9.53295 8.62404 9.51912 11.9469 8.59129 8.76446 10.0718
threshold=0.56679546721572949 1.0000000180025095e-35 -0.19313597053003617 -1.0779499135884547 -1.8546788239601695 -0.21568336659585172 0.017485821017375999 -0.48125922473639182 -0.20026357791859808 -0.73024363408138404 -1.9485790106051837 0.61959655911096367 0.49432437936349566 0.5254952565467873 1.464407442716634 -1.0965831599804405 -1.4144110693558789 -1.7487861147561443 0.82596307633013721 -0.57486133991868027 -0.1799347941362385 0.071588177058183308 0.91206548423071776 -1.6567170585280333 -0.1449610971776927 0.37304380577771029 1.0259527888317368 2.000574006789503 2.7573299446353432 0.084059964949516258
decision_type=2 2 2 2 2 2 2 2 2 2 2 2 2 2 2 2 2 2 2 2 2 2 2 2 2 2 2 2 2 2
left_child=1 -1 -3 4 -4 6 20 8 -8 -5 -9 18 13 -13 24 16 -16 -7 -12 -20 21 22 23 -6 27 -26 -27 28 29 -11
right_child=-2 2 3 9 5 17 7 10 -10 14 11 12 -14 -15 15 -17 -18 -19 19 -21 -22 -23 -24 -25 25 26 -28 -29 -30 -31
leaf_value=0.042018305977403664 0.042014721491415642 -0.050658713392950194 0.01732910639798552 -0.053031667323042368 0.0094370415139194575 -0.00030079589246401363 0.028124400255348871 0.0094412902910437045 -0.02697997534112305 -0.036889812375336291 -0.06115749957169471 -0.050130854140920715 0.042112610791459178 0.01717820124576231 0.013474074021306393 -0.064435647858452225 -0.049391227858972063 -0.058074940360772799 0.020165690294659623 -0.048563248220886167 -0.067171784244523344 -0.05309138849426618 0.021453060761104679 -0.051533182667614155 -0.048539990254656523 0.040866945189569542 -0.035791876048222114 -0.054303644207535098 0.0014594674979972466 -0.049120983759874316
leaf_weight=1431.4193096011877 2152.9748051464558 1394.1223024427891 12.376432687044142 401.51905682682991 9.1206934750080091 7.3873763084411612 20.264735072851181 12.336176663637159 22.195498824119568 451.51841154694557 47.300252228975296 18.478494971990589 7.1877149343490592 8.1313951015472394 8.1872717440128344 93.603787064552307 20.210020124912262 84.742720037698746 8.2749601006507891 13.299968153238295 30.883260935544968 40.092868208885193 10.962843954563139 21.580089658498768 14.47971788048744 10.707480907440187 9.6746044158935529 138.89630350470543 12.100853651762007 268.33555486798286
leaf_count=5720 8609 3734 34 1075 25 20 56 34 60 1218 128 50 20 22 22 250 54 228 23 36 83 108 30 58 39 29 26 373 33 721
internal_value=4.72452e-05 -0.0194704 -0.0469929 -0.0441598 -0.0359602 -0.0377809 -0.0324391 -0.0239296 -0.000680648 -0.046309 -0.032513 -0.0375538 -0.0143196 -0.0295627 -0.0436825 -0.0567151 -0.0312664 -0.0534424 -0.048955 -0.0222026 -0.0443352 -0.0357087 -0.0189813 -0.0334199 -0.041927 -0.0175417 0.0044799 -0.0429031 -0.0407398 -0.0414492
internal_weight=6782.36 4629.39 3197.97 1803.85 374.615 362.239 270.109 157.469 42.4602 1429.23 115.009 102.673 33.7976 26.6099 1027.71 122.001 28.3973 92.1301 68.8752 21.5749 112.64 81.7565 41.6636 30.7008 905.713 34.8618 20.3821 870.851 731.955 719.854
internal_count=22918 14309 8589 4855 1015 981 733 429 116 3840 313 279 92 72 2765 326 76 248 187 59 304 221 113 83 2439 94 55 2345 1972 1939
is_linear=0
shrinkage=0.05


Tree=20
num_leaves=31
num_cat=0
split_feature=139 139 13 8 8 117 11 13 67 65 12 59 120 11 29 54 62 13 90 29 28 7 20 134 144 68 59 47 6 140
split_gain=922.76 1162.09 435.191 72.4434 70.191 25.7975 25.7694 24.3766 21.2219 20.8714 20.5406 20.8376 24.6465 26.3737 19.886 19.8728 19.6903 20.1585 19.0223 26.5021 18.978 17.9009 17.2413 25.1789 22.8161 16.9823 16.6138 18.0194 18.1292 16.4377
threshold=0.56679546721572949 -1.0000000180025095e-35 0.023291749562665096 -0.3401571369454845 1.0635674363519338 0.2177329634781984 -0.88683207352952398 1.2425919041505769 -1.5118605476790818 1.4379139072438312 -2.2840536169550512 -0.074160845546759821 0.79092161322085541 0.61218858012849509 -0.789021346764327 1.3878942360502953 -0.53646220583286008 -1.0225634766452274 0.52126800347604429 0.83267117853062955 -1.3627538576868459 -0.86941269595448867 -0.1745541561216126 -0.36467451961719272 -0.51577312538799436 2.0288065941725075 -0.061497743301681305 -1.2136252239665632 0.48902945487595811 -0.92443209768291668
decision_type=2 2 2 2 2 2 2 2 2 2 2 2 2 2 2 2 2 2 2 2 2 2 2 2 2 2 2 2 2 2
left_child=1 -1 3 6 10 29 -3 -6 -8 14 -4 25 13 15 -7 20 -16 -18 -10 -20 -13 -21 24 -24 -22 -12 -19 -28 -29 -5
right_child=-2 2 4 5 7 9 8 -9 18 -11 11 12 -14 -15 16 -17 17 26 19 21 22 -23 23 -25 -26 -27 27 28 -30 -31
leaf_value=-0.037241680740487629 -0.037043144776725483 0.071469007832188125 0.056256107174808306 0.046381903467458088 -0.0011884549240617089 0.014432810476522362 0.093465963392233356 -0.028806868275391018 0.057168030481162181 0.09150898779505981 -0.0088680422789500571 0.090655260618670644 -6.0744115669419706e-06 0.0098227723168577991 0.075853384267268023 0.087227146143972936 0.077979625623487925 -0.0080046486300654352 0.048609067474690903 0.048792373974200526 0.075522395109787546 -0.025562912913261595 0.051224706722720385 -0.0099963479810110945 0.024182889058278902 0.074917170054589935 -0.034383665338967612 0.085716672007258909 0.0030499940992267166 0.018816015822734157
leaf_weight=801.5682371109724 1214.7712446302176 330.21584513783455 33.026723846793175 73.96308246254921 253.2388006746769 44.477887198328972 30.92779329419136 116.71755009889603 325.07182279229164 25.887823224067688 102.47983650863171 13.497918248176573 109.78031335771084 129.91392366588116 55.840915665030479 19.132716134190559 22.727716892957687 25.555104985833168 95.069547563791275 12.005914449691771 34.639295727014542 24.845940947532654 25.62350532412529 48.743640005588531 57.671305328607559 6.4271531850099555 6.0621031671762458 21.238728865981106 9.6435757875442487 201.17340691387653
leaf_count=5689 8609 1014 125 270 1169 165 100 621 1067 89 437 53 470 562 198 73 73 98 314 39 135 85 103 203 229 27 24 80 36 761
internal_value=-0.000178153 0.0144702 0.032847 0.0515964 0.00712113 0.0363189 0.0606824 -0.00990179 0.0533822 0.0494522 0.0179618 0.0156535 0.0205101 0.0273513 0.0435843 0.0387768 0.0527756 0.037655 0.0506695 0.0346563 0.0336319 -0.00133881 0.0290141 0.0110976 0.0434479 -0.00392345 0.022991 0.0444313 0.0599025 0.0262264
internal_weight=4271.94 3057.17 2255.6 1304.71 950.893 486.57 818.137 369.956 487.921 211.434 580.936 547.91 439.003 329.222 185.546 199.308 141.068 85.2272 456.993 131.921 180.176 36.8519 166.678 74.3671 92.3106 108.907 62.4995 36.9444 30.8823 275.136
internal_count=22918 14309 8620 4413 4207 1794 2619 1790 1605 763 2417 2292 1828 1358 674 796 509 311 1505 438 723 124 670 306 364 464 238 140 116 1031
is_linear=0
shrinkage=0.05


Tree=21
num_leaves=31
num_cat=0
split_feature=37 37 13 8 8 3 71 52 119 15 55 52 44 11 58 140 18 48 119 61 122 90 51 51 77 18 64 41 130 14
split_gain=869.071 1063.1 316.957 66.7457 50.1998 29.3056 23.0943 21.4905 25.041 22.0058 19.8441 19.4539 27.4815 18.3901 23.3021 17.6227 17.2605 23.2353 26.9098 21.0941 17.5165 17.4973 21.5369 18.7821 17.456 17.1257 23.0066 20.0448 16.8948 16.8732
threshold=0.56679546721572949 1.0000000180025095e-35 -0.011205209644680143 -1.1143211033814848 1.6230840620370717 0.086778584945319023 1.84280994437093 -0.15569368937211062 1.2244994043241 -0.27423946480723832 1.008228132168975 -0.18197728504114749 1.2689692570072224 1.490880864789774 -1.2319374489743908 1.3124928245886081 0.50781962722709084 -0.22826577307580578 0.21396917307669824 2.0692179568603248 1.2051226870106679 -0.14849641093597596 -0.15422662883248492 -0.22505483303590137 0.053943418628363729 -0.51056596713709335 0.79359064167756321 -1.1620429023151597 -0.15529959750066921 -1.8040642076247086
decision_type=2 2 2 2 2 2 2 2 2 2 2 2 2 2 2 2 2 2 2 2 2 2 2 2 2 2 2 2 2 2
left_child=1 -1 3 25 5 6 11 16 9 28 13 -4 -13 29 -15 -12 17 18 20 -20 24 -18 23 -23 -5 26 27 -3 -9 -7
right_child=-2 2 4 7 -6 10 -8 8 -10 -11 15 12 -14 14 -16 -17 21 -19 19 -21 -22 22 -24 -25 -26 -27 -28 -29 -30 -31
leaf_value=-0.036965643100567512 -0.036771303262890458 0.10178641633615809 0.015522914130151276 -0.0082389171421644262 0.063750611448182989 0.018989862840147698 0.082173448563273688 0.00013159701063906337 -0.029852471380550097 0.10750093360357137 0.0673398968952756 0.05490729455371797 -0.01379855045244684 -0.0041548458760973178 0.085689266363871835 -0.0088717459547577992 -0.01262168417203044 0.0087699248845974319 0.05713745089296679 -0.03445873245410578 0.060959701450025938 0.092874952855819426 0.1069483231800018 0.0051788148602274625 0.029185638630606976 -0.016836694985332946 -0.02990447005050044 0.01454591264581692 0.090106032601853722 0.043706458610028733
leaf_weight=771.00111424922943 1160.4062404185534 7.3772731423377982 189.8242107629776 61.68725922703743 328.29832899570465 83.087790966033936 18.757530555129051 14.126599058508871 8.0925364941358549 18.09376472234726 139.54287038743496 82.375243797898293 17.677723869681358 8.6543021798133832 43.454646497964859 8.0212513208389264 90.56117582321167 205.11706940829754 95.812593162059784 6.7268838286399832 20.103203982114792 6.5973829329013816 6.3638658672571173 81.896277606487274 62.957996964454651 223.95448264479637 27.92856253683567 61.250167593359947 8.2728042006492633 408.68005153536797
leaf_count=5720 8609 34 666 251 979 288 64 58 33 65 454 275 63 26 128 27 381 820 374 28 77 25 26 345 247 1079 128 274 33 1341
internal_value=0.000149214 0.0139415 0.0307485 0.00959113 0.046786 0.041217 0.028406 0.0183877 0.0504429 0.0664899 0.0469354 0.0249268 0.0427681 0.0425233 0.0707679 0.0631972 0.0159459 0.0212117 0.0315317 0.0511285 0.0176494 0.003098 0.0181057 0.0117167 0.0106641 -0.00924774 0.00835429 0.023924 0.033362 0.0395304
internal_weight=4266.7 3106.29 2335.29 1006.92 1328.37 1000.08 308.635 686.409 48.5857 40.4932 691.441 289.877 100.053 543.877 52.1089 147.564 637.824 452.405 247.288 102.539 144.748 185.419 94.8575 88.4937 124.645 320.51 96.556 68.6274 22.3994 491.768
internal_count=22918 14309 8589 4278 4311 3332 1068 2763 189 156 2264 1004 338 1783 154 481 2574 1797 977 402 575 777 396 370 498 1515 436 308 91 1629
is_linear=0
shrinkage=0.05


Tree=22
num_leaves=31
num_cat=0
split_feature=37 37 18 11 6 3 37 63 13 26 135 120 3 64 41 70 57 30 77 117 144 46 120 7 137 58 120 42 58 29
split_gain=2035.88 2797.42 12.6415 11.8061 11.9172 11.1391 8.87469 8.77429 10.597 10.2245 11.0355 11.133 10.571 11.0479 8.40574 13.1302 10.1617 10.0587 9.71215 11.4734 8.45373 8.0274 15.8186 12.0959 13.9748 8.4666 7.90175 7.54614 7.3802 7.27852
threshold=0.56679546721572949 1.0000000180025095e-35 -0.19313597053003617 -1.001597698756566 1.0112978368950629 -1.4100740298327283 0.59003497406003236 1.2341554322583186 1.1856573062711464 0.11342926034343721 -0.25967783762338043 0.95981711136321701 0.51899327524971106 1.3582110049468079 -0.22155573218084426 0.082489753837305904 -0.3542923851610888 -0.99915869610727004 -0.92150948655732334 0.28521926478861798 -0.014663848244395698 1.5574477894084469 -0.72716982231479088 0.73974237881943294 0.3811873267148353 -1.7400132881112043 -1.6628375330433562 2.6605441638641323 -0.28053524777432731 0.35980495011043517
decision_type=2 2 2 2 2 2 2 2 2 2 2 2 2 2 2 2 2 2 2 2 2 2 2 2 2 2 2 2 2 2
left_child=1 -1 21 -4 5 -5 -2 27 9 10 12 26 13 -9 15 18 -17 -18 19 -6 -19 -3 23 24 28 -24 -12 -7 -23 -22
right_child=6 2 3 4 14 7 -8 8 -10 -11 11 -13 -14 -15 -16 16 17 20 -20 -21 29 22 25 -25 -26 -27 -28 -29 -30 -31
leaf_value=0.04132635776987828 0.041493226280982565 -0.048920369720946405 -0.050440398250218212 0.01024402930074258 0.005138064819414109 -0.039919789276346519 -0.022164635427723775 0.026447270975420285 -0.057581624033572858 -0.042428913178515423 0.0073911673295188858 0.012652747425613313 0.045069254656046803 -0.039128386342408679 -0.055550854742267376 -0.045031272319134508 -0.056655842566788385 0.028894908158594846 -0.05982164213564356 -0.058026256331572927 -0.048248084511101845 -0.0018913294385781753 0.0009874668017979414 -0.053167146933472222 -0.043175121598398605 -0.050943486075309991 -0.049516228039476591 -0.0058457540655625362 0.063653429985247229 0.016889125850552991
leaf_weight=1366.2308367937803 2049.3387647867203 1262.2523727416992 298.26125752925873 12.301887542009352 14.53409779071808 966.60991355776787 5.489726483821868 11.487418472766878 23.554355889558792 39.936165004968643 7.4180940091609946 13.621971219778059 12.939283341169356 14.568713605403898 170.6235403418541 33.237612873315811 8.5949060618877393 17.018585562705994 83.010619252920151 14.226538270711897 10.090509504079821 7.4811362922191647 8.5929035246372205 10.479904621839522 8.2439799308776838 90.621565520763397 34.328286617994308 16.526475042104721 10.083101332187654 7.458884894847869
leaf_count=5720 8586 3372 797 33 39 2596 23 31 63 107 20 37 35 39 456 89 23 46 222 38 27 20 23 28 22 242 92 45 27 20
internal_value=-1.90252e-05 -0.0185903 -0.0441069 -0.041349 -0.0395557 -0.0370798 0.0413232 -0.0375901 -0.0266476 -0.0212223 -0.0122473 -0.0265968 0.00812722 -0.0102179 -0.0475139 -0.0402264 -0.0242512 -0.00824956 -0.0511461 -0.0261064 0.00378607 -0.0476789 -0.036114 -0.00786612 0.0105292 -0.0464458 -0.0394041 -0.039347 0.0357359 -0.0205633
internal_weight=6629.16 4574.33 3208.1 1810.35 1512.09 1153.29 2054.83 1140.99 157.854 134.3 94.3638 55.3684 38.9954 26.0561 358.795 188.172 76.4005 43.1629 111.771 28.7606 34.568 1397.75 135.503 36.2881 25.8082 99.2145 41.7464 983.136 17.5642 17.5494
internal_count=22918 14309 8589 4855 4058 3098 8609 3065 424 361 254 149 105 70 960 504 205 116 299 77 93 3734 362 97 69 265 112 2641 47 47
is_linear=0
shrinkage=0.05


Tree=23
num_leaves=31
num_cat=0
split_feature=37 37 13 22 8 14 3 58 115 12 123 142 117 36 32 13 104 141 117 118 117 0 65 117 100 123 45 118 54 136
split_gain=848.265 1030.11 374.795 74.4856 51.8204 26.4505 24.872 23.4521 22.2211 21.8361 20.5246 22.6758 20.2434 22.7291 21.441 19.9839 18.5 18.0095 31.6896 20.8041 21.2206 17.9406 18.1548 17.9895 30.5232 17.9333 17.7063 18.2607 22.1071 17.5466
threshold=0.56679546721572949 -1.0000000180025095e-35 0.1865004867746857 -0.9260563249577799 1.0635674363519338 0.97204897437195448 1.4771698763038665 2.2342471643587496 1.1616371190782884 -2.2480501659752896 1.5569120588209397 1.6157908138389974 -1.5619105762342078 1.3091191405410569 0.44430641958721856 1.2425919041505769 -0.81639525458688722 0.85544885365510559 -1.1137163703417801 -0.24012086196419338 0.45659563108438006 -0.020761221176652658 0.25314641848556357 0.23433769743285648 0.1935579676399117 -0.36409122040696612 -0.37260156246731407 -0.88914625620979815 -0.47053694887676123 -1.0000000180025095e-35
decision_type=2 2 2 2 2 2 2 2 2 2 2 2 2 2 2 2 2 2 2 2 2 2 2 2 2 2 2 2 2 2
left_child=1 -1 3 21 6 16 7 9 10 -4 11 -7 13 14 -11 -6 26 18 -18 20 -19 23 -23 24 -3 -20 27 28 -5 -27
right_child=-2 2 4 5 15 8 -8 -9 -10 12 -12 -13 -14 -15 -16 -17 17 19 25 -21 -22 22 -24 -25 -26 29 -28 -29 -30 -31
leaf_value=-0.036976812225687238 -0.036766684527391472 -0.034957052168004155 0.065344816254642155 0.10087148901704149 -0.0030293960435807169 0.025573311471368716 -0.016241808282028536 0.071043158324429423 0.092867745448153391 0.061564866697654874 -0.0073845308785725414 0.11060691037627357 0.0093093065012940044 0.14540191428940666 -0.035334840799577216 -0.028474192904124281 0.013522538803718979 0.070256156891064056 0.073198390017992651 0.0010118451525755385 -0.00027469610680357982 0.053897060991934448 0.072463986141908437 0.059006324624118381 0.05348364672673013 0.062195758572052562 0.042766131738385636 0.09479847104141742 -0.011828291240363954 0.022545653261637932
leaf_weight=757.98972553014755 1148.9300734102726 18.307939141988754 20.920051783323288 7.4657365679740932 236.14347419142723 288.33730415999889 59.599263772368431 20.053973406553268 11.761260539293287 18.792828872799877 47.916483089327812 8.0592179745435697 344.09975634515285 5.2979194968938819 8.1995092481374723 114.62021145224571 62.551880747079849 30.05870608985424 76.769911512732506 61.985202863812447 16.528629913926125 311.33652302622795 228.13405330479145 42.993208408355713 20.884961068630219 54.264722019433975 81.728490456938744 45.518867701292038 10.431005686521528 57.435770377516747
leaf_count=5689 8609 62 76 25 1088 1071 274 76 38 77 189 29 1421 20 35 621 216 102 256 214 57 937 685 137 68 182 273 151 37 203
internal_value=-0.000121062 0.0136015 0.0301965 0.045245 0.00324447 0.0357207 0.013973 0.0182877 0.0252856 0.0156249 0.0229771 0.0278854 0.0128614 0.0507143 0.0321295 -0.0113441 0.0430822 0.0370007 0.0443596 0.0199865 0.0452327 0.0584334 0.0617487 0.0366714 0.0121709 0.0545942 0.0581493 0.0779748 0.0351851 0.0418079
internal_weight=4217.12 3068.19 2310.2 1482.47 827.727 860.813 476.963 417.364 356.074 397.31 344.313 296.397 376.39 32.2903 26.9923 350.764 504.739 359.595 251.022 108.573 46.5873 621.657 539.471 82.1861 39.1929 188.47 145.144 63.4156 17.8967 111.7
internal_count=22918 14309 8620 4932 3688 3043 1979 1705 1327 1629 1289 1100 1553 132 112 1709 1716 1230 857 373 159 1889 1622 267 130 641 486 213 62 385
is_linear=0
shrinkage=0.05


Tree=24
num_leaves=31
num_cat=0
split_feature=37 37 13 15 11 0 52 14 118 0 11 142 30 136 41 104 63 116 135 35 135 77 70 66 10 68 57 97 47 47
split_gain=799.637 945.722 272.951 57.2704 45.2421 26.1055 24.8969 22.0266 23.3519 20.715 23.3632 22.7791 23.6979 19.672 18.6957 17.4579 17.3921 19.9263 18.6474 20.185 17.9049 23.3112 17.8192 18.9149 25.8744 17.2263 17.7941 17.0694 16.812 16.6046
threshold=0.56679546721572949 1.0000000180025095e-35 -0.011205209644680143 -1.2251459457941738 1.3297266820662628 -0.0082913439794500832 -0.19696268114907697 -1.2006329860089171 -2.0958606642705235 0.034024818332262015 -0.70682949005794238 -0.69042395524671885 -1.1652219874238121 0.28199349752629416 0.41617333137637597 1.0841384550159339 -1.13643279285883 0.97264637887684913 -0.85573141190107183 2.2652939697483521 0.26917209564783456 -0.9544311935860873 -0.98632857439666233 0.48347181037910275 1.3667162362182095 1.7756112127815367 0.22195395067314752 -1.6015032609852791 0.95181544591747225 -1.3360548161894825
decision_type=2 2 2 2 2 2 2 2 2 2 2 2 2 2 2 2 2 2 2 2 2 2 2 2 2 2 2 2 2 2
left_child=1 -1 3 9 5 15 7 -5 -9 10 -3 -12 -13 25 -14 -4 17 22 -18 20 21 -20 -8 24 -24 26 -7 -28 -22 -17
right_child=-2 2 4 6 -6 13 16 8 -10 -11 11 12 14 -15 -16 29 18 -19 19 -21 28 -23 23 -25 -26 -27 27 -29 -30 -31
leaf_value=-0.036711755452024951 -0.036507072078972795 -0.011121652080503731 0.049690969750571787 -0.012008250197309049 0.064279373624063232 0.054569926853676301 -0.02892617940858715 0.10049918340912063 0.011582424279294783 -0.029416437664330497 -0.034250724139020805 -0.040785775676879465 0.12551931142924375 0.018588765425259435 0.022898407658824851 0.075300497528705004 0.00021501556592202296 0.081818272527030167 -0.0069611614257992314 0.11073642422258939 0.003621853133462815 0.051858167418947013 -0.0012934598408777154 0.11196220187022697 0.093986419221914919 -0.0041087650134750677 -0.045093565406113624 0.033208031259725698 0.055733171769548728 0.023124196251040906
leaf_weight=728.656205534935 1096.8685764223337 104.80518516898155 527.09186689555645 116.47791518270969 210.86154082417488 140.09930263459682 10.997116819024084 7.6114926785230628 247.13024558126926 103.6791070997715 8.1159263402223605 4.4594969302415874 11.915917724370958 206.31834228336811 7.0724633485078803 17.454617470502853 95.247491389513016 25.078013479709625 21.327508211135864 6.896989479660987 106.42233264446259 80.141574591398239 24.460367515683174 7.960502713918685 10.054196417331694 21.534010142087936 7.4101449698209754 114.60765734314919 18.11123189330101 120.63412888348103
leaf_count=5720 8609 495 1627 514 604 462 44 28 978 524 38 20 48 704 32 52 381 94 88 30 423 308 101 28 35 73 26 386 69 377
internal_value=0.000203224 0.0131397 0.0283766 0.00877814 0.0429816 0.0390939 0.0153661 0.00600351 0.0142392 -0.0125713 0.000235821 0.0379474 0.0629371 0.0303359 0.0872969 0.0455449 0.023912 0.0450455 0.0188531 0.0264754 0.023904 0.0394951 0.0277993 0.042486 0.0264619 0.0388804 0.0424122 0.0284528 0.0112005 0.0297194
internal_weight=4209.5 3112.63 2383.98 1017.97 1366.01 1155.15 777.917 371.22 254.742 240.048 136.369 31.5638 23.4479 489.969 18.9884 665.181 406.697 78.5502 328.147 232.9 226.003 101.469 53.4722 42.4751 34.5146 283.651 262.117 122.018 124.534 138.089
internal_count=22918 14309 8589 4278 4311 3707 3121 1520 1006 1157 633 138 100 1651 80 2056 1601 302 1299 918 888 396 208 164 136 947 874 412 492 429
is_linear=0
shrinkage=0.05


Tree=25
num_leaves=31
num_cat=0
split_feature=37 37 18 5 116 50 143 58 112 19 143 55 29 47 12 52 37 22 78 118 64 127 122 19 20 59 68 66 122 118
split_gain=1869.03 2506.35 11.7944 11.2173 13.4847 11.1513 10.0603 9.75384 10.2268 9.7666 10.4075 8.99599 10.387 8.9891 10.1463 9.8315 8.81205 8.38831 7.82517 8.89847 8.02681 7.81651 11.3733 9.48205 15.0045 14.3178 13.8833 8.34704 8.3001 13.8161
threshold=0.56679546721572949 1.0000000180025095e-35 -0.19313597053003617 -1.0779499135884547 -1.8546788239601695 -0.21568336659585172 -0.9701716775467587 -0.020417426213371833 -0.62001447672160903 1.5801783591007912 -0.2438186948843791 -1.3260201185178129 0.62761696254355404 -1.0988996674600411 1.4662475786107512 -0.2048837527551631 0.59003497406003236 -1.043231446805976 -1.844265263414391 -2.6446534199795289 1.242755984009521 0.40093016282700794 0.71664665532243055 1.4760518110230518 2.0429032436171286 -0.093943333196121401 1.6965988119895632 -1.1888307478741467 -0.15547471169256191 1.3880794105296135
decision_type=2 2 2 2 2 2 2 2 2 2 2 2 2 2 2 2 2 2 2 2 2 2 2 2 2 2 2 2 2 2
left_child=1 -1 18 4 -4 7 -7 9 -9 -6 -11 -10 13 -13 15 -15 -2 -5 -3 -20 -21 22 27 24 25 -24 -27 -19 29 -29
right_child=16 2 3 17 5 6 -8 8 11 10 -12 12 -14 14 -16 -17 -18 21 19 20 -22 -23 23 -25 -26 26 -28 28 -30 -31
leaf_value=0.040692789323788371 0.040866804465503635 -0.061842433623190612 0.019842775156406089 -0.047899933979368065 -0.042957310436680746 -0.00073664064473119182 -0.053697947045700634 -0.044904441504996423 -0.043281297476969592 -0.044796800590334827 0.023638195193758406 -0.032795221545782682 -0.032206938021575218 0.031185657097882093 0.049934258350841254 -0.021704592266878764 -0.02285038828534235 -0.0092781874276639444 0.0089116073931071633 -0.042841814456509163 -0.053679989044295474 -0.047795589268028266 0.026359115796177453 -0.046042426374665046 0.037934463028560877 -0.033412108125478457 0.020051462485001809 -0.039473411237610147 -0.049775629389717087 0.0029735250348354924
leaf_weight=1302.2230643779039 1953.0108117163181 65.798583298921585 12.498500823974608 330.6237185895443 116.52686581015587 10.057959437370299 82.644017904996872 28.246912002563477 17.907624036073685 10.04780298471451 12.426379472017286 11.885588139295576 24.185557514429092 15.410267502069468 15.061649709939955 20.441087454557422 5.4414164125919333 20.854162395000458 7.8462359011173239 1121.1067423820496 201.54355895519257 198.87060913443565 12.241055846214293 56.773882329463959 9.6472101807594282 166.96757814288139 13.095079123973845 402.87951770424843 201.89492323994637 20.128217846155167
leaf_count=5720 8586 176 34 886 313 27 221 76 48 27 34 32 65 42 41 55 23 56 21 2998 539 532 33 152 26 447 35 1079 540 54
internal_value=-9.59125e-05 -0.0178076 -0.0415575 -0.0388955 -0.0312251 -0.0329745 -0.0479518 -0.0278727 -0.0182006 -0.0371368 -0.00695786 -0.0110094 -0.00436547 0.00635708 0.0154971 0.00102964 0.0406898 -0.040914 -0.0450108 -0.0441784 -0.0444933 -0.0388206 -0.0368472 -0.0279894 -0.0229142 -0.0259667 -0.029524 -0.0403962 -0.0414347 -0.0374536
internal_weight=6468.29 4509.83 3207.61 1811.32 377.34 364.842 92.702 272.14 133.139 139.001 22.4742 104.892 86.9842 62.7986 50.913 35.8514 1958.45 1433.98 1396.3 1330.5 1322.65 1103.35 904.482 258.725 201.951 192.304 180.063 645.757 624.903 423.008
internal_count=22918 14309 8589 4855 1015 981 248 733 359 374 61 283 235 170 138 97 8609 3840 3734 3558 3537 2954 2422 693 541 515 482 1729 1673 1133
is_linear=0
shrinkage=0.05


Tree=26
num_leaves=31
num_cat=0
split_feature=37 37 13 8 8 8 57 3 117 123 65 65 19 3 135 42 58 52 71 58 142 62 141 68 23 132 143 0 7 65
split_gain=781.125 917.483 324.288 56.8025 54.6838 22.3567 22.4462 21.6227 20.8446 24.6041 20.187 18.2706 18.0748 16.9315 33.5406 20.4398 22.4682 21.4022 18.6901 17.4382 16.7158 16.1482 16.002 15.603 15.3034 15.062 15.038 15.6239 14.4696 19.169
threshold=0.56679546721572949 -1.0000000180025095e-35 0.023291749562665096 1.6230840620370717 -0.3401571369454845 0.02390469518417554 -0.24814772868152554 0.086778584945319023 0.2177329634781984 -0.60448711878038874 1.4608572682139449 -0.1823996440072945 0.22153104177423533 0.086778584945319023 1.047741819778554 2.1849362174627744 2.1894615942014521 -0.18132340490958818 -0.8925310708408668 -1.6835113716214061 -0.82092053016355526 -0.12065793906611776 -0.81103384694816871 1.8318153908777746 1.1883977621338089 -1.3748533845886075 -0.72013657733249181 0.0285949327924582 -0.75703554796995731 -0.32393436424654726
decision_type=2 2 2 2 2 2 2 2 2 2 2 2 2 2 2 2 2 2 2 2 2 2 2 2 2 2 2 2 2 2
left_child=1 -1 4 5 7 6 -4 26 -6 -10 11 -11 -9 14 19 16 -15 -17 -16 -7 -13 -20 -14 -8 -23 -21 -3 -28 -27 -30
right_child=-2 2 3 -5 8 13 23 12 9 10 -12 20 22 15 18 17 -18 -19 21 25 -22 24 -24 -25 -26 28 27 -29 29 -31
leaf_value=-0.036730706596736495 -0.036508179158816434 0.041411625752247404 0.0053443136413742114 -0.018671735596145749 0.021594202794443206 0.074315207359517271 0.030696007511884241 0.020063830118418138 0.063948258604785022 0.041952653159313014 0.078690360534847431 0.039936226595311847 0.090783362483101357 -0.0069729475711634743 -0.0014671019667453862 0.00078005730342234705 0.050990495323456168 0.11800701276445094 0.11706150089946069 0.06048478153725572 -0.014057884910350524 -0.016544030919043738 0.037703846416037648 0.092526117443894704 0.10042367035888544 -0.023870447359331855 0.049782339823607184 0.066658001249365634 0.040761057301157644 -0.012215865561752
leaf_weight=716.29308325052261 1085.9351632297039 163.25074818730354 106.39569856226444 191.63838087022305 289.31417968869209 9.0063342452049238 154.95231088995934 92.524051666259766 80.918634876608849 61.236186027526855 18.218055337667465 21.445004880428314 20.660347521305084 301.86311450600624 8.7066217362880689 8.4619550555944425 17.69888624548912 7.2118815481662741 14.98534220457077 10.232518836855887 43.230049267411232 6.020594596862793 45.402233272790909 10.922705844044684 5.221718817949295 47.940216898918152 259.78772293031216 290.54681348800659 31.349739193916321 37.500643670558929
leaf_count=5689 8609 488 414 979 1031 37 583 299 268 209 59 74 63 1338 37 39 74 31 58 42 153 26 144 39 20 203 779 846 128 159
internal_value=-5.65264e-05 0.012825 0.0278873 0.0057133 0.0434016 0.0117162 0.0232697 0.0510271 0.0304716 0.0418841 0.0294965 0.0223787 0.0343272 0.00550193 0.0183069 -0.00102837 -0.00376265 0.0547188 0.0620082 0.00708384 0.00384552 0.0830797 0.0543039 0.0347675 0.037784 0.00231692 0.0547385 0.0586918 -0.00277941 0.0119062
internal_weight=4158.87 3072.94 2356.64 970.109 1386.53 778.47 272.271 872.172 514.362 225.048 144.129 125.911 158.587 506.2 170.964 335.236 319.562 15.6738 34.9343 136.029 64.6751 26.2277 66.0626 165.875 11.2423 127.023 713.585 550.335 116.791 68.8504
internal_count=22918 14309 8620 4207 4413 3228 1036 2619 1794 763 495 436 506 2192 710 1482 1412 70 141 569 227 104 207 622 46 532 2113 1625 490 287
is_linear=0
shrinkage=0.05


Tree=27
num_leaves=31
num_cat=0
split_feature=37 37 13 15 11 0 52 19 48 120 38 0 11 12 47 104 122 11 48 141 62 31 141 119 4 31 50 3 64 136
split_gain=736.832 844.762 235.598 51.8537 41.23 27.8446 22.8467 23.1094 21.0845 19.8903 19.6756 19.6174 21.2736 26.2655 19.5732 17.887 17.5368 17.3534 18.8472 17.0336 17.0051 19.4901 17.1197 16.8554 17.4574 19.2877 16.4155 20.0346 16.5743 16.2373
threshold=0.56679546721572949 1.0000000180025095e-35 -0.011205209644680143 -1.2251459457941738 1.490880864789774 -0.0082913439794500832 -0.15569368937211062 0.63330006383068072 -0.22826577307580578 1.2894939397702816 1.2443719453851265 0.034024818332262015 -0.70682949005794238 0.2899494362714507 1.057647868061742 -1.3996685835273974 -0.57039844473589196 -0.15701861414159124 -0.20310096011589909 -1.5021518959440405 -1.469738294537474 -0.51705758917585964 -1.3711082995748525 0.5157498278590632 -1.4826796199152785 0.16440918746656655 -0.40971459237529345 0.44556654960162984 -0.4190906483192916 0.24848423217344665
decision_type=2 2 2 2 2 2 2 2 2 2 2 2 2 2 2 2 2 2 2 2 2 2 2 2 2 2 2 2 2 2
left_child=1 -1 3 11 5 17 7 8 23 14 -10 12 -3 16 15 -8 -14 -4 20 -7 21 -19 -22 24 25 -5 -25 28 -28 -21
right_child=-2 2 4 6 -6 19 9 -9 10 -11 -12 -13 13 -15 -16 -17 -18 18 -20 29 22 -23 -24 26 -26 -27 27 -29 -30 -31
leaf_value=-0.036475320451700814 -0.03625947328525761 -0.010967998789080736 0.018889238239832358 0.018280955531609414 0.064928773583799865 -0.041655684496897265 -0.013970728807005138 -0.0030538863893357659 0.0032612304493059006 -0.034853741515018528 0.065816603809922283 -0.029002860774874517 0.023235957292064853 -0.018876444040187193 -0.005186410182955307 0.085761802743249849 0.11890210394589554 0.050288759735835555 0.066123515850860515 0.03682151411456154 -0.010390736665047204 -0.029165179492148904 0.0456059302333265 -0.012152490780353756 0.013971211095484158 0.13198452039404382 0.099644344918987937 -0.0202766034633295 0.045855310112553782 0.018904325029346278
leaf_weight=688.20236115902662 1036.1659297794104 104.38891686499119 67.495919167995453 8.2012941241264325 144.53000667691231 8.647614508867262 5.1892067193984976 190.51913882791996 237.68168427050114 6.8322302550077429 13.27198566496372 101.4442335665226 9.2524879425764084 13.196353659033774 10.269511535763739 33.643152460455894 9.933307871222496 13.909170240163805 94.924681276082993 293.5673576593399 14.015662789344786 17.340982407331467 522.18583610653877 11.35886614024639 184.46985903382301 6.8405290693044654 19.779954105615616 8.5497051626443845 51.896364614367485 222.12462703883648
leaf_count=5720 8609 495 218 33 401 28 21 809 936 28 51 524 40 57 39 122 41 42 279 951 43 54 1554 45 709 26 72 32 198 741
internal_value=0.000263 0.012417 0.0262897 0.00810099 0.0396408 0.0367267 0.0142771 0.0119254 0.0171902 0.0450782 0.00656955 -0.0123423 1.49438e-05 0.0354202 0.0562003 0.0724344 0.0727664 0.0430412 0.0455022 0.027937 0.0420527 0.00619908 0.0441422 0.0263463 0.0181946 0.0699896 0.0441043 0.0520695 0.0606991 0.029104
