tree
version=v4
num_class=3
num_tree_per_iteration=3
label_index=0
max_feature_idx=144
objective=multiclass num_class:3
feature_names=Column_0 Column_1 Column_2 Column_3 Column_4 Column_5 Column_6 Column_7 Column_8 Column_9 Column_10 Column_11 Column_12 Column_13 Column_14 Column_15 Column_16 Column_17 Column_18 Column_19 Column_20 Column_21 Column_22 Column_23 Column_24 Column_25 Column_26 Column_27 Column_28 Column_29 Column_30 Column_31 Column_32 Column_33 Column_34 Column_35 Column_36 Column_37 Column_38 Column_39 Column_40 Column_41 Column_42 Column_43 Column_44 Column_45 Column_46 Column_47 Column_48 Column_49 Column_50 Column_51 Column_52 Column_53 Column_54 Column_55 Column_56 Column_57 Column_58 Column_59 Column_60 Column_61 Column_62 Column_63 Column_64 Column_65 Column_66 Column_67 Column_68 Column_69 Column_70 Column_71 Column_72 Column_73 Column_74 Column_75 Column_76 Column_77 Column_78 Column_79 Column_80 Column_81 Column_82 Column_83 Column_84 Column_85 Column_86 Column_87 Column_88 Column_89 Column_90 Column_91 Column_92 Column_93 Column_94 Column_95 Column_96 Column_97 Column_98 Column_99 Column_100 Column_101 Column_102 Column_103 Column_104 Column_105 Column_106 Column_107 Column_108 Column_109 Column_110 Column_111 Column_112 Column_113 Column_114 Column_115 Column_116 Column_117 Column_118 Column_119 Column_120 Column_121 Column_122 Column_123 Column_124 Column_125 Column_126 Column_127 Column_128 Column_129 Column_130 Column_131 Column_132 Column_133 Column_134 Column_135 Column_136 Column_137 Column_138 Column_139 Column_140 Column_141 Column_142 Column_143 Column_144
feature_infos=[-3:3] [-3:3] [-3:3] [-3:3] [-3:3] [-2.7588604995078372:3] [-3:3] [-3:3] [-3:3] [-3:3] [-3:3] [-3:3] [-3:3] [-3:3] [-3:3] [-3:3] [-2.3603883380121395:2.1350048629161829] [-3:3] [-3:3] [-3:3] [-3:3] [-3:3] [-3:3] [-3:3] [-3:3] [-3:3] [-3:3] [-3:3] [-3:3] [-3:3] [-2.8741608977454667:3] [-3:3] [-3:3] [-3:3] [-3:3] [-3:3] [-3:3] [-1.7233687939614082:0.6305625643892504] [-2.1236760581595475:2.1985289199291485] [-2.4660552652827068:2.5739822484594987] [-2.4076261449569003:3] [-3:3] [-3:3] [-3:3] [-3:3] [-3:3] [-2.9896194898700306:3] [-3:3] [-0.36742346141747728:3] [-0.46617279325453098:3] [-0.54379618030497934:3] [-0.30352287214404833:3] [-0.29129181486537509:3] [-3:3] [-3:3] [-3:3] [-3:3] [-3:3] [-3:3] [-3:3] [-3:3] [-3:3] [-3:3] [-2.0378477580224104:2.2838527916512192] [-3:2.8170543373995036] [-3:3] [-3:3] [-3:3] [-3:3] none [-3:3] [-3:3] none [-3:3] [-3:3] [-3:3] none [-3:3] [-3:3] [-3:3] none [-3:3] [-3:3] [-3:3] none none none none none none [-3:3] [-3:3] [-3:3] [-3:3] [-3:3] [-3:3] [-3:3] [-3:3] [-3:3] [-3:3] [-3:3] [-3:3] [-3:3] [-2.8228426467186436:3] [-3:3] [-3:3] [-3:3] [-3:3] [-3:3] [-3:3] [-3:3] [-3:3] [-3:3] [-3:3] [-3:3] [-3:3] [-3:3] [-3:3] [-3:3] [-3:3] [-3:3] [-2.8774131418673115:3] [-3:3] [-3:3] [-3:3] [-3:3] [-3:3] [-3:3] [-2.505281663868713:3] [-3:3] [-1.9614547132574209:3] [-2.1257045325079096:2.2191134256540193] [-2.6026507894984521:2.840909961590032] [-3:3] [-3:3] [-3:3] [-3:3] [-3:3] [-3:3] [-1.7233687939614082:0.6305625643892504] [-2.0543919576822405:2.0543919576822418] [-3:3] [-3:3] [-3:3] [-3:3]
tree_sizes=3349 3409 3349 3413 3458 3407 3414 3448 3425 3427 3464 3432 3441 3448 3424 3429 3446 3449 3426 3454 3440 3449 3467 3436 3427 3451 3457 3458 3471 3439 3444 3482 3441 3459 3468 3456 3444 3464 3452 3432 3469 3448 3479 3470 3452 3443 3465 3455 3448 3455 3453 3440 3462 3454 3454 3460 3447 3439 3460 3439 3466 3463 3479 3430 3464 3457 3444 3456 3453 3456 3460 3450 3461 3465 3458 3464 3455 3444 3461 3464 3459 3465 3471 3469 3466 3476 3472 3471 3480 3440 3469 3463 3481 3476 3452 3472 3470 3450 3467 3482 3467 3476 3468 3459 3460 3456 3454 3453 3454 3475 3485 3466 3454 3456 3466 3472 3466 3459 3473 3458 3458 3460 3473 3462 3475 3479 3470 3481 3463 3475 3467 3466 3466 3471 3453 3466 3468 3459 3458 3463 3478 3461 3460 3458 3472 3468 3458 3477 3457 3448 3473 3458 3456 3475 3474 3456 3472 3464 3474 3474 3474 3458 3481 3468 3473 3456 3456 3464 3465 3490 3446 3456 3468 3458 3449 3478 3450 3491 3471 3459 3466 3480 3453 3467 3451 3458 3472 3466 3467 3489 3456 3486 3473 3462 3472 3461 3453 3472 3457 3466 3473 3476 3450 3475 3476 3472 3480 3479 3468 3489 3468 3490 3429 3473 3482 3440 3459 3460 3445 3485 3446 3459 3459 3465 3484 3474 3463 3498 3462 3501 3506 3460 3478 3495 3480 3460 3487 3466 3467 3479 3474 3464 3470 3472 3468 3491 3463 3465 3468 3461 3464 3489 3487 3471 3467 3492 3461 3484 3495 3466 3483 3486 3469 3476 3473 3494 3492 3475 3477 3491 3485 3481 3480 3495 3479 3482 3489 3474 3483 3489 3490 3496

Tree=0
num_leaves=31
num_cat=0
split_feature=37 37 22 13 22 1 3 77 0 0 117 90 0 98 3 135 12 90 18 13 8 31 31 135 45 67 141 1 47 16
split_gain=1391.2 2503.51 1052.9 214.662 128.864 64.749 58.9996 56.6484 51.7569 40.0233 39.5182 35.0206 35.5023 35.0159 34.6024 32.0825 31.5484 30.3826 30.1507 33.4235 30.0315 28.7531 32.3972 28.6681 28.3921 27.8433 31.636 27.5872 27.087 26.1496
threshold=0.56679546721572949 1.0000000180025095e-35 0.37963595651330256 -0.80447208526995484 1.3087214991289089 -0.076767670684871378 -0.044802785797799026 0.25835868214104246 -0.0069167335375150451 -0.028064372186842747 1.3075701499752423 -0.59378828102627157 -0.023958409570839462 -0.36012702882766073 1.4451596886809184 0.25000160674632615 1.804602743415719 -0.57250150906598629 -0.17986299495907468 -0.376979122957179 -1.0200680584782391 -0.97077239736533116 0.81535818183925057 -0.74667486967300878 -1.9431845468288824 1.6142244064716533 -0.81240384046359637 0.0031175692956097027 0.73350070279247725 1.3435089421787783
decision_type=2 2 2 2 2 2 2 2 2 2 2 2 2 2 2 2 2 2 2 2 2 2 2 2 2 2 2 2 2 2
left_child=1 -1 3 27 9 7 10 13 -6 21 -7 18 16 -5 15 28 -13 -16 19 -8 -12 -4 29 -15 -11 -14 -27 -3 -10 -23
right_child=-2 2 4 5 8 6 11 -9 14 24 20 12 25 23 17 -17 -18 -19 -20 -21 -22 22 -24 -25 -26 26 -28 -29 -30 -31
leaf_value=-1.9196747760189903 -1.9197074091767496 -1.8613521193369549 -1.7087022635768101 -1.8778338503118388 -1.7094699245123297 -1.8598379781438841 -1.9010122391690716 -1.7365549924313972 -1.7214967482511982 -1.7074930029631701 -1.9000445006735576 -1.7307547798582836 -1.8235361124433325 -1.8655879168727514 -1.8261004819935907 -1.8752462017260076 -1.8646183593199148 -1.670436644188702 -1.8874318559108301 -1.7794412883662654 -1.7909319853043379 -1.7961543062041958 -1.725679593856809 -1.7457990812197972 -1.7942637376222672 -1.8683026780206937 -1.6988240177848668 -1.8925524519741821 -1.8432094803829566 -1.6869391187500964
leaf_weight=959.85955774784088 1422.6316773891449 109.34372663497925 26.754316091537476 17.83621072769165 136.87353014945984 239.81948554515839 7.9487460851669338 32.182728052139282 12.601670622825628 9.8874646425247175 7.5610023736953726 23.264622688293461 136.48578643798828 7.3671305179595974 4.2651808261871365 10.081336498260496 5.4284119606018058 11.826183199882506 29.2746502161026 19.58105742931366 37.998883724212646 62.232865691184998 32.182728052139282 15.509748458862303 202.59608924388885 3.8774371147155753 9.4997209310531598 201.2389862537384 7.173258662223815 6.0100275278091422
leaf_count=4951 7338 564 138 92 706 1237 41 166 65 51 39 120 704 38 22 52 28 61 151 101 196 321 166 80 1045 20 49 1038 37 31
internal_value=-1.88057 -1.85724 -1.81524 -1.84789 -1.75873 -1.83027 -1.83644 -1.78613 -1.72488 -1.77695 -1.85173 -1.81791 -1.80703 -1.82532 -1.7708 -1.80265 -1.75608 -1.7117 -1.85211 -1.81454 -1.80904 -1.75476 -1.76703 -1.78438 -1.79023 -1.81679 -1.74795 -1.88157 -1.76565 -1.78654
internal_weight=3809.19 2386.56 1426.7 904.218 522.485 593.636 520.74 72.8958 182.821 339.663 285.379 235.36 178.556 40.7131 45.9476 29.8563 28.693 16.0914 56.8045 27.5298 45.5599 127.18 100.426 22.8769 212.484 149.863 13.3772 310.583 19.7749 68.2429
internal_count=19648 12310 7359 4664 2695 3062 2686 376 943 1752 1472 1214 921 210 237 154 148 83 293 142 235 656 518 118 1096 773 69 1602 102 352
is_linear=0
shrinkage=1


Tree=1
num_leaves=31
num_cat=0
split_feature=37 37 19 6 116 10 123 115 32 48 120 37 67 0 104 36 36 11 51 17 32 91 0 144 44 53 67 122 67 4
split_gain=3404.72 6101.45 21.2915 23.7674 20.3987 19.2946 21.4446 19.6087 16.9663 19.963 16.9525 15.0749 14.6116 20.4074 13.8428 12.5782 11.7129 14.6471 11.9989 16.6313 14.6224 13.8917 13.7028 16.9367 17.7526 13.5423 15.1941 16.1068 13.4537 13.171
threshold=0.56679546721572949 1.0000000180025095e-35 -0.43616659058922264 -1.2626783327363016 -1.730707109084296 0.76571023577851138 1.4229986954664791 0.39677883879921932 0.95780429671054723 -0.22826577307580523 2.4681409686686471 -1.0000000180025095e-35 -2.120576144470371 -0.019565021351965018 -1.386645924797669 -0.25563702920027787 1.0941528411200128 1.5417490542904018 -0.19581615355449503 1.1231099659885788 1.744662828274592 0.81716621692979363 0.030286547461593778 -0.69975563815786035 -1.3392391053977433 0.95098189134644584 -0.027980415014600506 -0.58604066433231539 -1.0000000180025095e-35 -1.0202789973016675
decision_type=2 2 2 2 2 2 2 2 2 2 2 2 2 2 2 2 2 2 2 2 2 2 2 2 2 2 2 2 2 2
left_child=1 11 10 4 -4 6 8 -8 -6 -10 -3 -1 13 -5 -7 -16 17 18 -14 22 21 28 23 24 -20 26 27 -26 -21 -28
right_child=-2 2 3 12 5 14 7 -9 9 -11 -12 -13 16 -15 15 -17 -18 -19 19 20 -22 -23 -24 -25 25 -27 29 -29 -30 -31
leaf_value=-0.31606470062608555 -0.31627894515868404 -0.45112188965939276 -0.35417685529779308 -0.33571628037868473 -0.46193209672785274 -0.33103733281854208 -0.45755607484479971 -0.34750722823024427 -0.44593601029543672 -0.34750722823024427 -0.3979462829285822 -0.37445796617666599 -0.44432291021587861 -0.44909077895137239 -0.37955441982679061 -0.44183481104272038 -0.45059976342795049 -0.46509864649550831 -0.33657069688966729 -0.4531687454116613 -0.34340602897752787 -0.3684689132996834 -0.45064518510146923 -0.43836950816252135 -0.44871286395613008 -0.36519365000758353 -0.39125335359255203 -0.3684689132996834 -0.40122154622068201 -0.46738186472109933
leaf_weight=1563.4874891042709 2333.7817727923393 823.72510105371475 10.495339125394819 7.6329739093780509 61.699872434139252 6.6788521707057944 6.3608115911483791 11.131420284509657 14.629866659641268 7.9510144889354697 15.265947818756102 11.131420284509657 454.16194760799408 8.2690550684928876 16.538110136985779 15.902028977870939 359.38585489988327 55.021020263433456 7.314933329820632 27.351489841938015 7.314933329820632 11.449460864067076 123.71778544783592 196.23103758692741 10.177298545837404 10.177298545837401 7.3149333298206285 16.22006955742836 22.898921728134159 25.443246364593509
leaf_count=4916 7338 2590 33 24 194 21 20 35 46 25 48 35 1428 26 52 50 1130 173 23 86 23 36 389 617 32 32 23 51 72 80
internal_value=-0.364081 -0.392577 -0.443775 -0.44021 -0.421424 -0.426433 -0.437904 -0.387525 -0.448361 -0.411278 -0.450154 -0.316477 -0.442316 -0.394671 -0.396588 -0.410084 -0.442884 -0.44004 -0.438541 -0.4329 -0.410247 -0.418172 -0.436842 -0.430584 -0.410653 -0.418469 -0.427635 -0.399406 -0.429497 -0.450382
internal_weight=6248.86 3915.08 2340.46 1501.47 151.387 140.892 101.773 17.4922 84.2808 22.5809 838.991 1574.62 1350.08 15.902 39.119 32.4401 1334.18 974.794 919.773 465.611 69.0148 61.6999 396.597 272.879 76.6478 69.3328 59.1555 26.3974 50.2504 32.7582
internal_count=19648 12310 7359 4721 476 443 320 55 265 71 2638 4951 4245 50 123 102 4195 3065 2892 1464 217 194 1247 858 241 218 186 83 158 103
is_linear=0
shrinkage=1


Tree=2
num_leaves=31
num_cat=0
split_feature=37 37 13 22 8 0 22 0 3 64 57 46 41 58 68 116 134 0 7 129 10 10 120 38 0 61 4 104 13 98
split_gain=1400.57 2507.31 1147.67 243.142 124.299 107.484 57.0787 50.0998 45.8786 43.1017 37.4029 34.9749 33.5862 31.6965 30.9442 36.0031 30.9027 30.9816 29.3246 28.3661 28.1258 27.6969 27.5909 27.5837 34.3407 43.077 28.7895 40.1004 28.7655 28.3274
threshold=0.56679546721572949 -1.0000000180025095e-35 -0.011556059611677898 -1.0160870798656199 0.023578735273232936 0.0097351686624619384 1.2265181709905841 -0.026170221092621879 0.7267017653720933 1.5547718890597839 0.047918471813609781 0.15956334215998672 -0.73359682069854648 2.0085274057431017 0.68647012731420665 0.43160099364105664 1.2688758945413834 -0.086689556949332308 1.6130789520524456 1.2060930751275432 1.3354370346476394 0.2248855692723872 -1.0460198007434347 1.1340325073610751 -0.0069167335375150451 -1.3141025096707253 -0.46241573501088995 0.51233571461002625 -0.81880305552563437 1.4837888323250965
decision_type=2 2 2 2 2 2 2 2 2 2 2 2 2 2 2 2 2 2 2 2 2 2 2 2 2 2 2 2 2 2
left_child=1 -1 3 7 8 9 13 11 10 12 -4 -3 14 -6 -5 -16 17 -14 23 21 -15 22 -7 24 28 -26 27 -27 -19 -30
right_child=-2 2 4 5 6 19 -8 -9 -10 -11 -12 -13 16 20 15 -17 -18 18 -20 -21 -22 -23 -24 -25 25 26 -28 -29 29 -31
leaf_value=-1.9190920747706763 -1.9189164588731398 -1.7517911278353435 -1.8337612594327684 -1.8703316088633004 -1.8632164723848565 -1.7902251291583255 -1.8936666130195376 -1.7266743066645633 -1.8567011616211808 -1.7358836460687799 -1.7772967300839473 -1.8546586019645008 -1.9112819568547763 -1.7570879145722924 -1.8400536814617678 -1.6946141695104522 -1.9190920747706763 -1.7391646412741864 -1.8830093299992181 -1.8224418655614132 -1.8783972498404602 -1.8071257121894535 -1.7362919259946379 -1.7248578379056836 -1.9190920747706763 -1.7144210435040015 -1.7077967225053803 -1.8887704405089467 -1.8371821257787164 -1.72579165635215
leaf_weight=953.6968492269516 1423.5613262057304 22.115834176540375 57.423569440841675 50.245623260736465 325.72355774044991 30.651770174503326 186.82059922814369 254.91408866643906 67.317495256662369 16.101879268884659 59.945550531148911 13.191901087760924 6.4019519984722129 13.579898178577425 14.549890905618669 6.0139549076557151 6.0139549076557151 10.28192290663719 9.6999272704124433 18.623860359191895 7.3719447255134574 23.667822539806366 104.75921452045441 13.385899633169172 3.8799709081649771 6.5959505438804609 21.533838540315628 6.5959505438804626 70.809469074010849 6.207953453063964
leaf_count=4916 7338 114 296 259 1679 158 963 1314 347 83 309 68 33 70 75 31 31 53 50 96 38 122 540 69 20 34 111 34 365 32
internal_value=-1.87966 -1.85626 -1.81449 -1.7697 -1.85915 -1.79375 -1.87139 -1.73441 -1.8238 -1.81499 -1.80492 -1.79023 -1.82048 -1.85938 -1.84919 -1.79752 -1.80788 -1.80358 -1.79895 -1.76406 -1.79977 -1.75722 -1.7485 -1.7931 -1.80035 -1.76108 -1.74343 -1.8016 -1.81772 -1.8282
internal_weight=3811.68 2388.12 1434.43 716.243 718.183 426.021 533.496 290.222 184.687 248.318 117.369 35.3077 232.216 346.675 70.8095 20.5638 161.407 155.393 148.991 177.703 20.9518 159.079 135.411 139.291 125.905 38.6057 34.7257 13.1919 87.2993 77.0174
internal_count=19648 12310 7394 3692 3702 2196 2750 1496 952 1280 605 182 1197 1787 365 106 832 801 768 916 108 820 698 718 649 199 179 68 450 397
is_linear=0
shrinkage=1


Tree=3
num_leaves=31
num_cat=0
split_feature=139 139 13 22 13 14 78 19 14 5 16 140 94 122 90 115 3 10 117 51 117 14 116 44 3 91 45 117 62 65
split_gain=1251.33 2079.65 805.683 136.774 117.615 83.737 48.6038 41.4108 31.7487 30.1214 38.8314 29.1345 28.3136 29.3578 28.3913 28.053 29.8146 34.5131 27.3437 26.276 30.5028 24.8619 24.562 25.6143 23.9657 32.7598 30.2405 30.0872 42.5519 28.3657
threshold=0.56679546721572949 1.0000000180025095e-35 0.045549568696882349 1.3087214991289089 -0.90225000984537151 0.92943294208561167 1.5694602233836352 0.56359820439587782 1.6639140849645906 0.05368251109811472 1.3435089421787783 -0.87840397922559132 0.18637588782508632 0.41773786113758365 -0.72487492101227391 1.2751001787970127 -0.11845891353303685 0.49934733785365909 0.91831539887638758 -0.22931994531723224 -0.58688014248782616 2.4823717470116242 -0.48376099399205258 -0.94511799269827135 0.093772153892571361 -0.56604906733809968 -1.5387081645396943 -1.0647023869819108 0.49835414973482212 1.0902940470304847
decision_type=2 2 2 2 2 2 2 2 2 2 2 2 2 2 2 2 2 2 2 2 2 2 2 2 2 2 2 2 2 2
left_child=1 -1 4 8 -3 7 11 15 24 10 -5 -7 14 -14 -13 16 17 -6 22 21 -21 -10 -16 -24 -4 -26 -27 28 -28 -30
right_child=-2 2 3 9 5 6 -8 -9 19 -11 -12 12 13 -15 18 -17 -18 -19 -20 20 -22 -23 23 -25 25 26 27 -29 29 -31
leaf_value=-0.038697575897638031 -0.038731180178413038 -0.0053788514976224966 0.05765382410829642 0.12373648634236918 -0.0040462599776426907 0.038025055274834019 -0.018687622750559414 -0.011645468382680381 0.09360141848820544 0.14255598858654581 0.045869722472939016 0.028173509706088819 0.021162460257381423 0.10001979568480275 0.12555647427842023 0.15536671209555214 0.051165640359884079 0.061965494238885713 0.15993716237629649 0.079251201430616869 0.13817001057743436 -0.011317042507874979 0.1620416538187418 0.037038213215912136 0.10578978687638088 0.12328528943715106 0.15551997838543283 0.051930465078605353 -0.026512157123054492 0.13553082975275174
leaf_weight=912.6115511059761 1352.4913034141064 276.46322833001614 151.81085738539696 63.501247987151146 88.27619594335556 67.291514128446579 18.943970814347267 87.080601751804352 16.418159231543545 127.25715574622154 21.409021332859993 13.214477077126501 33.568011030554771 18.202838063240051 25.639368578791618 4.3515760153532019 76.243219166994095 25.526451423764229 18.721830680966377 35.930219352245331 56.525924772024155 8.6061105430126172 4.9409387558698681 24.02282589673996 97.189286336302757 23.195508703589439 18.121829435229305 131.25036478042603 7.358575373888014 4.2665401995182037
leaf_count=4951 7338 1390 718 283 436 324 93 428 76 562 98 64 163 87 121 21 367 124 87 166 259 40 23 116 453 106 84 615 35 20
internal_value=-0.000104451 0.0211501 0.0564938 0.0930586 0.020847 0.0351754 0.057948 0.0170088 0.0799171 0.127167 0.104103 0.0650091 0.0781376 0.048889 0.0956351 0.0298445 0.0269704 0.0107605 0.107793 0.102971 0.115273 0.0575189 0.0899141 0.0583626 0.0736649 0.0823032 0.0699105 0.0622206 0.107623 0.0329593
internal_weight=3810.43 2457.94 1545.33 762.841 782.487 506.024 224.546 281.478 550.673 212.167 84.9103 205.602 138.31 51.7708 86.5394 194.397 190.046 113.803 73.325 117.48 92.4561 25.0243 54.6031 28.9638 433.193 281.382 184.193 160.997 29.7469 11.6251
internal_count=19648 12310 7359 3515 3844 2454 1078 1376 2572 943 381 985 661 250 411 948 927 560 347 541 425 116 260 139 2031 1313 860 754 139 55
is_linear=0
shrinkage=0.05


Tree=4
num_leaves=31
num_cat=0
split_feature=37 37 19 6 91 123 95 36 98 13 37 67 1 54 64 92 30 141 63 52 116 59 23 22 30 81 52 141 70 36
split_gain=3044.7 5169.21 17.8898 19.4086 18.5813 22.1067 19.5424 18.1693 19.5907 17.4304 14.2504 12.1585 17.8612 10.7402 9.56565 9.44315 16.5219 13.0984 13.1268 12.0341 12.741 12.2988 9.75977 12.8964 12.8916 19.3676 16.2596 15.0946 14.6994 9.43605
threshold=0.56679546721572949 1.0000000180025095e-35 -0.43616659058922264 -1.2626783327363016 0.15257190956813532 1.4229986954664791 0.1418670634070284 -1.1333196298072912 0.75563121608910333 0.25390490687902195 -1.0000000180025095e-35 -2.120576144470371 -0.034558111929234796 0.44357313101705148 1.206048192382694 -0.43515087082999027 1.586966061554828 0.90916591046519746 1.059490314807515 -0.21458458726205379 1.1455619950946392 -0.025445936637565874 1.0000000180025095e-35 0.89454994184015912 0.067191930919511964 0.26817274244317985 -0.21108160234967935 1.1814146163410009 -1.0632582201468466 1.0941528411200128
decision_type=2 2 2 2 2 2 2 2 2 2 2 2 2 2 2 2 2 2 2 2 2 2 2 2 2 2 2 2 2 2
left_child=1 10 14 4 7 6 9 8 -4 13 -1 12 -5 -6 15 16 17 -3 19 -19 21 -21 -17 24 25 26 -24 28 -28 -13
right_child=-2 2 3 11 5 -7 -8 -9 -10 -11 -12 29 -14 -15 -16 22 -18 18 -20 20 -22 -23 23 -25 -26 -27 27 -29 -30 -31
leaf_value=0.046748508713610193 0.046530364172450767 -0.076445998117355168 0.017179336708942779 0.028779357677650393 -0.030031984371840088 0.021475992872634752 -0.073983723619272343 -0.081941034555558456 -0.086843331702611243 -0.081574111893257251 -0.009871781945439001 -0.067558935780366938 -0.075740183485235646 0.036451907161214936 -0.088262909075990589 -0.085667858052656504 -0.0059910306375997053 0.00073421600848845798 -0.0039262082835960273 -0.094028818031918454 -0.022124546836163952 -0.029682573572920708 0.022697122394764496 -0.085690713821048481 -0.081269068773460629 -0.081941533232723907 0.0069073275147261241 0.021731813425085466 -0.073788778960074367 -0.07678277029551904
leaf_weight=1508.8381661176682 2252.4822233319283 188.78712180256844 11.045345187187197 7.6908928453922298 12.549647092819216 14.610710591077803 32.556777834892273 59.431714832782745 7.6687200367450705 8.3509829044342023 11.195204704999922 1025.9017855226994 8.724012225866316 11.773586571216581 146.31260389089584 238.73099139332771 10.689500629901884 7.0503828525543204 12.025934338569639 35.642019957303994 11.73420339822769 9.3804088532924705 10.99158003926277 91.087476521730423 50.563450753688812 29.492231994867325 6.9817433953285173 7.02467456459999 29.437868118286136 379.9676074385643
leaf_count=4916 7338 562 34 24 38 45 97 178 23 25 35 3065 26 36 435 710 32 21 36 106 35 28 33 271 151 88 21 21 88 1130
internal_value=6.33025e-05 -0.0261936 -0.0708941 -0.0677056 -0.0510797 -0.0341155 -0.0465671 -0.0684122 -0.0254475 -0.019249 0.0463315 -0.0695524 -0.0267695 0.00214934 -0.0765816 -0.0742708 -0.0669338 -0.0693957 -0.0518438 -0.060875 -0.0685281 -0.0806223 -0.0786212 -0.0711638 -0.0613251 -0.0493096 -0.0316303 -0.0453754 -0.0583191 -0.0700519
internal_weight=6238.72 3986.24 2466.2 1580.27 157.987 79.8417 65.231 78.1458 18.7141 32.6742 1520.03 1422.28 16.4149 24.3232 885.932 739.62 275.31 264.62 75.8329 63.807 56.7566 45.0224 464.31 225.579 134.492 83.9281 54.4359 43.4443 36.4196 1405.87
internal_count=19648 12310 7359 4721 476 241 196 235 57 99 4951 4245 50 74 2638 2203 820 788 226 190 169 134 1383 673 402 251 163 130 109 4195
is_linear=0
shrinkage=0.05


Tree=5
num_leaves=31
num_cat=0
split_feature=37 37 13 22 8 8 22 0 3 115 117 117 23 14 4 50 101 58 35 57 52 30 46 36 30 3 20 5 36 4
split_gain=1259.25 2082.84 874.774 179.362 96.0732 71.0284 47.3971 40.5813 38.7563 36.805 31.2432 29.3456 28.5597 27.9799 31.7702 28.9666 27.9309 27.3931 27.303 27.0812 25.8933 25.4438 40.6345 24.3337 35.6742 30.3633 27.7461 24.2385 24.1062 23.2309
threshold=0.56679546721572949 -1.0000000180025095e-35 0.022651733231289151 -0.91491508077786698 0.023578735273232936 -0.012033714678934803 1.2265181709905841 -0.023423377172582142 0.7267017653720933 1.1597056017716012 0.23116726695181361 1.5483303184932293 -0.62377868722671903 0.73001985420184135 -0.32284179537459634 -0.2831911069671284 -0.095346180226321436 1.9441283789088457 1.2263918157275076 0.047918471813609781 -0.17541262298370239 0.31344084516162535 -0.63409783737053094 -1.3143074504929211 -1.2051712912682764 0.032983914181060107 1.4098926376144891 -0.894948248809597 -0.059809095796347682 -1.0501846754894311
decision_type=2 2 2 2 2 2 2 2 2 2 2 2 2 2 2 2 2 2 2 2 2 2 2 2 2 2 2 2 2 2
left_child=1 -1 3 7 8 12 17 10 19 21 16 -10 13 20 -15 -16 28 -6 -12 27 -5 -7 -23 24 -9 -25 -26 -4 -3 -14
right_child=-2 2 4 5 6 9 -8 23 11 -11 18 -13 29 14 15 -17 -18 -19 -20 -21 -22 22 -24 25 26 -27 -28 -29 -30 -31
leaf_value=-0.038919175428158675 -0.038736460611408015 0.14584282814993096 0.011067572571178744 0.071173037788348589 0.012690957163760942 0.033991617651378682 -0.01439484816420695 -0.040666395979772715 0.0069987940217475222 0.17718012620953549 0.076006381082052835 0.11394828096242891 0.030905428033717115 -0.011993159846460291 0.17079580309480713 0.025995685602897469 -0.02254964142895638 0.066133550417770318 0.18334581263815669 0.087457979570460337 0.15166063447699152 0.14985575565480613 0.040374859199402487 0.13338383814757335 0.13399438650540571 0.07928311002057653 -0.0064032671060032798 0.081302373696496358 0.010077535727002877 0.10547760457627105
leaf_weight=906.44882833957672 1353.3821348547935 7.2424390316009521 31.351147890090942 60.478696078062057 326.34543907642365 146.60857482254505 189.48028391599655 5.0906783640384701 62.012683600187302 5.28040488064289 16.776334017515186 7.1538659930229178 11.220878854393957 19.551435723900795 5.9144637733697882 8.3016557842493039 11.295333638787268 25.879056572914124 9.1582766622304899 62.979551061987877 11.970091342926024 13.413259863853453 23.022408008575439 265.23670282959938 17.733856230974201 28.745543852448463 4.3901930153369895 20.198100253939629 5.9603701531887072 150.7766719609499
leaf_count=4916 7338 33 151 279 1615 705 963 23 305 24 79 35 52 93 27 39 53 123 42 292 55 63 111 1183 79 129 20 97 28 696
internal_value=8.06721e-07 0.0213122 0.0564549 0.0915691 0.0163661 0.0705752 0.00576988 0.11736 0.0476135 0.0470391 0.0756623 0.0180605 0.0871009 0.0669514 0.0293622 0.0862382 0.0351707 0.0166176 0.113911 0.0654613 0.0844713 0.0432849 0.0806787 0.123907 0.0786745 0.128094 0.106135 0.0385871 0.084552 0.100312
internal_weight=3813.4 2460.02 1553.57 828.168 725.4 456.539 541.705 371.63 183.695 188.325 50.4328 69.1665 268.214 106.216 33.7676 14.2161 24.4981 352.224 25.9346 114.529 72.4488 183.044 36.4357 321.197 27.2147 293.982 22.124 51.5492 13.2028 161.998
internal_count=19648 12310 7394 3813 3581 2144 2701 1669 880 903 235 340 1241 493 159 66 114 1738 121 540 334 879 174 1434 122 1312 99 248 61 748
is_linear=0
shrinkage=0.05


Tree=6
num_leaves=31
num_cat=0
split_feature=37 37 22 22 22 14 14 77 59 91 24 130 81 1 3 19 35 19 36 47 25 35 3 38 20 59 104 92 11 119
split_gain=1132.26 1759.76 623.648 145.305 60.555 50.1685 40.5592 32.4408 32.2263 40.816 31.3967 30.8606 27.8715 26.4308 26.955 25.999 25.8275 25.3803 27.6317 27.2738 24.8364 24.4692 29.1122 27.1673 25.9934 27.2995 25.273 24.1658 21.7226 21.6273
threshold=0.56679546721572949 1.0000000180025095e-35 0.37963595651330256 -0.86578304114267912 1.7161060557188224 -1.7720090939918351 0.92943294208561167 -1.5358890959787623 -0.022754681883111954 0.66517114289975288 1.1922298230195107 2.6617091197602516 1.5275060153283704 0.015869916810549101 -0.40109494885216851 0.56359820439587782 -2.2852537956268972 -0.54264415397711974 -0.20696812514954041 -0.6575016651374227 0.059935228189038812 0.90997868191969522 0.37369591786429673 0.918331820930401 0.77950959627771799 -0.063300026844941612 -0.56654575445528532 -0.25368462053879265 -0.59778830920010761 0.81308512651767206
decision_type=2 2 2 2 2 2 2 2 2 2 2 2 2 2 2 2 2 2 2 2 2 2 2 2 2 2 2 2 2 2
left_child=1 -1 3 13 5 10 15 -8 11 -10 -4 17 -7 14 -3 16 -5 18 -9 -19 -11 24 23 28 -18 -26 -25 29 -23 -20
right_child=-2 2 4 6 -6 12 7 8 9 20 -12 -13 -14 -15 -16 -17 21 19 27 -21 -22 22 -24 26 25 -27 -28 -29 -30 -31
leaf_value=-0.038301655809203194 -0.038336342360425005 0.0031139375524645626 0.021634377473770533 0.11809288731495589 0.11995924705620933 0.082453755633850781 -0.0041953800498683545 0.037004488128987843 0.13370666408021578 -0.019109592455487701 0.09451844190301889 0.17548627262561073 0.12233724455688333 -0.011949862968060825 0.052969261775116953 0.0080384093610144248 0.018090599875368586 -0.004898515819376198 0.0059181605115177002 0.047981727600343888 0.11968319746466359 0.11460232637417751 0.11003830468430259 -0.003098464695879646 0.17035854415776897 0.03346683569231599 0.12598218704094641 0.12250754531692981 -0.0031304200260280773 0.13656549087645925
leaf_weight=866.81125989556313 1284.4987877905369 105.76000303030014 52.550553053617477 9.4511761069297773 119.70385889708996 407.63243491947651 22.201532602310181 35.88202403485775 28.004536971449852 9.1956532448530179 20.555927067995071 4.8454666733741751 49.077902361750603 212.68197187781334 36.457624062895775 110.89360025525093 162.9969821870327 33.593616560101509 10.657184094190596 88.940666973590851 4.9628305882215491 4.5176051557064048 19.838224694132805 5.3689788877964046 5.9143832474946967 9.4791327118873578 12.910802960395811 29.296343341469765 29.51542092859745 4.5074402540922156
leaf_count=4951 7338 513 228 43 472 1704 105 158 121 41 86 21 205 1055 171 524 749 153 47 398 21 21 86 25 26 44 59 126 137 20
internal_value=-0.000145475 0.0193661 0.0497092 0.0248893 0.0878406 0.0805839 0.0390645 0.0537262 0.0588724 0.0987272 0.0421278 0.0507827 0.0867396 -0.000791934 0.0158944 0.0283085 0.0369542 0.0478044 0.0696445 0.0334842 0.02954 0.0338934 0.0584634 0.038905 0.023956 0.0860624 0.0880697 0.0959865 0.0124976 0.044751
internal_weight=3798.7 2514.21 1647.39 997.873 649.521 529.817 642.974 272.087 249.886 42.163 73.1065 207.723 456.71 354.9 142.218 370.886 259.993 202.877 80.343 122.534 14.1585 250.542 72.151 52.3128 178.39 15.3935 18.2798 44.461 34.033 15.1646
internal_count=19648 12310 7359 4664 2695 2223 2925 1211 1106 183 314 923 1909 1739 684 1714 1190 902 351 551 62 1147 328 242 819 70 84 193 158 67
is_linear=0
shrinkage=0.05


Tree=7
num_leaves=31
num_cat=0
split_feature=139 139 19 6 91 123 95 10 35 13 48 120 67 0 54 103 7 11 68 36 11 119 50 97 5 70 118 28 17 54
split_gain=2740.54 4447.93 16.6801 15.5226 16.115 19.6021 17.3705 16.8026 19.1337 15.5323 15.3936 13.6619 10.7766 15.919 9.80959 9.12086 8.69333 8.45391 14.882 21.4368 9.67665 9.44302 9.4255 15.5061 15.2908 21.5952 17.8512 14.3891 14.1329 21.8106
threshold=0.56679546721572949 -1.0000000180025095e-35 -0.43616659058922264 -1.2626783327363016 0.12137962452370131 1.4229986954664791 0.1418670634070284 0.12059953734793875 -1.0526742550414869 0.25390490687902195 -0.10000000000000113 2.4681409686686471 -2.120576144470371 -0.019565021351965018 0.44357313101705148 0.34807838188641232 -0.050604948729341181 -0.99060262252082565 1.1556378146906301 -0.77094082553989884 1.5417490542904018 1.8853398956296237 -0.36696453105626914 -1.0526972798280381 1.0934820565284216 -0.22026326266805898 0.84862772357116645 0.25159919849954671 1.1568069012557978 0.8612081771181811
decision_type=2 2 2 2 2 2 2 2 2 2 2 2 2 2 2 2 2 2 2 2 2 2 2 2 2 2 2 2 2 2
left_child=1 -1 11 4 7 6 9 -4 -9 14 12 -3 13 -5 -6 -10 -13 18 -14 -20 21 22 23 -19 -24 -26 27 -27 -25 -30
right_child=-2 2 3 10 5 -7 -8 8 15 -11 -12 16 17 -15 -16 -17 -18 20 19 -21 -22 -23 24 28 25 26 -28 -29 29 -31
leaf_value=0.045648476297285412 0.045425073040170239 -0.0700035085725325 -0.089810204658557949 0.029419163240646057 -0.026564467517382579 0.020174590447820329 -0.067383307815907539 0.0066350827104963584 -0.036684087263193464 -0.074153698574973781 -0.0095518887135194672 0.0081282854180165631 -0.077408655112664149 -0.0680468430330953 0.036553273066217848 -0.088671543446814077 -0.065017586975708072 -0.019798515643361596 0.031704977249822783 -0.060396779644630055 -0.079003294159113641 -0.080450915353859759 -0.063296217638712807 -0.062283232479173348 -0.083065423882799153 -0.067031498479324464 0.051553818789302125 0.023312710980665154 -0.052692725737816137 0.036010536342235923
leaf_weight=1452.6758527755737 2168.953353703022 904.93728429079056 32.547279208898544 7.7696156203746822 12.882361322641374 15.421551883220671 34.131344974040985 13.714163839817045 16.420180886983871 8.6846719384193403 13.658399522304533 9.2274528741836566 211.77439525723457 9.0914712250232679 11.789450496435164 17.352826476097107 7.2564612030982962 35.349779218435287 7.2750308215618125 48.014668405056 74.326821684837341 55.633851021528244 796.20963600277901 153.95867714285851 13.975401937961577 12.141315251588827 8.8926327228546125 6.9188511967658988 23.284683763980865 9.8663018047809583
leaf_count=4916 7338 2590 93 24 38 47 98 41 48 25 42 27 606 26 36 50 21 102 21 137 211 160 2292 442 40 35 26 20 67 29
internal_value=0.000118033 -0.0242955 -0.0637923 -0.0607846 -0.0461335 -0.0306845 -0.0423062 -0.0621375 -0.043171 -0.0166466 -0.0623888 -0.0691818 -0.0628783 -0.0231344 0.00359641 -0.0633956 -0.0240716 -0.063338 -0.0713778 -0.048278 -0.0615346 -0.0603714 -0.0593181 -0.050169 -0.0617464 -0.0323166 -0.006944 -0.0342365 -0.0559067 -0.0262931
internal_weight=6194.14 4025.18 2572.51 1651.09 162.944 82.9094 67.4878 80.0345 47.4872 33.3565 1488.14 921.421 1474.48 16.8611 24.6718 33.773 16.4839 1457.62 267.064 55.2897 1190.56 1116.23 1060.6 222.459 838.138 41.9282 27.9528 19.0602 187.11 33.151
internal_count=19648 12310 7394 4756 476 244 197 232 139 99 4280 2638 4238 50 74 98 48 4188 764 158 3424 3213 3053 640 2413 121 81 55 538 96
is_linear=0
shrinkage=0.05


Tree=8
num_leaves=31
num_cat=0
split_feature=37 37 13 8 8 11 22 3 46 59 70 3 105 136 67 90 127 116 12 5 52 62 59 58 92 121 68 138 78 112
split_gain=1139.06 1762.72 691.983 132.04 82.2379 52.8953 42.6375 41.9809 44.8309 40.7689 38.9595 32.1371 29.8825 28.3971 28.3861 30.0947 27.3427 24.5177 24.2873 25.7368 30.9425 24.181 23.9369 25.5726 23.9269 23.7683 23.4645 23.1686 28.5601 22.6633
threshold=0.56679546721572949 -1.0000000180025095e-35 0.022651733231289151 -0.28265489656567028 0.023578735273232936 -0.70859304156763481 1.4738964509139356 -0.62231837393471612 0.99178893247708511 -0.024571450665891757 1.2916141586556578 0.7267017653720933 -2.9980949009211812 -0.75642783436873284 -1.4559091250118974 0.55447934113500574 0.81240408697396005 -0.54599179496324035 -2.2806108729617285 -0.9431204282704615 -0.17376875771532505 2.3311234419272755 -0.045988590675972461 0.030880769570145603 -0.52160089364783679 -0.46709153632156036 -0.6132748469122723 0.047606689717860938 0.033254747011019666 0.90528844383772611
decision_type=2 2 2 2 2 2 2 2 2 2 2 2 2 2 2 2 2 2 2 2 2 2 2 2 2 2 2 2 2 2
left_child=1 -1 3 5 11 29 12 8 9 10 27 18 -6 22 -7 21 -15 -14 -4 -20 -21 26 -9 -24 -11 -10 -16 -5 -29 -3
right_child=-2 2 4 7 6 14 -8 13 25 24 -12 -13 17 16 15 -17 -18 -19 19 20 -22 -23 23 -25 -26 -27 -28 28 -30 -31
leaf_value=-0.038531875633631835 -0.038341194176187393 0.11568957290103161 0.12770690588765329 0.13233029728292792 0.14175984201494382 0.13404734405576235 -0.020333878418935199 0.038865520214346125 0.079066914727156851 -0.016740164636200389 0.012775357657847736 0.01558321090017805 0.02743788110454537 0.017908813849129825 0.06222453570127319 0.04768703079217481 0.087750571904516406 0.0019817913566230676 0.028595514547192238 0.10072443945468723 0.013134623868728313 -0.010577895383947213 0.14270734779313851 0.041849809080433481 0.085003483220210438 -0.019777358259987575 0.099659006274399442 0.00029037478508655293 0.12347428547639692 0.077765447690114203
leaf_weight=860.64340060949326 1285.3508018553257 230.74917629361153 11.255045682191847 58.292891770601273 4.3998802453279486 21.633475556969643 132.88674040138721 31.989417180418968 9.5724623650312441 12.553017392754557 10.21221476793289 71.772817090153694 144.4799586981535 118.45429335534573 61.098584726452827 75.59324386715889 15.893979594111441 273.91407917439938 60.495949789881706 36.99599152803421 13.86055566370487 6.4442114084959021 16.045987829566005 10.33154985308647 10.707238435745237 16.678402587771416 132.94923430681229 8.4563478827476519 10.607857137918471 47.504361376166344
leaf_count=4916 7338 924 49 242 21 91 671 143 42 57 45 340 692 534 255 318 69 1317 270 160 61 27 70 48 47 75 553 37 45 191
internal_value=-4.69529e-05 0.0195128 0.0496824 0.0790961 0.0141627 0.0935417 0.00437065 0.0538675 0.0750191 0.0889352 0.104564 0.0421553 0.0121354 0.0388222 0.0788932 0.0745714 0.0261714 0.0107723 0.0577103 0.0506353 0.0768525 0.0847079 0.0679415 0.103203 0.0300948 0.0162665 0.0878723 0.116682 0.0688333 0.109215
internal_weight=3801.82 2516.47 1655.83 905.768 750.061 575.972 555.681 329.796 137.08 110.83 87.5693 194.38 422.794 192.715 297.719 276.085 134.348 418.394 122.608 111.352 50.8565 200.492 58.367 26.3775 23.2603 26.2509 194.048 77.3571 19.0642 278.254
internal_count=19648 12310 7394 3813 3581 2359 2701 1454 590 473 369 880 2030 864 1244 1153 603 2009 540 491 221 835 261 118 104 117 808 324 82 1115
is_linear=0
shrinkage=0.05


Tree=9
num_leaves=31
num_cat=0
split_feature=37 37 13 13 22 14 78 18 0 0 3 3 81 61 30 78 64 96 90 52 91 45 58 98 29 0 7 97 6 63
split_gain=1029.32 1509.9 522.051 89.183 78.0905 59.8842 36.1782 33.6003 25.9074 25.5621 25.6672 22.5217 22.3872 26.9739 27.2198 21.897 21.7529 25.3914 22.9658 21.759 21.4414 23.1045 21.8907 21.2441 20.5297 20.3138 21.1073 27.9652 24.7924 20.1087
threshold=0.56679546721572949 1.0000000180025095e-35 0.045549568696882349 -0.90225000984537151 1.3087214991289089 0.92943294208561167 1.5694602233836352 0.56544150433833906 -0.0069167335375150451 -0.043596074424577511 1.6092739391907165 0.21554569858204101 -0.15552076208396676 0.27425182066599568 -0.95748085922783599 0.52066405371597202 1.6049936479411864 0.18637588782508632 -0.72487492101227391 -0.22906885416736675 -0.56604906733809968 -1.90633620537986 2.065817413163741 -1.5111033806366845 -1.5595815441540177 0.0026081860381204961 -0.36422009381322851 -1.0392896046946534 0.013578842267878487 1.1744942405555028
decision_type=2 2 2 2 2 2 2 2 2 2 2 2 2 2 2 2 2 2 2 2 2 2 2 2 2 2 2 2 2 2
left_child=1 -1 3 25 9 7 16 -5 -6 10 -4 12 13 -11 -15 -14 17 18 -7 -20 22 -22 24 -19 -13 -3 27 28 -27 -16
right_child=-2 2 4 5 8 6 -8 -9 -10 11 -12 20 15 14 29 -17 -18 23 19 -21 21 -23 -24 -25 -26 26 -28 -29 -30 -31
leaf_value=-0.037933111568823556 -0.037968915811245008 0.011070681863041635 0.086095178271132777 0.023431804674343124 0.10298485564685048 0.015682596360272482 -0.019691168136743001 -0.013169883494060137 0.066033875281847315 0.0075587394092131001 0.00031016271704102178 0.024339268311762009 0.051601572678291074 -0.0050574963024249799 0.13765803456892248 0.12270775529169553 -0.015187317969982956 0.083643865389224303 -0.010923807260986219 0.082492420750808537 0.12327631424654517 0.050687992302145282 -0.0043059961455949704 0.022400215642552831 0.09854377006019098 0.011462123910188584 -0.029452303587946812 -0.0070565746481922641 0.17790667965238102 0.049144537169543034
leaf_weight=822.53957755863667 1218.7660995125771 102.47527116537094 130.31108376383781 211.77388975024223 195.71937112510204 17.645923435688019 19.562068298459053 89.075421184301376 62.611465409398079 65.031357929110527 9.3448958098888379 10.501302823424338 99.467631161212921 10.935124740004538 11.674152508378031 12.14954364299774 11.751091822981833 17.567383259534836 6.6216457337141028 106.35138837993145 11.701590359210966 173.52064962685108 6.5570358783006659 72.998849272727966 82.928095653653145 4.8797766417264921 117.2000517398119 56.641575217247009 4.131458654999733 14.247739434242247
leaf_count=4951 7338 485 506 952 706 78 93 424 237 273 37 42 410 46 47 50 53 74 29 436 44 706 26 315 327 24 581 280 20 58
internal_value=-0.000153078 0.017865 0.0443123 0.0159556 0.0708341 0.0276637 0.0456182 0.0125948 0.0940291 0.0614478 0.080355 0.0561531 0.0438725 0.0269264 0.0610992 0.0593415 0.0511029 0.0546247 0.0687311 0.0770171 0.0653464 0.0552738 0.0840055 0.0342798 0.0902033 -0.00675044 -0.0167378 0.0059594 0.0877734 0.0890074
internal_weight=3776.68 2557.92 1735.38 838.676 896.701 553.348 252.498 300.849 258.331 638.37 139.656 498.714 213.506 101.888 36.857 111.617 232.936 221.185 130.619 112.973 285.209 185.222 99.9864 90.5662 93.4294 285.328 182.853 65.6528 9.01124 25.9219
internal_count=19648 12310 7359 3844 3515 2454 1078 1376 943 2572 543 2029 884 424 151 460 985 932 543 465 1145 750 395 389 369 1390 905 324 44 105
is_linear=0
shrinkage=0.05


Tree=10
num_leaves=31
num_cat=0
split_feature=37 37 18 67 48 6 116 1 123 99 40 5 120 55 98 64 44 77 44 77 68 105 11 17 62 77 65 134 105 52
split_gain=2479.41 3872.9 13.8648 13.4822 12.2177 12.374 14.6078 15.0523 15.5575 14.7052 16.2338 17.6176 10.384 9.91055 9.76995 8.62007 8.42416 10.2867 13.6312 16.9175 12.0359 11.2683 8.26765 10.954 8.04162 7.99253 10.8896 10.792 7.90908 7.76886
threshold=0.56679546721572949 -1.0000000180025095e-35 -0.45092428902288928 -2.4250078210839758 -0.10000000000000113 -1.2626783327363016 -1.6993470993176112 -0.032061492984541869 1.4229986954664791 -0.38610121433819988 -0.18865794995314639 -1.2863050608630298 2.4681409686686471 -0.68175406687261053 0.46122678503911657 1.206048192382694 -1.3392391053977433 -0.24263771218100608 -1.9206529138633914 -1.2280442280650743 -0.5578238676743108 -0.78755605090975422 0.71973744507720727 -0.75796126922439389 0.8428271412760534 1.9019891811133849 1.1217814138969358 0.47065434863921835 0.13171984607296308 -0.20064082129645536
decision_type=2 2 2 2 2 2 2 2 2 2 2 2 2 2 2 2 2 2 2 2 2 2 2 2 2 2 2 2 2 2
left_child=1 -1 12 -4 5 6 -5 9 -9 28 -11 -12 15 -10 -14 22 17 18 -7 -20 -21 -19 23 29 -23 26 -25 -28 -8 -3
right_child=-2 2 3 4 -6 16 7 8 13 10 11 -13 14 -15 -16 -17 -18 21 19 20 -22 24 -24 25 -26 -27 27 -29 -30 -31
leaf_value=0.044655521666184118 0.044425574879394962 -0.056912487016637127 0.0039247928002506963 0.0079515598672360698 -0.011697914979708984 -0.077287007194975096 -0.086746064992680005 -0.068572031964389685 0.029422750341248416 0.029802884315620073 0.022349572859146766 -0.081195823165560219 -0.060737537853029648 -0.048046437684693757 0.015607610260180434 -0.074716278549852147 -0.058878410043361876 -0.018997993523302899 -0.065518161140143166 -0.03752934457013854 0.024623877358271731 -0.080226524270556682 -0.073060411836057382 -0.054928890294912935 -0.030086397826107572 -0.082886911407019245 0.01265700685921428 -0.063579085275253855 -0.024447718620779015 -0.076551981996994242
leaf_weight=1395.6029908657074 2084.087854206562 83.897545367479324 9.4526191353797895 12.802677154541014 15.452135086059569 12.124989479780195 11.694259971380236 80.552797079086304 7.0484890937805202 16.258847236633301 6.8287189006805447 10.310322672128676 8.7635532915592211 9.9649944305419904 8.0305842757225019 153.59068083763123 1394.0204741060734 13.724526166915892 13.253582566976545 12.469095528125758 20.753173917531971 39.839133471250534 133.23226389288902 380.27951464056969 10.004994839429854 23.789043873548508 12.049907356500627 7.5512461066246024 9.0274752974510175 125.94501441717148
leaf_count=4916 7338 233 28 38 47 34 33 226 21 48 20 29 25 29 23 426 3897 39 37 35 59 111 370 1061 28 66 34 21 26 350
internal_value=0.000133543 -0.0227246 -0.0583077 -0.0556232 -0.0559551 -0.056362 -0.0433366 -0.0476654 -0.0593962 -0.0265173 -0.00598767 -0.0399402 -0.0631936 -0.0159519 -0.024231 -0.0639045 -0.0577751 -0.0451855 -0.0300744 -0.0177573 0.00129632 -0.0591157 -0.0617388 -0.0593578 -0.0701621 -0.0547306 -0.0530556 -0.0167126 -0.0596056 -0.0686999
internal_weight=6122.4 4038.32 2642.71 1705.58 1696.13 1680.68 164.489 151.686 97.5663 54.1196 33.3979 17.139 937.129 17.0135 16.7941 920.335 1516.19 122.169 58.6008 46.4759 33.2223 63.5687 766.745 633.512 49.8441 423.67 399.881 19.6012 20.7217 209.843
internal_count=19648 12310 7394 4785 4757 4710 470 432 276 156 97 49 2609 50 48 2561 4240 343 165 131 94 178 2135 1765 139 1182 1116 55 59 583
is_linear=0
shrinkage=0.05


Tree=11
num_leaves=31
num_cat=0
split_feature=37 37 13 13 8 14 22 90 64 3 0 46 105 52 0 117 58 65 116 46 10 32 5 52 118 32 30 62 57 3
split_gain=1035.08 1512.5 562.925 103.109 70.5991 58.8467 38.5137 37.1529 33.0761 26.6595 26.1086 27.9375 24.7103 24.2822 23.5954 23.4323 23.2372 21.8628 20.6318 20.3588 20.2897 20.2028 20.3219 21.7827 21.39 21.1423 23.9024 23.1234 20.5121 19.9815
threshold=0.56679546721572949 -1.0000000180025095e-35 0.022651733231289151 -0.85700297416195015 0.023578735273232936 -1.1947520216560137 1.4738964509139356 -0.76834319717132427 1.6049936479411864 0.7267017653720933 0.0079472283772764885 -0.19570303906116701 -2.9980949009211812 -0.17197128354784771 -0.028990246834269096 1.5483303184932293 1.9754445937421754 -1.4496756699520488 -0.61603947502300571 -0.64666586704650986 0.88238188722965571 -2.0639781227436105 -1.0765322971527389 -0.15382787280875668 0.99770441850129032 -0.75503975163736747 0.43281277993938844 0.59912723912049859 0.31704492978359361 0.073807731545573241
decision_type=2 2 2 2 2 2 2 2 2 2 2 2 2 2 2 2 2 2 2 2 2 2 2 2 2 2 2 2 2 2
left_child=1 -1 3 10 9 -5 12 20 19 21 11 -3 -6 14 -13 -11 18 -18 -14 29 -7 -4 25 24 -24 -23 27 28 -27 -9
right_child=-2 2 4 5 6 7 -8 8 -10 15 -12 13 16 -15 -16 -17 17 -19 -20 -21 -22 22 23 -25 -26 26 -28 -29 -30 -31
leaf_value=-0.038172926542713745 -0.037973382844621331 0.096087564023096358 0.12869189136684142 0.080853339464911272 0.12222978039201032 0.10242550736109185 -0.020286987472142044 0.070626285077953696 0.10289939760548941 0.0037075261038382341 0.098835132158960712 -0.0074742616908872392 0.022572616519342156 0.10838574451010625 0.058486731994355605 0.093544323961330389 -0.032540080684414829 0.073004185358095885 -0.0017900375591823718 0.026986039808140874 0.042585148862318525 -0.02577602854626725 0.058435967815756953 -0.011836252327360906 0.12972775377404042 0.0050857592702914442 -0.034647841891084601 0.14667540659595169 0.11033441869867949 0.023518811149420973
leaf_weight=816.35675030946732 1219.5797335803509 68.388695850968361 7.9032610505819312 167.36811709403992 4.8925497382879248 39.991165950894356 132.64894807338715 64.585056468844414 19.198740497231483 65.790163204073906 251.48589004576206 19.050960496068001 127.9123378098011 15.84630127251148 47.021731272339821 8.1585967689752561 6.1629256159067181 24.068218857049942 271.04781459271908 223.61822684109211 21.935053035616875 15.862471148371695 49.237963274121284 8.4538891464471799 13.380538821220396 14.10417072474957 7.6240115016698828 6.6407204121351233 6.8911673277616492 34.554427936673164
leaf_count=4916 7338 255 32 650 21 158 671 259 74 305 918 81 594 61 175 35 28 104 1283 944 92 67 200 36 54 62 33 28 28 146
internal_value=-6.33546e-05 0.0179956 0.0442905 0.0695743 0.0123718 0.0559241 0.00329192 0.0455935 0.03914 0.0375908 0.0889815 0.0724951 0.0104972 0.0527993 0.039468 0.013619 0.00922355 0.0514879 0.00602098 0.0353474 0.0812293 0.0512166 0.0462057 0.0634991 0.0736698 0.0221637 0.0437304 0.0653528 0.0396309 0.0542073
internal_weight=3779.76 2560.18 1743.82 973.044 770.78 571.251 566.733 403.883 341.956 204.047 401.794 150.308 434.084 81.919 66.0727 73.9488 429.191 30.2311 398.96 322.758 61.9262 130.098 122.195 71.0724 62.6185 51.1225 35.2601 27.6361 20.9953 99.1395
internal_count=19648 12310 7394 3813 3581 2323 2701 1673 1423 880 1490 572 2030 317 256 340 2009 132 1877 1349 250 540 508 290 254 218 151 118 90 405
is_linear=0
shrinkage=0.05


Tree=12
num_leaves=31
num_cat=0
split_feature=37 37 13 13 22 0 74 48 52 17 136 90 10 0 138 0 92 34 144 70 5 71 24 30 127 46 1 7 97 18
split_gain=939.023 1309.25 428.51 78.2756 62.4277 42.9707 27.0473 24.4504 23.0852 26.5632 23.5575 22.3448 39.5877 21.8388 22.3622 20.9862 20.5065 20.1948 20.0273 23.8597 22.0148 20.649 19.1283 19.092 21.9486 18.8011 18.5037 18.2209 21.9346 17.3981
threshold=0.56679546721572949 1.0000000180025095e-35 0.045549568696882349 -0.90225000984537151 1.3087214991289089 -0.009587954669299294 0.32456721827247809 -0.20310096011589981 -0.19627902648796994 -0.49322172411190185 -1.911547685149501 -0.018864035298089752 -0.016482476863318159 -0.027004039304976812 0.11968211130491495 -0.00075236585344159448 -0.22394982335506089 1.8829911249289797 -1.179926090854255 -0.38896248423191077 0.93051885102156173 1.0155898016060581 0.70222544040187906 -0.29330032441319631 -0.20426263125086544 -1.4757344793192322 0.0031175692956097027 -0.36422009381322851 -1.0392896046946534 -0.77507358426972695
decision_type=2 2 2 2 2 2 2 2 2 2 2 2 2 2 2 2 2 2 2 2 2 2 2 2 2 2 2 2 2 2
left_child=1 -1 3 26 13 6 -5 8 10 23 -7 -11 -13 18 17 -6 -14 -15 -4 -20 21 -21 -17 24 -10 -9 -3 28 -28 -30
right_child=-2 2 4 5 15 7 -8 25 9 11 -12 12 16 14 -16 22 -18 -19 19 20 -22 -23 -24 -25 -26 -27 27 -29 29 -31
leaf_value=-0.03758954299728539 -0.037626642856746821 0.0099016582614157994 0.10289555373904979 0.054713693867451091 0.0896870511803943 0.117656776252172 0.017924982944849618 0.084594491312648984 -0.029322324974117131 -0.01495838889693598 0.0038349819149445736 -0.0022583123025836471 0.022859457912236755 0.043678606249896772 0.11560325735816242 -0.0031255170401122637 0.1508676300516418 0.092337162620391461 0.083934072743588953 0.041332773422967831 -0.020076578725641562 0.087055102392886427 0.070265868100397352 0.097320109509672667 0.062523867561348465 -0.013462235298990544 0.074323092939329288 -0.028456584114627839 0.040180098791148838 -0.023392972044507979
leaf_weight=779.83809258043766 1155.3745910525322 103.35267229378223 33.360010474920273 146.47615687549114 223.83371682465076 4.709729701280593 75.824071452021599 5.17792885005474 8.8028877675533277 30.801312536001205 130.67247967422009 19.373499661684036 4.7043607234954843 402.636728271842 11.951730161905287 11.250116318464277 9.340706199407574 22.516093984246254 73.480463951826096 85.891250848770142 10.787787407636641 34.657304763793945 42.109877720475197 23.409264892339706 24.914850726723671 87.42944823205471 9.5752880126237851 116.8308352380991 14.368196517229078 42.879615113139153
leaf_count=4951 7338 478 122 585 752 20 327 23 40 137 582 86 21 1564 45 43 39 86 269 320 41 125 148 100 104 390 44 586 70 212
internal_value=-0.000140239 0.0165759 0.0398987 0.0142835 0.0629904 0.0249805 0.0421655 0.0140449 0.0219896 0.0378263 0.00779466 0.0157624 0.0440772 0.0547891 0.0481517 0.0829698 0.107992 0.0462556 0.0669702 0.0611188 0.048354 0.0544778 0.0547924 0.0626296 0.038545 -0.00797962 -0.00702195 -0.0165458 0.00427844 -0.00743725
internal_weight=3746.33 2590.96 1811.12 858.643 952.475 571.637 222.3 349.336 256.729 121.347 135.382 64.2199 33.4186 675.281 437.105 277.194 14.0451 425.153 238.177 204.817 131.336 120.549 53.36 57.127 33.7177 92.6074 287.007 183.654 66.8231 57.2478
internal_count=19648 12310 7359 3844 3515 2454 912 1542 1129 527 602 283 146 2572 1695 943 60 1650 877 755 486 445 191 244 144 413 1390 912 326 282
is_linear=0
shrinkage=0.05


Tree=13
num_leaves=31
num_cat=0
split_feature=37 37 19 67 0 48 6 116 1 97 35 123 5 6 6 64 92 28 142 25 141 55 110 25 39 14 81 97 91 46
split_gain=2252.29 3401.26 13.2094 12.5695 13.2379 10.3507 10.6995 14.5191 14.35 15.4864 14.8932 12.9221 10.1938 9.30461 7.31418 7.24448 7.49914 14.8958 11.8043 11.2045 11.0834 15.965 11.7092 16.756 11.7941 8.89092 8.72119 8.28558 9.71048 11.6241
threshold=0.56679546721572949 -1.0000000180025095e-35 -0.43616659058922264 -2.120576144470371 0.0048314010405845357 -0.10000000000000113 -1.2626783327363016 -1.730707109084296 -0.046960826098471554 -0.22238607812556749 -1.318847710051877 1.5978328737922245 -1.1460243134492629 -1.6414649883093491 -1.552526222133547 1.206048192382694 -0.43515087082999027 -1.1478876748809896 -0.82092053016355526 0.12571579416902573 0.90916591046519746 0.066748425448855245 -0.02022646994662999 0.030163852444008901 0.92765404486720293 1.5588384158164736 -0.24483851591895969 -0.74880786653179521 0.073613968759424692 1.8533940301848491
decision_type=2 2 2 2 2 2 2 2 2 2 2 2 2 2 2 2 2 2 2 2 2 2 2 2 2 2 2 2 2 2
left_child=1 -1 15 4 -4 6 7 -5 9 14 13 -12 -11 -10 -9 16 17 18 -3 20 25 22 24 -24 -22 -19 -21 28 -18 -30
right_child=-2 2 3 5 -6 -7 -8 8 10 12 11 -13 -14 -15 -16 -17 27 19 -20 26 21 -23 23 -25 -26 -27 -28 -29 29 -31
leaf_value=0.043756755306802605 0.043519020118090702 0.02224019135033356 0.024571805995091733 0.015201612186115786 -0.055089986682426588 -0.010997345653113466 -0.053304637356013644 -0.0195527294107272 -0.049992596680451661 0.042670483061079012 -0.068568107655057803 -0.012269220537152625 -0.026595810284024586 0.021666489593618346 -0.078865447315016338 -0.068176755095869859 -0.065766662563384856 -0.069072957991714631 -0.04322525817546663 0.02081966351490383 -0.077856880113371968 -0.067098029130670839 0.043281318010833819 -0.049363749930140477 -0.0014693535470836131 -0.043013699599293721 -0.052404360465644555 -0.064014088629573127 -0.04430231614470076 0.022225279857060656
leaf_weight=1338.1415891647339 1998.6592293977737 11.878357976675035 11.157877415418627 11.155555278062819 9.7913991808891279 15.532357424497603 1526.8146446943283 10.196404039859774 8.5391662418842333 11.547654151916506 80.856966197490692 11.662419855594633 9.8361657559871656 9.6483785510063154 10.60225400328636 159.9532353579998 53.566170781850815 139.95830294489861 16.382898896932602 8.6278542280197161 12.10941991209984 30.758863002061844 12.550516754388811 7.9860191345214835 8.6717622280120832 42.722517609596252 7.6914149820804587 375.35743817687035 70.07526558637619 7.2447287738323203
leaf_count=4916 7338 33 33 33 27 47 4188 29 24 34 222 34 28 28 29 435 146 382 45 24 33 84 35 22 24 117 21 1025 192 20
internal_value=0.000120687 -0.0213971 -0.0537733 -0.0511551 -0.012661 -0.0516277 -0.0520009 -0.0398668 -0.0438848 -0.019069 -0.0533404 -0.0614714 0.0108093 -0.0119779 -0.0497878 -0.0584572 -0.0565273 -0.0502536 -0.0157098 -0.053855 -0.0564278 -0.0398246 -0.0195209 0.00725454 -0.0459812 -0.0629786 -0.0136915 -0.0602368 -0.0494044 -0.0380688
internal_weight=6029.68 4031.02 2692.88 1727.34 20.9493 1706.39 1690.86 164.045 152.889 42.1825 110.707 92.5194 21.3838 18.1875 20.7987 965.535 805.582 299.338 28.2613 271.077 254.757 72.0766 41.3177 20.5365 20.7812 182.681 16.3193 506.244 130.886 77.32
internal_count=19648 12310 7394 4756 60 4696 4649 461 428 120 308 256 62 52 58 2638 2203 820 78 742 697 198 114 57 57 499 45 1383 358 212
is_linear=0
shrinkage=0.05


Tree=14
num_leaves=31
num_cat=0
split_feature=37 37 13 8 8 22 11 13 64 115 32 98 98 105 142 63 65 58 138 5 122 141 7 30 46 22 98 65 122 100
split_gain=944.167 1312.02 467.019 84.4926 61.7437 35.9792 30.0025 28.7794 27.6754 26.6851 22.8956 21.8271 21.4713 21.049 20.9284 20.2803 21.7471 19.8163 26.0257 22.7052 19.7719 19.3312 19.0327 18.5981 28.7122 18.5757 18.9286 18.5081 17.9086 25.7215
threshold=0.56679546721572949 -1.0000000180025095e-35 0.022651733231289151 -0.33726723040864098 0.11162189671852284 1.4738964509139356 -0.70859304156763481 -1.0231506921070912 1.6049936479411864 1.0146060397533916 -2.02174423717288 0.34585963548040849 -2.0812716891616625 -2.9980949009211812 0.82943721986351493 1.2350419858340447 0.46103842094970121 0.79399034533356516 -0.13361596611416723 0.1511230334981864 0.35753800938483088 0.83806732899328307 1.3715535158284846 0.39414812257831366 -0.63409783737053094 0.39022679717024494 -1.404920669743106 1.0261038199971722 -0.36544234597971509 -0.72454732769799512
decision_type=2 2 2 2 2 2 2 2 2 2 2 2 2 2 2 2 2 2 2 2 2 2 2 2 2 2 2 2 2 2
left_child=1 -1 3 6 10 13 11 20 9 23 -4 -3 -8 -6 -13 16 -14 18 -12 21 -5 27 -16 -9 -25 26 -20 -19 -17 -30
right_child=-2 2 4 7 5 -7 12 8 -10 -11 17 14 15 -15 22 28 -18 19 25 -21 -22 -23 -24 24 -26 -27 -28 -29 29 -31
leaf_value=-0.03784008627125926 -0.037630765354475862 0.094206049747744255 0.096223278772836068 0.093650273624782621 0.10769930494339193 -0.021086493227923164 0.0009575976383927264 0.023765836977043053 0.097495094193838214 0.094381965927453182 0.1075714879571162 0.081055921841899109 0.061373061601870831 0.0076655739163355068 0.013407674472295997 0.0037115686000313355 0.09284920871494394 0.10332965276877543 0.11944493329793276 -0.009984131451716163 0.037407538692659302 0.022886995288726546 0.094355377577771654 0.10069425642793323 0.026638091760097113 -0.0056535086440291683 0.02344421348711747 0.025468379314512068 -0.014998445487520948 0.098133477650331646
leaf_weight=773.64447730779648 1156.1503918468952 198.59407095611095 13.322154864668844 42.969915673136711 5.3253591805696479 130.58016863465309 13.590695470571516 229.22871054708958 17.995776683092117 17.067713439464569 7.6944440454244605 82.717891976237297 188.7180123180151 420.12709093093872 26.487628921866417 23.255647227168083 77.374297320842743 29.49483422935009 5.5751312971115103 12.952650696039198 24.556405022740364 19.962747067213058 10.004213958978651 21.809527158737183 32.73071052134037 67.548804402351379 64.988364696502686 10.296900227665899 7.0968547016382244 17.202925145626068
leaf_count=4916 7338 677 53 152 21 664 52 940 65 65 32 285 688 1926 92 87 281 118 23 58 91 81 34 81 134 295 269 41 27 62
internal_value=-5.39672e-05 0.0167011 0.0398947 0.062036 0.0109096 0.00187143 0.0731116 0.0435448 0.0372646 0.0336617 0.0325866 0.0840538 0.0624848 0.00891769 0.067141 0.0651508 0.0705257 0.0287068 0.0180742 0.0500295 0.0731972 0.0630383 0.0355994 0.0300096 0.0562516 0.0130882 0.0310291 0.0831815 0.035076 0.0650928
internal_weight=3749.06 2592.91 1819.27 1031.4 787.869 556.033 645.042 386.359 318.832 300.837 231.836 317.804 327.238 425.452 119.21 313.648 266.092 218.514 145.807 72.7071 67.5263 59.7545 36.4918 283.769 54.5402 138.112 70.5635 39.7917 47.5554 24.2998
internal_count=19648 12310 7394 3813 3581 2611 2285 1528 1285 1220 970 1088 1197 1947 411 1145 969 917 619 298 243 240 126 1155 215 587 292 159 176 89
is_linear=0
shrinkage=0.05


Tree=15
num_leaves=31
num_cat=0
split_feature=37 37 13 15 11 14 1 78 18 38 44 91 71 25 29 4 19 118 135 14 25 7 120 115 134 15 142 64 14 100
split_gain=869.408 1149.1 367.857 63.42 58.6212 33.7561 31.188 26.41 26.3395 24.6622 22.7468 19.2831 18.7369 18.5169 18.3487 18.1968 17.5497 18.1932 21.6463 25.9939 17.2799 16.1064 17.6439 18.08 18.2443 15.765 16.83 15.4666 25.4712 18.1271
threshold=0.56679546721572949 1.0000000180025095e-35 0.010980738304027762 -1.1993079523642918 1.3249432202350293 0.95482022608431438 -0.040643265346085797 -0.062925593710192143 0.59227598356510469 1.1112486080160959 -0.74429842296962534 -0.65916185189234999 0.88381843879477218 0.15901768634453831 2.1409063116587159 -0.9489630885177972 -0.67497823767863396 -0.47937455589088596 -0.79382881565994035 -0.69709873684319312 -0.071468242877167257 -0.050604948729341181 -1.2777247329937389 0.83141807688390457 -0.15023483083935613 1.3835440483595924 1.1051213581030943 1.2721206060551602 -1.7570242187729754 -1.3782046077442811
decision_type=2 2 2 2 2 2 2 2 2 2 2 2 2 2 2 2 2 2 2 2 2 2 2 2 2 2 2 2 2 2
left_child=1 -1 3 16 6 8 25 9 -5 10 11 -7 20 14 27 -14 17 -3 -19 -20 -9 22 -12 24 -24 26 -4 -8 -29 -30
right_child=-2 2 4 5 -6 7 13 12 -10 -11 21 -13 15 -15 -16 -17 -18 18 19 -21 -22 -23 23 -25 -26 -27 -28 28 29 -31
leaf_value=-0.037470574161926035 -0.037263171031349338 -0.023593688085776526 0.051134999605113474 0.018302639049333127 0.08394139870596852 0.027306952815729531 0.03609412960848938 0.045638879190886293 -0.012429372646958288 0.10374300010453062 -0.0073983702329593008 0.10101501838829817 0.12080080245395484 0.097907584793852143 0.097170310305149513 0.028649055556643568 -0.019456818135397631 -0.025470693855918602 -0.024453044800091268 0.093031349678569741 -0.0026601627565906341 0.0045961693747686673 0.033554916421688362 -0.01467777588705689 0.10141773422869212 0.083166449898651879 0.081273964069444399 0.0025126494318498042 0.016025673411806659 0.087179241198933263
leaf_weight=731.6526612341404 1100.045871257782 20.8904899507761 230.56626464426517 228.86835819482803 162.0022931098938 14.387616172432898 407.40967021882534 23.352734968066216 100.26597438752651 16.612709179520607 12.981095761060713 23.151797324419022 7.3496112674474743 15.06152158975601 14.44421650469303 19.759959131479263 164.00435329973698 10.177434414625166 6.4318086951971081 17.568393930792809 89.456463217735291 44.52036888897419 17.728994160890576 7.1800415664911261 22.438471212983135 73.231785878539085 57.964658856391907 15.20616355538368 10.850015386939047 51.144582748413086
leaf_count=4904 7376 98 804 990 519 59 1512 96 468 63 54 87 30 53 51 81 802 48 31 80 377 178 71 29 85 236 199 57 40 181
internal_value=3.35857e-05 0.0157132 0.0363561 0.0119076 0.0563111 0.0199874 0.0512006 0.0321509 0.00894058 0.0460925 0.0393664 0.0727652 0.0163078 0.0432862 0.0416377 0.0536321 -0.0112565 0.0131659 0.0356346 0.0615467 0.00733827 0.0274085 0.0442432 0.0584015 0.0714646 0.0624483 0.0571898 0.0399825 0.0605024 0.0747263
internal_weight=3716.71 2616.66 1885.01 847.127 1037.88 628.054 875.879 298.92 329.134 159.001 142.388 37.5394 139.919 514.116 499.055 27.1096 219.072 55.0681 34.1776 24.0002 112.809 104.849 60.3286 47.3475 40.1675 361.763 288.531 484.61 77.2008 61.9946
internal_count=19659 12283 7379 3727 3652 2668 3133 1210 1458 626 563 146 584 1894 1841 111 1059 257 159 111 473 417 239 185 156 1239 1003 1790 278 221
is_linear=0
shrinkage=0.05


Tree=16
num_leaves=31
num_cat=0
split_feature=37 37 18 22 22 41 36 30 66 21 135 45 42 3 5 123 61 63 123 38 82 38 12 120 3 52 30 70 56 22
split_gain=2067.83 2994.28 13.3421 11.8541 10.491 10.5072 11.9713 13.1384 13.5791 13.3058 12.2375 12.1233 10.7766 15.5074 13.5529 10.5325 10.3171 9.68993 10.5541 10.7281 9.67197 11.1169 9.66554 11.8901 12.9343 9.2969 9.00346 9.24766 8.88568 8.87056
threshold=0.56679546721572949 1.0000000180025095e-35 -0.19298855239425858 -1.1315155752958173 1.4497537068741122 -0.35611167368330526 -0.32684550829087544 0.64521391481598267 0.45370260731699602 1.3092611552992921 0.76654754673793135 2.1324104181859469 0.050008584008491931 1.346904128859725 -1.0765322971527389 -0.030662463634562018 2.8284942043408137 -1.4702018078200518 -0.49070489450194948 1.1574083209061394 0.81758977552330248 0.95595300817883055 1.607244688645636 -0.03981169218528504 -0.23729196569137176 -0.19674712159431276 -0.70180770822388905 0.96654817785665281 0.34308541557972605 -0.484722162263376
decision_type=2 2 2 2 2 2 2 2 2 2 2 2 2 2 2 2 2 2 2 2 2 2 2 2 2 2 2 2 2 2
left_child=1 -1 -3 -4 5 12 7 8 11 10 15 22 13 17 25 -9 -8 -5 -19 29 21 -15 -7 -24 -25 -14 27 28 -16 -20
right_child=-2 2 3 4 -6 6 16 9 -10 -11 -12 -13 14 20 26 -17 -18 18 19 -21 -22 -23 23 24 -26 -27 -28 -29 -30 -31
leaf_value=0.04267338543700195 0.042669818670101139 -0.05403919906758467 -0.05590301326986874 0.0015286533365830761 -0.055188214948639527 -0.048629930701508756 -0.05576588674113573 0.049444124567063902 -0.060270340697212446 -0.069803828261147005 -0.050796137202318771 0.017913915473375473 -0.028766736519451587 -0.0053936139783757886 0.028294541996805297 -0.018788542909280885 -0.0030775521252074923 -0.057158526930858877 -0.01793342399158409 -0.07030474799629681 0.029458031387784168 -0.075296044808467744 -0.045381605703243198 -0.03194998805810037 0.057829194183077581 0.039583236450680494 -0.051458115662390495 -0.057331171156680995 -0.038752254990718854 -0.041495408446248452
leaf_weight=1279.568668782711 1923.2398705482483 1187.2613441050053 299.66972655057907 11.360627710819243 203.70755636692047 73.789137780666351 295.80302891135216 13.35402223467827 80.027189195156097 8.1186233162879926 8.1171335279941541 10.425078988075255 8.0326393842697161 18.956591993570331 13.777985066175466 9.8108031451702136 9.5924260318279249 124.17486703395844 53.723782449960709 24.681874573230743 10.87410932779312 8.125812888145445 16.865436673164368 7.7176734805107143 8.3544754981994611 13.070330172777174 31.653449356555939 8.5129907429218274 7.7053032219409934 155.75354492664337
leaf_count=4904 7376 3208 808 31 549 201 803 37 218 22 22 29 22 52 38 27 26 338 147 67 30 22 46 21 23 37 86 23 21 425
internal_value=6.02952e-05 -0.0204136 -0.0500586 -0.0469813 -0.0448184 -0.0427723 -0.0475705 -0.0391276 -0.0443947 -0.0127684 0.00203402 -0.0335499 -0.0374694 -0.0408089 -0.0210186 0.0205461 -0.054111 -0.0439337 -0.045375 -0.0391262 -0.0103739 -0.0263672 -0.0385769 -0.0160554 0.0147182 0.0135665 -0.0328573 -0.0132288 0.0042472 -0.0354526
internal_weight=5925.83 4002.59 2723.02 1535.76 1236.09 1032.38 541.975 236.58 197.179 39.4006 31.282 117.152 490.404 407.651 82.7527 23.1648 305.395 369.695 358.334 234.159 37.9565 27.0824 106.727 32.9376 16.0721 21.103 61.6497 29.9963 21.4833 209.477
internal_count=19659 12283 7379 4171 3363 2814 1475 646 538 108 86 320 1339 1112 227 64 829 1008 977 639 104 74 291 90 44 59 168 82 59 572
is_linear=0
shrinkage=0.05


Tree=17
num_leaves=31
num_cat=0
split_feature=37 37 13 8 8 117 3 12 3 11 5 29 21 67 67 67 140 11 45 127 41 51 62 100 142 30 5 55 40 136
split_gain=865.339 1133.23 433.856 65.8528 64.0465 29.6533 28.9198 24.7758 24.325 23.3914 32.6202 24.8456 24.1095 27.1409 23.3451 23.2865 21.1888 19.0152 28.8849 18.9621 18.5544 24.5123 18.0992 18.0919 17.7686 21.9501 21.8821 20.8412 19.5543 17.3027
threshold=0.56679546721572949 -1.0000000180025095e-35 0.022651733231289151 -0.33726723040864098 1.6265995620408773 0.16598635650692328 -0.054922030551588293 -2.2450611281944197 -0.62231837393471612 0.61093457504986748 0.42708742001161076 -1.0425077337540831 -0.18245475519096729 -0.084521495951632039 -0.56847609149044842 -1.2483462250269326 -0.92443209768291668 -1.1469018171105387 -0.79802670512874985 0.93373141907169421 -0.45014651114692827 -0.20403254335960125 0.41875704111660489 -1.5697633352120643 -0.69042395524671885 -1.1514037906479098 -0.92506630415879221 -0.10096971329149558 -0.41627439221580087 -0.95421819085933934
decision_type=2 2 2 2 2 2 2 2 2 2 2 2 2 2 2 2 2 2 2 2 2 2 2 2 2 2 2 2 2 2
left_child=1 -1 3 6 7 16 -3 14 -7 10 12 -11 13 23 -4 -8 -5 18 -18 29 21 -17 -16 -9 27 -26 -27 28 -10 -19
right_child=-2 2 4 5 -6 8 15 9 24 11 -12 -13 -14 -15 22 20 17 19 -20 -21 -22 -23 -24 -25 25 26 -28 -29 -30 -31
leaf_value=-0.037531299881060458 -0.037312434652645068 0.07212502705998694 -0.0083935996073590587 0.055738521546370892 -0.018930437975799203 0.0758047225459062 0.10263278216576983 0.077897299984708651 -0.035374621090724277 -0.033462190174982136 0.10534668145775926 0.0087090736736939595 0.0053193573687834788 0.050124005082908651 0.11732975609907517 0.076485459286157437 -0.0062635932445293321 0.036213476478908088 0.10814840648532915 0.063735924547508593 0.056940536956566173 0.0026750988430570923 0.018234196400472646 0.003975222885376775 -0.042653718032957783 0.064551112924231588 -0.0079140254378456121 0.096782530457220628 0.064731287569306864 -0.0050243151515116493
leaf_weight=726.1363442838192 1100.7884297370911 515.03512385487556 9.0021258145570773 53.779603347182274 169.64718399941921 82.483595460653305 17.204076796770096 9.2321536391973478 7.8211041837930706 42.221858859062195 11.216075092554091 202.13983544707298 172.35711991786957 93.975241899490356 15.207622677087786 14.806757807731627 9.2552258521318453 35.157520487904549 13.656459808349608 16.250408709049225 79.787676692008972 46.805550992488861 6.6107821315526953 80.008064135909081 11.121805295348166 26.469322755932804 17.178783580660824 22.133941188454628 12.964648529887198 91.999269485473633
leaf_count=4873 7376 1704 38 201 832 295 59 40 33 194 47 919 743 392 57 52 34 134 47 60 277 169 27 339 44 102 67 85 50 369
internal_value=-0.000129867 0.0155422 0.0359813 0.0568319 0.00839242 0.0407695 0.066376 0.0156128 0.0558111 0.0134069 0.0213911 0.00142254 0.0187429 0.0313709 0.0593529 0.0477073 0.0284565 0.0196348 0.0619314 0.0128772 0.0410245 0.0204133 0.0873047 0.0116227 0.0389296 0.0200527 0.0360307 0.0630184 0.0270642 0.0063775
internal_weight=3712.45 2611.67 1885.53 1073.91 811.618 400.272 673.639 641.971 180.173 611.15 366.789 244.362 355.573 183.215 30.8205 158.604 220.098 166.319 22.9117 143.407 141.4 61.6123 21.8184 89.2402 97.6896 54.7699 43.6481 42.9197 20.7858 127.157
internal_count=19659 12283 7410 3782 3628 1521 2261 2796 676 2674 1561 1113 1514 771 122 557 845 644 81 563 498 221 84 379 381 213 169 168 83 503
is_linear=0
shrinkage=0.05


Tree=18
num_leaves=31
num_cat=0
split_feature=37 37 13 8 8 5 5 115 52 1 98 58 24 51 6 58 68 70 65 55 4 120 122 8 46 46 92 144 67 22
split_gain=797.122 1011.93 310.71 63.8164 50.9813 26.1233 23.6285 28.2302 32.9173 22.2155 21.466 21.2028 21.1939 27.4711 22.0774 19.1746 21.0944 25.951 18.2868 18.1524 17.9113 18.2104 17.6118 19.5913 16.0021 15.9242 20.632 15.8295 16.9964 15.6761
threshold=0.56679546721572949 1.0000000180025095e-35 0.010980738304027762 -1.1129209729190623 1.914107288528957 -0.5706048812520198 -0.90459981971796044 0.9730111173778756 -0.17086027721614297 -0.086679301408510129 -0.54682434034210281 2.065817413163741 -0.35582929828156301 -0.18515140647077713 -0.069036381984824272 1.3031582423516392 1.6425556058584632 -1.0796755785513386 -1.5423325648961022 0.76590420977473939 0.10783161641414329 -0.69245000029654558 -1.0923454607829783 0.16238390621313001 -1.1402268343180209 -0.91427551883094249 -0.77036960388296249 -0.88378238879083437 0.78374047963171301 -0.5349513914428673
decision_type=2 2 2 2 2 2 2 2 2 2 2 2 2 2 2 2 2 2 2 2 2 2 2 2 2 2 2 2 2 2
left_child=1 -1 3 15 5 6 7 8 18 10 -5 19 -11 -14 22 -3 17 -17 -4 -7 21 -10 -15 -24 -20 26 -8 -16 -29 -19
right_child=-2 2 4 9 -6 11 25 -9 20 12 -12 -13 13 14 27 16 -18 29 24 -21 -22 -23 23 -25 -26 -27 -28 28 -30 -31
leaf_value=-0.037180871324576467 -0.036962914901404388 -0.014846952624953608 -0.0062326148379458534 0.0016748074523283139 0.074976847002445474 0.051294992670741918 -0.022742791980716465 -0.0072656403507713229 -0.028287690304566449 0.0068068493791995982 0.062156376008960949 0.0084672543795499787 0.013271176830808707 0.080900654585585985 0.02230888538236947 0.092876568926417172 0.11608349118014355 -0.023264773431818354 0.082649620063267329 0.07516999569503735 0.096410829977042811 0.070351582352135414 0.0025378820350819603 0.083872142992656482 0.03944849412997789 0.011494397530691763 0.075958060197517177 0.12642685461025643 0.032896773579063336 0.074766329360019312
leaf_weight=692.42821936309338 1041.2274580001831 230.82802174985409 19.471494108438492 20.128732711076736 184.79929327964783 302.60180629789829 6.90676121413708 23.76937335729599 6.468182027339938 267.99373327195644 54.101917549967766 23.22197237610817 142.56722702085972 13.702729836106299 8.578358128666876 7.4852475225925437 5.1098830848932257 29.758140534162518 24.216754242777824 108.03809387981892 48.117075890302658 16.916346788406372 41.627256229519844 9.0055388659238798 186.62118831276894 107.3729884326458 22.684281662106514 17.987712800502781 6.6541547775268546 4.7256262898445156
leaf_count=4904 7376 1102 69 79 567 1010 25 83 24 1152 203 81 575 54 36 34 24 143 84 360 163 60 174 34 666 381 79 70 27 20
internal_value=7.29719e-05 0.014714 0.0332225 0.0107979 0.0510644 0.0461347 0.0378681 0.0451977 0.0493295 0.0202055 0.0457559 0.0549479 0.0164729 0.0272609 0.0477053 -0.00891563 0.0201657 0.00848734 0.0401289 0.0575764 0.0789651 0.0430679 0.0306132 0.017004 0.0444106 0.0204445 0.0529206 0.0808063 0.101171 -0.00983067
internal_weight=3675.12 2633.89 1941.46 860.254 1081.21 896.406 462.544 325.58 301.811 582.347 74.2307 433.862 508.117 240.123 97.5558 277.907 47.0789 41.969 230.309 410.64 71.5016 23.3845 64.3355 50.6328 210.838 136.964 29.591 33.2202 24.6419 34.4838
internal_count=19659 12283 7379 3727 3652 3085 1634 1149 1066 2404 282 1451 2122 970 395 1323 221 197 819 1370 247 84 262 208 750 485 104 133 97 163
is_linear=0
shrinkage=0.05


Tree=19
num_leaves=31
num_cat=0
split_feature=37 37 19 3 24 26 42 65 29 118 10 32 91 140 21 3 31 37 35 32 30 35 118 63 14 49 44 17 48 64
split_gain=1889.76 2660.31 12.3828 10.8425 14.0645 15.4041 14.5448 10.5158 15.7356 12.8399 9.52501 10.3016 12.7922 10.7225 9.60809 10.3838 9.94549 8.49158 8.41179 8.40941 12.6381 14.2306 13.3231 11.8116 11.3872 13.6449 9.38502 11.2081 11.8845 9.02116
threshold=0.56679546721572949 1.0000000180025095e-35 -0.43616659058922264 -0.62231837393471612 -0.31590523378769148 0.21931177633487084 2.3743270149279927 -1.7992851528728822 -0.90536889907010099 0.0801150589579116 0.78098255666001803 -0.14916353270209529 0.5311446233146947 -0.80399295195326925 0.19206695558939238 -0.50089664135456069 1.5150183795249774 0.59003497406003236 1.6054340317422449 -0.66856994560461602 -0.65677102843877366 -1.7296855906841961 0.1759024152542821 1.4957776857664744 0.59653193571985097 -0.23495754947254599 0.43559358363093498 -1.536614704848797 -0.14214106244380373 -1.307321938070128
decision_type=2 2 2 2 2 2 2 2 2 2 2 2 2 2 2 2 2 2 2 2 2 2 2 2 2 2 2 2 2 2
left_child=1 -1 7 -4 5 6 10 8 9 -3 18 12 13 -12 15 -13 -16 -2 -5 20 26 -22 29 -21 25 -24 27 -6 -29 -23
right_child=17 2 3 4 19 -7 -8 -9 -10 -11 11 14 -14 -15 16 -17 -18 -19 -20 23 21 22 24 -25 -26 -27 -28 28 -30 -31
leaf_value=0.041918340314111568 0.042107214663337417 0.060674245731456258 -0.05028921711345781 -0.056791714700794506 0.0018500792327069181 0.024305752858602994 0.03415026686153072 -0.052364411200278571 -0.048853365329893851 -0.03024851210963142 0.028932021550143978 0.036766769024312217 0.049853451173568208 -0.044796980870012597 -0.070346087266076676 -0.037662074950230107 -0.006774064865556333 -0.018845622864784962 -0.0001284795722138229 -0.047780286336930995 0.036700195437195646 0.0030240401860419474 0.042926927007651605 -0.0020653376741318315 -0.035354182727844963 -0.028531775045847991 -0.03123804090879664 -0.060570408030680846 0.0051055266993153756 -0.051411512955607579
leaf_weight=1222.9920003414154 1832.4574559479952 7.4067490100860587 519.7276625931263 58.2133549451828 8.7432016432285291 12.826846808195112 7.7495030462741843 942.64490136504173 30.259017080068588 8.1614605784416181 7.1664439737796828 7.2362165153026607 8.5451599061489087 15.81053814291954 25.300835341215134 13.297420620918272 8.1289158463478071 5.7318810671567908 7.3801238834857932 709.52659377455711 8.7589952945709211 8.7753560841083509 15.401544749736788 14.416773170232771 23.936558753252029 11.797540634870527 80.311338305473328 117.28762885928154 7.3180178701877585 57.356701225042343
leaf_count=4904 7353 20 1395 157 24 35 21 2527 81 22 20 20 24 43 68 36 22 23 20 1911 24 24 42 39 65 32 217 315 20 155
internal_value=9.61032e-06 -0.0194117 -0.0467514 -0.0442304 -0.0416812 -0.0284007 -0.0326572 -0.0512273 -0.0278378 0.013009 -0.036084 -0.0250868 -0.00237671 -0.0218012 -0.0383526 -0.0114328 -0.0548877 0.0419172 -0.0504164 -0.0438245 -0.0373341 -0.0247767 -0.0293685 -0.0468699 -0.0102027 0.0119319 -0.0447411 -0.0528735 -0.0567133 -0.0441882
internal_weight=5804.67 3966.48 2743.49 1755.01 1235.29 171.655 158.829 988.472 45.8272 15.5682 151.079 85.4855 31.5221 22.977 53.9634 20.5336 33.4298 1838.19 65.5935 1063.63 339.687 126.027 117.268 723.943 51.1356 27.1991 213.66 133.349 124.606 66.1321
internal_count=19659 12283 7379 4729 3334 466 431 2650 123 42 410 233 87 63 146 56 90 7376 177 2868 918 342 318 1950 139 74 576 359 335 179
is_linear=0
shrinkage=0.05


Tree=20
num_leaves=31
num_cat=0
split_feature=139 139 13 0 8 11 13 5 119 7 105 0 136 138 12 67 58 142 59 5 29 30 7 65 142 54 141 19 110 140
split_gain=793.546 998.505 368.697 59.0899 58.0385 26.501 24.9933 21.1399 19.5266 19.2442 18.5078 31.642 19.4395 18.3334 17.788 19.9985 19.2562 20.0314 17.5765 17.8218 20.3166 18.1212 17.3543 17.1751 17.9678 16.4716 16.4427 25.669 16.2343 16.0198
threshold=0.56679546721572949 -1.0000000180025095e-35 0.022651733231289151 0.0097351686624619384 1.0692248271340004 -1.1120600257143012 1.2506137171377214 0.89671080754422372 2.0487167880435648 1.6336078557944074 -0.70918047440710985 -0.019565021351965018 1.0865250513401254 0.086422392802218528 -2.2450611281944197 -0.56847609149044842 2.0085274057431017 1.1251965274136391 -0.07460279171666169 -0.3000389240564712 -0.074613879106705444 0.70759994047111419 -1.3581938639643432 0.46103842094970121 1.326649916142163 -0.9247234266463441 -1.3412946160520676 -0.068930716003235734 -0.02177994067968202 -1.134032507361068
decision_type=2 2 2 2 2 2 2 2 2 2 2 2 2 2 2 2 2 2 2 2 2 2 2 2 2 2 2 2 2 2
left_child=1 -1 3 5 14 22 8 13 26 10 11 12 -7 23 15 -4 18 25 -16 -20 -21 -22 -3 24 -5 -18 27 -6 -15 -12
right_child=-2 2 4 7 6 9 -8 -9 -10 -11 29 -13 -14 28 16 -17 17 -19 19 20 21 -23 -24 -25 -26 -27 -28 -29 -30 -31
leaf_value=-0.037245715141359069 -0.037014253586472895 -0.020024942237398494 -0.0087505259249065805 0.05666289053907872 0.13406404119173274 0.014059473470331249 -0.02981645256413978 0.083218783521968931 0.10327529617840635 -0.011155547688309333 0.06319827144889778 0.078664372826115339 0.08515223523445975 -0.02281333053700826 -0.0074161915958574111 0.078883090161045666 0.024503769870185821 -0.033660527169775849 0.026153081601757135 -0.021481167891203735 0.030670703649839481 -0.040964321933593471 0.067925838229479521 0.073722008825252691 0.0060105231417022066 0.10409802546784666 -0.0047844333763169431 -0.029012220192538643 0.053631878823402229 0.026143304689869491
leaf_weight=687.15516981482506 1041.8919796943665 5.9565005749464026 9.0671708434820157 259.52540518343449 5.4275422543287277 49.452036172151566 99.646372273564339 103.85442644357681 4.5083776712417594 21.910248696804047 32.752827107906342 61.313970044255257 11.936512082815169 12.672117084264757 85.15957398712635 23.085783302783966 11.150673866271974 5.5274125188589087 227.88413839042187 51.273396328091621 59.236844941973686 10.374398574233053 96.079436704516411 162.03608167171478 18.77446261048317 15.58461147546768 210.52579113841057 4.3446796983480436 15.366835460066794 266.47723469138145
leaf_count=4873 7376 21 38 844 24 188 514 318 20 85 116 207 43 42 366 84 44 22 940 229 262 46 309 521 61 59 960 20 50 977
internal_value=-8.82738e-05 0.014551 0.032889 0.0515832 0.00748525 0.0398147 -0.00897251 0.0628098 0.00026666 0.0345325 0.036905 0.0532582 0.0278829 0.0582845 0.0182003 0.0541703 0.0157194 0.0529871 0.0129486 0.0179211 0.00240265 0.0199947 0.0627916 0.0607807 0.0532458 0.0709011 -0.0018414 0.0615612 0.0190827 0.0301992
internal_weight=3669.95 2628.06 1940.9 1118.11 822.797 545.879 324.453 572.229 224.806 443.843 421.933 122.703 61.3885 468.375 498.344 32.153 466.191 32.2627 433.928 348.769 120.885 69.6112 102.036 440.336 278.3 26.7353 220.298 9.77222 28.039 299.23
internal_count=19659 12283 7410 3782 3628 1946 1538 1836 1024 1616 1531 438 231 1518 2090 122 1968 125 1843 1477 537 308 330 1426 905 103 1004 44 92 1093
is_linear=0
shrinkage=0.05


Tree=21
num_leaves=31
num_cat=0
split_feature=37 37 13 8 11 8 15 42 18 55 102 3 141 38 22 6 3 52 55 18 129 94 38 6 92 14 117 38 25 47
split_gain=732.229 895.993 264.855 56.8967 45.9437 25.6822 20.1976 19.152 18.2401 18.6127 23.7853 19.931 17.8431 17.7773 18.4295 18.7259 17.1715 22.8012 21.9671 17.6611 22.2506 17.8856 16.7279 19.1809 18.6777 18.3208 17.2262 16.5494 22.3382 18.0419
threshold=0.56679546721572949 1.0000000180025095e-35 0.010980738304027762 -1.1129209729190623 1.3249432202350293 2.0971280278464159 -1.3720098868679063 -0.84143639499570511 -0.46187339969574098 -1.3364272269557058 0.41164234902215352 0.073807731545573241 -0.8930533786083753 -0.71414284285428464 -0.63072220702725901 0.59265045593443577 0.093772153892571361 -0.17541262298370239 0.90940415471350378 1.2422920567277382 -1.1404921821678704 -0.072168451321374602 -0.79558206344294746 -0.29024279811267073 -0.97463474454523269 -1.7146698337062878 -1.3702857949951044 -0.76251463686185772 -0.095376703643590563 -0.18235147896211626
decision_type=2 2 2 2 2 2 2 2 2 2 2 2 2 2 2 2 2 2 2 2 2 2 2 2 2 2 2 2 2 2
left_child=1 -1 3 8 5 16 -5 13 9 10 -3 -11 -13 -8 15 -15 17 27 19 20 -18 -21 -22 25 -25 -24 -26 -4 29 -29
right_child=-2 2 4 6 -6 -7 7 -9 -10 11 -12 12 -14 14 -16 -17 18 -19 -20 21 22 -23 23 24 26 -27 -28 28 -30 -31
leaf_value=-0.036911075627622775 -0.036681922338099082 0.11898956896490549 0.0035541187808479872 -0.014207098019943958 0.070097157172597541 0.070592503146453198 0.014413749419749195 0.015814446214960181 -0.017458988540806016 -0.013338404416201519 -0.010001743526036401 -0.015185841902266465 0.098826826990866645 -0.010059164614744416 0.068299458201080354 0.075183910337088891 0.013526734721821679 0.052233670629805044 0.062479600750233011 0.045025852173615946 0.062271169700065777 -0.011439509342616139 0.0051485585641011756 -0.025057389722099005 0.091219763054298977 0.061706851509859363 0.022904822130254101 0.011593877925723006 0.020538313975766206 0.093520586921194804
leaf_weight=654.81274056434631 984.85846942663193 8.0802963972091657 81.067850902676582 43.538953691720963 175.5768049955368 73.641364842653275 52.025364384055138 414.12270130217075 191.18010903894901 57.399612188339233 6.4078736901283255 5.7607853561639777 8.4877338558435422 18.90758736431599 55.82949823141098 9.7725948095321638 53.9124995470047 82.875868320465088 135.33249287307262 25.07936429977417 128.44507439434528 31.814912274479866 16.890860170125961 17.067053228616714 10.835216701030729 94.010375067591667 62.201908767223358 9.6358599066734332 98.214490041136742 22.207342281937599
leaf_count=4904 7376 34 284 199 519 218 213 1667 933 269 28 25 34 80 205 40 179 281 441 83 424 108 59 59 35 305 204 33 345 75
internal_value=0.000120592 0.0138232 0.0305147 0.00984884 0.0466127 0.0422412 0.0185765 0.0211686 -0.00885168 0.0102523 0.0619389 -0.000199388 0.0527306 0.0374084 0.0515642 0.0189869 0.0398403 0.0300092 0.0448618 0.0394462 0.0433041 0.0134508 0.048177 0.0391706 0.0220351 0.0530927 0.0330395 0.0212852 0.0323373 0.0687293
internal_weight=3629.99 2645.14 1990.32 871.513 1118.81 943.233 594.197 550.658 277.316 86.1363 14.4882 71.6481 14.2485 136.535 84.5097 28.6802 869.591 294.001 575.59 440.257 383.363 56.8943 329.45 201.005 90.1042 110.901 73.0371 211.126 130.058 31.8432
internal_count=19659 12283 7379 3727 3652 3133 2404 2205 1323 390 62 328 59 538 325 120 2915 1018 1897 1456 1265 191 1086 662 298 364 239 737 453 108
is_linear=0
shrinkage=0.05


Tree=22
num_leaves=31
num_cat=0
split_feature=37 37 19 3 24 26 42 65 29 119 10 32 21 3 37 11 32 63 45 77 71 115 40 28 12 117 68 0 28 0
split_gain=1731.06 2374.17 11.8369 9.99908 12.6636 14.0872 13.4458 9.64697 14.6255 11.2822 8.68383 9.60798 8.81932 9.61161 8.43653 7.88722 8.91549 11.6886 10.2452 10.6847 9.7601 10.2267 9.70719 10.9444 18.6237 11.3155 9.74593 13.3524 8.97237 14.9909
threshold=0.56679546721572949 1.0000000180025095e-35 -0.43616659058922264 -0.62231837393471612 -0.31590523378769148 0.21931177633487084 2.3743270149279927 -1.7992851528728822 -0.90536889907010099 0.6128906300132716 0.78098255666001803 -0.14916353270209529 0.19206695558939238 -0.50089664135456069 0.59003497406003236 1.4554875955818427 -0.69532792322983783 1.4957776857664744 -1.0655904873508049 1.6898766147221689 2.1142494408928787 -0.092818309704145716 -0.41627439221580087 -0.020326864440078137 1.3758473415876531 1.0051779005349144 1.294260344713837 -0.054354119699832247 -1.9051191476474003 -0.0022696092595900857
decision_type=2 2 2 2 2 2 2 2 2 2 2 2 2 2 2 2 2 2 2 2 2 2 2 2 2 2 2 2 2 2
left_child=1 -1 7 -4 5 6 10 8 9 -3 -5 -12 13 -13 -2 16 18 20 -6 22 28 -22 26 24 25 -24 27 -20 29 -18
right_child=14 2 3 4 15 -7 -8 -9 -10 -11 11 12 -14 -15 -16 -17 17 -19 19 -21 21 -23 23 -25 -26 -27 -28 -29 -30 -31
leaf_value=0.041230183354868777 0.041426440045308925 0.054264688998965721 -0.047214297271065075 -0.047360628855920517 -0.048526434105737606 0.024048010046380207 0.033852525364733023 -0.049322661908570153 -0.046071257649578833 -0.030950011445656997 -0.0013176980594348871 0.036272082791170869 -0.051810437023362937 -0.035338487301919637 -0.019653705073457636 -0.05378819165929119 -0.058400952454982884 0.0028579273939143383 -0.051475167436603179 0.01586430483933797 -0.038901073215017241 0.031922135419229523 -0.051504063965056829 -0.051217358450535017 0.025033356583558871 0.0084563149371018904 -0.053056565195623275 0.0039401899602386076 -0.045905306239411192 0.037582702427247677
leaf_weight=1167.2459416240454 1748.6161687374115 8.1289421021938306 521.48705065250397 65.926573157310486 74.558642089366913 12.817634373903273 7.7383340597152701 945.02136781811714 30.328138023614883 7.4385659694671622 31.601357609033585 7.2137893140316036 33.572118520736694 13.371089458465574 5.6716578155755988 108.21153622865677 7.7960177063941982 13.716728657484053 13.791787713766096 13.563386648893355 12.677089631557466 8.5245932638645154 36.153035879135132 72.814137756824493 15.401007175445555 10.057264089584349 14.554342806339262 51.315298736095428 606.76934826374054 8.5066646933555585
leaf_count=4904 7353 22 1395 177 200 35 21 2527 81 20 87 20 90 36 23 289 21 37 37 37 34 23 97 195 42 27 39 140 1627 23
internal_value=-5.37885e-05 -0.0185273 -0.0438634 -0.0414049 -0.038963 -0.0263817 -0.0304362 -0.0482355 -0.0258492 0.0135469 -0.033716 -0.0232267 -0.0360109 -0.0102432 0.041229 -0.0409912 -0.0395491 -0.0428142 -0.0324399 -0.0271713 -0.0437866 -0.0104251 -0.0298978 -0.0380939 -0.0225842 -0.0384542 -0.0160673 -0.00779858 -0.0449218 -0.00831712
internal_weight=5674.59 3920.3 2753.06 1762.14 1240.65 172.241 159.423 990.917 45.8956 15.5675 151.685 85.7584 54.157 20.5849 1754.29 1068.41 960.199 657.99 302.209 227.65 644.274 21.2017 214.087 134.425 61.6113 46.2103 79.6614 65.1071 623.072 16.3027
internal_count=19659 12283 7379 4729 3334 466 431 2650 123 42 410 233 146 56 7376 2868 2579 1765 814 614 1728 57 577 361 166 124 216 177 1671 44
is_linear=0
shrinkage=0.05


Tree=23
num_leaves=31
num_cat=0
split_feature=37 37 13 8 0 22 58 12 3 3 67 62 67 21 141 11 120 123 142 57 92 82 123 117 38 44 38 18 28 71
split_gain=729.203 884.836 316.074 53.0121 50.4705 23.7566 22.3686 20.7738 20.7472 18.9933 18.9074 23.0284 16.7892 16.3894 19.3735 20.0845 19.3733 23.8117 19.4889 18.3285 16.707 16.2224 15.9586 16.629 16.4297 17.6569 15.8289 15.6819 15.0678 16.9532
threshold=0.56679546721572949 -1.0000000180025095e-35 0.022651733231289151 1.6265995620408773 0.0097351686624619384 -0.68130062405856218 2.0085274057431017 -2.2450611281944197 -1.3458568814709218 0.083858448014027726 -1.2483462250269326 0.7017234368341484 -0.56847609149044842 -0.18245475519096729 -1.1814146163409998 0.64594102920246932 -0.37758551493051384 -1.8261588805700526 -1.3266499161421603 1.0151768223874782 -1.126866517063625 0.45322740962397873 1.240952597839118 -1.6197659504237525 -0.91833182093039456 0.011968173520644509 0.91833182093039545 0.3253376714611132 1.3323730759755665 -1.1795572101129739
decision_type=2 2 2 2 2 2 2 2 2 2 2 2 2 2 2 2 2 2 2 2 2 2 2 2 2 2 2 2 2 2
left_child=1 -1 4 6 5 28 7 12 -9 -6 -11 27 -4 14 20 16 17 -16 -18 -19 -10 -22 23 -7 25 -24 -8 -12 29 -3
right_child=-2 2 3 -5 9 22 26 8 13 10 11 -13 -14 -15 15 -17 18 19 -20 -21 21 -23 24 -25 -26 -27 -28 -29 -30 -31
leaf_value=-0.036980503335117577 -0.0367355671120679 0.01468256798408024 -0.014415018644143671 -0.01846804835596191 0.061435717262572055 -0.0050082055867473399 0.062944074350711282 0.10629622431472625 0.13725566024423808 0.098435786814733847 -0.0041396112656178095 0.070652231493101403 0.072760514668426812 -0.00046623228194085854 0.1177941923385004 -0.0082789219338496711 0.080754562477709624 0.017751248992074625 0.0016230684334916313 0.085584637238117045 -0.0011899074631819802 0.1098183274371165 -0.00038446102338932537 0.037003855039620261 -0.014681390705743863 0.10500076368955331 -0.0012167594301561167 0.045484871600669885 0.096478214878892576 0.049676075908100893
leaf_weight=649.79588732123375 985.44755049049854 41.099024921655655 7.3321835845708874 166.93067388236523 489.33138303458691 26.614857792854309 35.631933063268661 5.362647980451583 5.549145162105563 11.494881957769392 41.192021518945694 25.755261987447739 22.38456167280674 305.95359440147877 9.0398883521556836 79.335943639278412 8.4778149873018247 50.841614171862602 94.648342072963715 12.38376824557781 9.9360636472702009 4.9211532771587363 9.2363698333501834 204.78566294908524 40.099012807011604 6.976929545402526 13.164306938648222 25.949147462844849 14.525521248579023 219.25873628258705
leaf_count=4873 7376 134 31 832 1498 97 135 21 22 35 136 82 78 1333 36 352 33 207 386 47 43 20 35 745 154 24 52 85 46 711
internal_value=-3.65741e-05 0.0136726 0.0302273 0.00672348 0.0471367 0.0364056 0.0130475 0.0104668 0.00840017 0.0573052 0.0379433 0.030458 0.0512512 0.00749672 0.0163517 0.0125964 0.022039 0.0418902 0.00812833 0.0310376 0.0632284 0.0355793 0.0263627 0.0321718 0.00249186 0.0449651 0.0456347 0.0150396 0.0469172 0.0441521
internal_weight=3623.46 2638.01 1988.21 831.894 1156.32 562.596 664.963 616.167 586.45 593.723 104.391 92.8964 29.7167 581.087 275.134 254.727 175.391 72.2653 103.126 63.2254 20.4064 14.8572 287.713 231.401 56.3123 16.2133 48.7962 67.1412 274.883 260.358
internal_count=19659 12283 7410 3628 3782 1946 2796 2609 2500 1836 338 303 109 2479 1146 1061 709 290 419 254 85 63 1055 842 213 59 187 221 891 845
is_linear=0
shrinkage=0.05


Tree=24
num_leaves=31
num_cat=0
split_feature=37 37 13 15 22 48 19 78 90 63 6 61 138 141 70 104 7 92 31 62 4 91 0 83 0 11 142 45 50 51
split_gain=673.764 797.225 227.162 48.0132 40.2547 27.3035 20.3992 30.1636 21.5305 21.1837 19.5553 21.4574 19.0064 18.8464 21.8831 20.4345 17.9761 19.0042 17.3479 18.8004 20.8499 16.9685 16.3297 18.2674 15.8489 22.6323 24.2358 21.5315 18.6599 15.6549
threshold=0.56679546721572949 1.0000000180025095e-35 0.010980738304027762 -1.1993079523642918 1.3087214991289089 -0.22826577307580542 0.63141474932301656 -1.6499991465580279 -0.14995691167512018 -0.1173777265395773 -1.0137573030030858 -0.33074285369120232 0.062232056738762288 0.82092053016355548 1.212964525715436 1.8298334717724114 -0.51848962024053347 1.0150903898473989 0.38779262086548155 0.87484809426450016 -0.66066978568691914 -1.3137484800517625 -0.0092106349164745981 0.80997805890423469 0.03398434598048402 -0.70859304156763481 -0.69042395524671885 0.12249413841539962 -0.2831911069671284 -0.1530606069538151
decision_type=2 2 2 2 2 2 2 2 2 2 2 2 2 2 2 2 2 2 2 2 2 2 2 2 2 2 2 2 2 2
left_child=1 -1 3 24 -4 6 7 -5 -8 10 11 -9 29 -7 15 22 -12 -18 19 -11 -21 -20 23 -15 25 -3 -27 28 -28 -10
right_child=-2 2 4 5 -6 13 8 9 12 18 16 -13 -14 14 -16 -17 17 -19 21 20 -22 -23 -24 -25 -26 26 27 -29 -30 -31
leaf_value=-0.036659788333847858 -0.03641859129690006 -0.012121727176976047 0.036753726065684784 0.10031902187534976 0.057280136080160998 -0.0047349307847695176 -0.019333073760252648 -0.015322681008544701 1.644803661687888e-05 -0.013438047472714166 0.086713607095245976 0.080350893701007495 0.082798090874787331 0.0064781862401737155 0.078809733268832852 0.087891571570588856 0.01774812716227004 0.090685053414306105 0.11240488426949485 0.090031745128011487 0.0051416388871063715 0.027628441386744668 -0.016949292416733947 0.092242632237884384 -0.026489347221214245 -0.034841011591696218 0.16664532890827408 0.010656954666560969 0.04567420160807726 0.084488614901203699
leaf_weight=618.81806440651417 930.92811152338982 90.671792581677437 812.61310274899006 15.199931159615515 338.28626930713654 193.80560526251793 46.772454455494881 21.787440910935405 39.524861574172974 62.05876599252224 32.06015557050705 8.0169023871421796 11.837227463722227 21.135124996304516 14.610666796565054 8.0069074630737287 32.640312939882278 12.295020923018454 6.7467831969261161 10.860900714993475 21.655351564288139 47.16557888686657 40.826582983136177 8.7912995219230634 95.94491471350193 8.6280794292688352 6.4665077030658704 10.630968824028967 6.2870574295520818 6.3685760349035254
leaf_count=4904 7376 430 2673 56 979 798 199 86 168 252 119 30 45 83 54 31 126 47 26 42 85 184 177 32 488 40 27 47 27 28
internal_value=0.000174743 0.0130273 0.028161 0.00904979 0.0427871 0.0157576 0.0246427 0.0318914 0.00588085 0.0278171 0.0448002 0.010412 0.0263088 0.00415569 0.0226096 0.012184 0.0581116 0.0377048 0.015602 0.00269861 0.0334962 0.0382377 0.00361636 0.0316727 -0.0112664 0.00063866 0.0367809 0.0632069 0.107011 0.0117385
internal_weight=3581.44 2650.51 2031.7 880.796 1150.9 662.166 374.99 270.487 104.503 255.287 106.8 29.8043 57.7307 287.176 93.3706 78.7599 76.9955 44.9353 148.487 94.575 32.5163 53.9124 70.753 29.9264 218.629 122.684 32.0126 23.3845 12.7536 45.8934
internal_count=19659 12283 7379 3727 3652 2668 1493 1053 440 997 408 116 241 1175 377 323 292 173 589 379 127 210 292 115 1059 571 141 101 54 196
is_linear=0
shrinkage=0.05


Tree=25
num_leaves=31
num_cat=0
split_feature=37 37 18 22 37 13 116 19 81 48 20 51 51 29 32 47 68 61 52 30 116 92 91 3 5 117 50 31 28 55
split_gain=1589.01 2126.98 11.3129 9.71564 8.39152 8.08239 8.39017 7.55893 8.49382 14.2579 11.6312 7.4154 11.7029 7.9499 7.06875 16.2461 13.9268 16.3096 12.8455 10.6431 10.3411 12.3732 8.52092 8.23417 13.52 9.02459 8.96324 17.3209 13.0879 9.96755
threshold=0.56679546721572949 1.0000000180025095e-35 -0.19298855239425858 -1.1315155752958173 0.59003497406003236 1.1879960028182095 -2.2105401777898006 0.46259207436932498 0.069864834123090844 -0.22826577307580506 0.28140021498411005 -0.18850364432216268 -0.18515140647077713 1.6794056248914531 1.5332371331252836 1.4345535653997836 -0.75456726160688181 -0.27551318906782918 -0.21607377077919465 0.23675206025684598 0.46330288389388757 -0.069994005946758212 -0.76513560377734324 1.641995197297683 1.3583637658572147 0.94304959317254666 -0.40971459237529345 -0.4539296919942965 0.23346158109784351 -1.3907969385929089
decision_type=2 2 2 2 2 2 2 2 2 2 2 2 2 2 2 2 2 2 2 2 2 2 2 2 2 2 2 2 2 2
left_child=1 -1 -3 7 -2 6 -5 8 9 -4 -11 -7 -13 -14 23 16 22 18 -18 -20 -19 -22 -16 26 25 -25 27 28 29 -8
right_child=4 2 3 5 -6 11 14 -9 -10 10 -12 12 13 -15 15 -17 17 20 19 -21 21 -23 -24 24 -26 -27 -28 -29 -30 -31
leaf_value=0.040600337721571067 0.040803913361633311 -0.044971939716636183 -0.042521147048871562 0.0094297866564782441 -0.020423142276717012 -0.053366673817135349 0.061286813923963984 -0.052568997947583941 -0.051604641094974146 -0.037406550337955778 0.035329576192182681 0.013437059377646715 -0.047157559893894349 0.0050623435142946377 -0.015950515593618177 0.036961963816458533 -0.050186189124255765 -0.05567971695852874 -0.010427582664128085 0.049591186112090319 0.038075536396325757 -0.043432081808167995 -0.06701899669959728 -0.052048863963426034 0.038916776884522691 0.010569050557591648 -0.039553269407825054 -0.050226453411204755 -0.039631185405254357 -0.0017951444801574375
leaf_weight=1112.5521675795317 1666.3109186589718 1198.0656788349152 38.144273787736893 10.62784484028816 5.6150684952735892 123.64680179953575 8.0641337633132917 191.43506395816803 49.290958851575851 8.961518198251726 14.213547617197035 11.19720137119293 66.076838403940201 8.1919355988502485 11.181884795427321 9.9220851659774763 7.83675593137741 29.48322194814682 13.765188604593279 15.939585655927656 8.1704301536083239 10.825089961290358 30.30552539229393 17.573554158210758 9.2061728835105878 8.5551718175411207 770.96718066930771 35.072133094072342 18.276001870632172 28.022414773702621
leaf_count=4904 7353 3208 102 29 23 331 22 512 132 24 38 30 177 22 30 27 21 79 37 43 22 29 81 47 25 23 2069 94 49 76
internal_value=-0.000127965 -0.0177428 -0.0413204 -0.038507 0.0405983 -0.0365665 -0.034769 -0.0465566 -0.0361507 -0.0237282 0.00720339 -0.0455386 -0.0342136 -0.0413976 -0.0352237 -0.0246651 -0.0294606 -0.0179847 0.00675594 0.0217785 -0.0371437 -0.00837369 -0.0532548 -0.0368436 -0.0131878 -0.0315463 -0.0378151 -0.0228315 -0.00515757 0.0123016
internal_weight=5537.5 3865.57 2753.02 1554.95 1671.93 1252.91 1043.79 302.045 110.61 61.3193 23.1751 209.113 85.466 74.2688 1033.17 137.43 127.508 86.0203 37.5415 29.7048 48.4787 18.9955 41.4874 895.737 35.3349 26.1287 860.402 89.4347 54.3626 36.0865
internal_count=19659 12283 7379 4171 7376 3363 2803 808 296 164 62 560 229 199 2774 369 342 231 101 80 130 51 111 2405 95 70 2310 241 147 98
is_linear=0
shrinkage=0.05


Tree=26
num_leaves=31
num_cat=0
split_feature=37 37 13 8 22 8 58 12 135 3 117 29 99 38 120 25 123 70 123 52 140 55 3 25 117 7 62 144 99 13
split_gain=671.261 787.928 272.894 48.1989 45.3033 23.4297 19.8625 18.4463 17.8093 17.6952 15.9319 23.2848 31.1069 22.3566 18.4662 20.0089 15.6302 15.6015 17.1347 18.7297 21.8416 17.3448 17.1262 15.6943 15.6178 18.9518 15.4244 14.9916 22.9368 21.4987
threshold=0.56679546721572949 -1.0000000180025095e-35 0.022651733231289151 1.6265995620408773 -1.1315155752958173 0.81459275761570027 2.0085274057431017 -2.2450611281944197 -1.625543440782103 -1.3458568814709218 -0.13864297699771025 -0.58199537346035235 1.0575866196768053 -0.82943721986351904 1.6161274294426804 0.11352223101240541 -0.31894808854857554 0.988514062865543 1.6411142967409409 -0.19674712159431276 1.0013251922090891 0.48677264876028697 0.42601827771273398 -0.18551738388383396 -1.4445001572778582 -0.54887522537352318 -0.38683135741134389 0.16862327206613711 -0.033993126019009549 0.56686507054084823
decision_type=2 2 2 2 2 2 2 2 2 2 2 2 2 2 2 2 2 2 2 2 2 2 2 2 2 2 2 2 2 2
left_child=1 -1 4 6 -3 8 7 -4 -6 -9 11 12 13 16 15 27 -11 18 19 21 -21 24 -23 -19 25 -10 -7 -13 29 -29
right_child=-2 2 3 -5 5 26 -8 9 17 10 -12 14 -14 -15 -16 -17 -18 23 -20 20 -22 22 -24 -25 -26 -27 -28 28 -30 -31
leaf_value=-0.036734106776991717 -0.036474774692675835 0.055938701021228734 0.047400795546888891 -0.018134268435726165 0.072686514253220855 0.03271533199591474 0.042220768631134026 0.094898800680794482 0.05444288110243789 0.089433914330058747 -0.00087582703054603936 0.019911816900658044 0.077390914158134275 -0.03702339953670767 -0.020903068005643288 -0.024962091646928516 -0.0040512705357725444 -0.036810670193183175 0.007364731374210072 0.017833003802271191 0.055529934444063317 0.074206396607665329 -0.00011915494701211055 0.056802744169085539 0.042500916880178805 -0.046858263713380317 -0.014052835336224714 0.036459254475762988 0.016193259665635076 0.1022832002328022
leaf_weight=614.05239728093147 931.44470755755901 445.02567680180073 30.643657773733139 165.07012841105461 36.347511664032936 33.875830709934235 50.345182061195374 5.7508267462253562 7.7781299948692348 6.4402403682470348 315.69152098894119 77.543125227093697 9.5974109470844251 49.217751666903496 19.601131573319435 14.950472354888914 14.623484641313551 4.6611915528774253 58.028382822871208 178.09693366289139 48.995904535055161 67.59451487660408 8.7541594058275205 113.41439017653465 138.37885689735413 11.360566347837446 36.761103615164757 23.26001837849617 29.938647255301476 26.579630300402641
leaf_count=4873 7376 1307 109 832 117 125 187 21 25 26 1341 322 39 219 85 63 62 15 201 600 160 212 30 369 446 38 137 91 123 108
internal_value=2.31619e-05 0.0128888 0.0279115 0.00608142 0.0433193 0.0357715 0.0120105 0.00957247 0.0386451 0.0076183 0.00676386 0.0156388 -0.00704471 -0.018575 0.0250822 0.0303144 0.0245319 0.0367029 0.0329707 0.0361941 0.0259662 0.0461258 0.0656842 0.0531072 0.0366458 -0.00568861 0.00837609 0.0355674 0.0507844 0.0715634
internal_weight=3573.82 2642.38 2028.33 839.253 1189.07 744.047 674.183 623.838 673.411 593.194 587.443 271.752 79.8789 70.2815 191.873 172.272 21.0637 637.063 518.987 460.959 227.093 233.866 76.3487 118.076 157.518 19.1387 70.6369 157.321 79.7783 49.8396
internal_count=19659 12283 7410 3628 3782 2475 2796 2609 2213 2500 2479 1138 346 307 792 707 88 2096 1712 1511 760 751 242 384 509 63 262 644 322 199
is_linear=0
shrinkage=0.05


Tree=27
num_leaves=31
num_cat=0
split_feature=37 37 13 15 11 14 18 48 31 82 100 144 0 3 64 36 104 141 42 78 19 118 135 14 67 15 62 121 70 42
split_gain=620.843 712.18 196.311 44.7945 36.7088 26.0453 22.2206 22.7013 25.0401 21.8945 21.2635 19.8176 19.5703 21.8749 24.9642 24.207 16.463 22.7972 16.0521 15.7025 15.4021 16.2506 17.8351 20.2929 21.9771 15.2373 15.9497 15.146 14.869 18.4169
threshold=0.56679546721572949 1.0000000180025095e-35 0.045549568696882349 -1.1993079523642918 1.3249432202350293 0.95482022608431438 0.59227598356510469 -0.22826577307580578 -0.78702847653116748 -1.5674154204258246 -0.59219965411788111 -1.4597353625207099 -0.032908407032076571 0.093772153892571361 -0.54946546664662654 1.5196356759219969 0.89244484159859183 0.87308118374908028 -1.2413751089674971 1.6916056254474439 -0.67497823767863396 -0.47937455589088596 -0.79382881565994035 -0.69709873684319312 -0.25096421364808102 -0.13241184104934059 -0.23372021194713821 1.0113152658463547 1.7719841300034858 -0.42664590981538481
decision_type=2 2 2 2 2 2 2 2 2 2 2 2 2 2 2 2 2 2 2 2 2 2 2 2 2 2 2 2 2 2
left_child=1 -1 3 20 12 6 7 8 -5 -7 -10 -12 -4 14 15 -14 25 -18 -15 -11 21 -3 -23 -24 -25 -9 -27 -13 29 -16
right_child=-2 2 4 5 -6 9 -8 16 10 19 11 27 13 18 28 -17 17 -19 -20 -21 -22 22 23 24 -26 26 -28 -29 -30 -31
leaf_value=-0.036425748844964766 -0.036171426538805049 -0.023690064229880726 0.045680367109168139 -0.0076480910458055053 0.060226071589515831 0.060380709156751346 -0.013670908116303013 -0.023301913735199679 0.0068316250123826808 0.02352330374123876 -0.020472348864615488 0.055054641605138378 -0.012818831117121527 0.011082297549875659 0.04704681529933559 0.079038597792763746 -7.8009312980193077e-05 0.091169340578474853 0.040797416920909074 -0.021990023653096418 -0.018944133378266368 -0.024896095085514169 -0.023940679093288952 0.0042874607236738829 0.11722948775571117 -0.019876558792145439 0.056435894096012476 0.11907146707665205 0.089209568980897228 0.0069565210406676431
leaf_weight=584.4498151242733 879.41408254206181 20.789000526070595 334.80053056776524 34.729424953460693 184.59565269947052 38.704172998666763 105.38485369086266 71.210275113582611 29.22832490503788 274.85880960524082 7.0828400552272788 44.806321367621422 74.401905372738838 51.701040804386139 55.46774622797966 7.9373466074466696 20.146457582712177 10.367750540375708 375.78652773797512 20.354350090026855 160.81581330299377 9.940873906016348 6.29899834096432 6.4771007597446468 12.857334733009337 12.932340651750566 14.551154464483259 11.639738708734511 10.245099633932112 59.244210600852966
leaf_count=4904 7376 98 1000 143 519 136 480 305 116 1015 30 174 254 166 183 26 83 39 1183 86 802 48 31 27 53 50 56 43 33 200
